//Numpy array shape [16, 32]
//Min -0.464299321175
//Max 0.546528279781
//Number of zeros 51

#ifndef W5_H_
#define W5_H_

#ifndef __SYNTHESIS__
model_default_t w5[512];
#else
model_default_t w5[512] = {-0.1806695908, -0.0000031859, -0.1856147796, -0.0981223360, 0.0124948928, 0.2633761168, 0.3259318173, -0.1474545002, 0.0118539957, -0.0949718431, -0.2148747593, 0.0000288606, -0.3279749155, 0.1040567979, 0.2251279801, -0.0104515012, 0.1336440295, 0.0808164254, 0.1591639519, -0.0000000000, -0.1874824911, 0.4111637175, 0.0000518003, 0.2619804740, 0.2950974405, -0.2026794553, -0.1682683676, -0.0441331938, 0.3432598114, 0.4343157709, 0.0806569308, 0.3187338114, -0.1833538711, -0.0000425926, -0.1200938746, 0.2236960679, -0.1713926792, -0.3047306538, 0.0890923291, -0.1491465569, -0.3824192584, -0.0000002983, -0.0000000000, 0.0000224245, 0.2919972539, -0.0000155390, -0.1523753256, 0.0000223409, 0.3388958275, 0.2237876207, 0.3304702044, -0.0000015407, 0.0000000000, 0.3299922645, 0.0000025316, -0.2471866012, -0.0000069198, -0.0000095112, 0.0000000000, -0.2549345791, 0.2617868185, 0.0882422179, -0.0441616178, 0.0000000000, 0.2542569041, 0.0000022766, 0.4259085059, -0.1048089787, 0.0079571465, 0.4294385016, 0.3069343269, -0.0610631444, 0.3026894033, -0.0854467005, 0.4001243412, -0.2251785100, 0.2430123836, 0.0750245228, 0.2856318355, 0.0639287829, -0.0171239283, 0.1658585221, -0.2774077058, -0.0000002701, -0.1799981147, -0.0703667700, 0.0010043683, -0.2379306108, -0.2927757502, -0.1933071464, -0.1000481173, 0.1696384996, -0.2824567854, 0.3758816719, 0.4282489121, -0.1771831810, 0.0505197942, 0.0000094876, -0.2160000801, 0.3948046267, -0.0743472427, -0.3498547077, 0.1150192916, 0.0971050709, 0.2460384667, -0.1353311837, -0.2957153916, 0.0000000000, -0.0300658476, 0.2785685062, -0.4188687205, -0.0988824517, -0.0487804823, 0.2749977112, 0.1089842916, -0.1589982957, 0.0627297014, 0.0713738799, 0.0001423477, -0.1428721547, -0.0035298229, -0.1920285970, -0.3856016099, -0.0573745593, 0.4547640681, 0.0061165681, 0.1928730756, -0.3464392722, -0.2468292862, -0.0000000000, -0.2005787045, 0.1994130760, 0.2972415388, -0.3379843235, 0.2173072547, 0.0000014072, -0.2813187540, -0.0000582086, 0.1329134107, 0.0000000000, 0.3409784734, -0.0414171964, 0.0469083302, 0.0001046530, -0.0712731332, 0.3971816301, 0.1165262684, -0.0000000000, 0.2566410005, -0.1153548807, 0.0003276001, -0.0000187245, -0.0003122202, 0.0000000000, -0.0000023214, -0.1042242795, -0.0372512788, 0.1267187744, 0.2845017612, 0.2542102039, 0.1015225947, 0.0000230228, -0.0493915044, -0.0817022994, 0.4319577813, -0.0808801055, -0.0039659236, -0.1985227615, 0.3826028705, 0.0482340790, 0.2431761175, 0.0000000000, -0.3739454448, 0.2968407571, 0.3437370062, -0.1548694074, -0.2714595199, -0.3811963201, 0.1438221186, 0.0000176986, 0.1448579729, 0.3093147874, 0.0001001768, -0.0000002762, 0.0988562033, -0.1923592389, -0.2714218199, -0.1806714982, 0.4090574980, 0.1003837362, -0.4197313786, 0.2926684618, -0.3883643150, 0.0000000000, 0.2842790782, 0.3533564508, 0.0515552983, -0.3130036592, 0.4290089309, -0.0003570743, -0.3991231918, 0.1844776571, -0.2700171173, -0.0000000000, -0.1605912894, -0.1536285728, 0.3574219942, 0.5274518132, 0.1745090783, -0.0130984597, 0.4965245128, -0.0000018531, 0.3804239929, 0.1990571171, -0.0006983705, -0.0000000000, 0.1589197516, -0.0000347724, 0.0000136712, 0.4720628560, 0.0000056397, -0.0816852003, 0.0633028522, 0.1246601567, -0.0461216755, 0.0000074668, -0.1882537305, 0.4607777894, 0.1922271103, -0.3360577524, -0.0985853821, -0.3859758675, -0.0937132910, -0.2387715429, -0.4642993212, 0.1826717407, -0.1037169620, -0.3155733943, -0.0237086564, 0.4568929374, 0.0743947625, -0.1485350281, -0.1841032058, 0.1733867228, -0.2956568301, 0.0565373786, 0.0000668169, 0.3330619931, 0.5465282798, 0.1088390127, -0.0312795565, -0.3119119704, 0.3834478557, -0.2433181107, -0.1634476781, -0.1913695037, -0.1509918720, 0.0000000000, 0.0000220813, 0.1521937996, 0.0000078202, -0.1621250063, 0.1652154028, 0.0000269483, -0.3338099122, 0.1808004230, 0.1509132981, 0.0000000000, -0.0000032194, 0.0440275818, 0.0000096219, 0.0000035922, 0.0000000000, -0.0000227499, -0.0127031738, 0.0000372423, -0.1147099286, -0.0000015914, -0.0000000000, -0.0000000000, 0.0733309016, -0.0265133008, 0.0000000000, 0.3326522708, 0.0000000000, 0.0099388789, 0.2456019670, 0.3303008974, -0.2696222663, 0.0000000000, -0.1138126925, 0.1981860399, -0.2488273382, 0.4525653720, -0.0008959424, 0.1108147576, 0.3673386276, 0.0002660785, 0.0928677022, 0.0000000000, -0.0294660684, -0.2639085650, -0.2244693637, 0.0901854932, 0.4005417824, -0.0492017642, 0.1457034051, -0.0000000000, 0.1163094863, 0.0172544140, 0.0004079214, 0.4232692420, 0.0035612187, 0.0000000000, -0.0000000000, 0.3430800438, -0.1852170527, -0.2844009995, -0.3126635551, 0.0126446383, -0.2854533195, -0.0000232570, -0.3639903665, -0.3061231077, -0.2184649408, 0.1543206424, -0.2803987265, -0.3359440267, 0.1828466952, 0.0892164931, -0.0470226109, -0.0000000000, 0.3417547643, 0.3834016323, 0.0563113987, 0.2033232898, -0.2715229094, -0.0218980946, 0.1811258197, 0.0000182964, -0.1161484495, -0.1273752451, -0.0008676870, 0.0000000000, 0.3676559329, 0.1085271984, -0.0000000000, 0.3668796420, -0.1538715512, -0.3674992025, 0.2922156155, 0.2630769312, 0.3246844113, 0.0000031076, 0.2415604591, 0.4207119048, 0.1876895726, 0.2721908689, 0.2921263874, 0.2785591185, 0.2996208668, 0.0568280630, -0.1119513810, 0.0000146139, 0.1791886389, -0.3577989638, -0.1485263407, 0.1066066548, 0.4355625212, -0.2087973058, 0.0517616645, 0.0000095072, 0.2761173844, -0.0664485469, -0.0000628238, 0.0874522701, -0.0620253198, 0.3456073105, 0.2657796443, 0.2157405764, -0.2304090708, -0.4050907493, 0.4481314123, 0.2423221171, -0.3071924448, 0.0000083150, -0.2830899656, -0.2310816199, -0.3810388446, 0.1819984168, 0.0000540152, -0.0814899951, -0.0892295763, 0.3938513398, 0.4697124958, 0.3095546365, -0.1438587010, -0.1065059379, -0.3234275877, -0.1966966391, -0.0427875295, 0.0357461721, -0.2973674238, 0.2615780532, 0.3164656460, -0.0242079608, 0.0004679879, 0.0000146826, 0.3018708527, 0.2472239584, -0.0557299368, 0.0086488379, 0.0000119289, -0.2769791484, 0.3580879569, 0.2449221611, 0.0000000000, -0.0000149461, 0.0000000000, -0.0000000000, -0.0000000000, -0.0000035700, -0.0000017589, 0.0000275704, 0.0000000000, -0.0000092182, 0.0000078099, 0.0000450416, -0.0000000000, 0.0000000000, -0.0000000000, -0.0000000000, 0.0000000000, -0.0000000000, 0.0000217021, 0.0000487919, 0.0000038758, 0.0000067593, -0.0000000000, 0.0000049364, 0.0000000000, -0.0000000000, 0.0000486814, 0.0000232752, -0.0000129858, -0.0000031190, 0.0000000000, 0.0000000000, 0.1967308074, 0.0000000000, 0.0976130962, -0.0531035997, 0.0000000000, -0.0000019976, -0.0000033168, -0.0000252852, -0.0000102125, 0.0000216036, -0.0000009131, 0.0910684839, -0.1091682836, 0.0000071516, 0.2958881557, -0.0000021356, -0.0000258325, -0.0000000000, -0.0000000000, 0.1212851852, 0.0000124366, 0.0000040949, -0.0000250639, -0.0000000000, 0.0000109196, -0.0000121100, -0.0000047566, -0.1874653548, 0.0000000000, 0.0000073609, -0.0000009424, 0.2189007849, 0.4288170934, 0.0000166058, 0.0254115537, 0.2372336686, 0.1721006781, 0.0639888793, -0.0326741077, 0.4210763872, 0.1829641014, 0.1323443353, 0.2212860584, -0.2380331904, 0.1420683712, -0.4310370386, 0.2471935898, -0.0386600532, 0.3997581601, -0.2153679579, 0.2426593453, -0.3441385627, 0.1215720400, -0.0804455206, 0.0005120971, -0.1846681833, 0.1328302473, 0.1893467456, 0.3516722620, 0.3678794801, -0.3804898858, -0.2154605389, -0.1997466236, 0.2022114843};
#endif

#endif
