//Numpy array shape [32, 5]
//Min -1.084296464920
//Max 1.907360553741
//Number of zeros 120

#ifndef W11_H_
#define W11_H_

#ifndef __SYNTHESIS__
model_default_t w11[160];
#else
model_default_t w11[160] = {0.5088880658, 0.0000000000, -0.5296697021, -0.0000000000, -0.0000000000, -0.0000000000, -0.0000000000, 0.0000000000, -0.0000000000, 0.0000000000, 0.0000000000, -0.6968769431, 0.0000000000, -0.0000000000, -0.0000000000, 0.0000000000, 0.0000000000, 0.0000000000, -0.0000000000, -0.4145806134, 0.0000000000, -0.0000000000, 0.0000000000, -0.0000000000, -0.0000000000, -0.8370869160, -0.0000000000, 0.0000000000, 0.3566245735, -0.0000000000, 0.0000000000, -0.0000000000, 0.0000000000, 0.7736358047, -0.9513206482, -0.0000000000, 0.0000000000, -0.0000000000, 0.9378809929, -0.0000000000, -0.0000000000, -0.0000000000, -0.0000000000, -0.0000000000, -0.0000000000, 0.0000000000, 1.0392087698, -0.8721717596, -0.0000000000, 0.0000000000, 0.0000000000, 0.0000000000, 0.0000000000, -0.0000000000, -0.0000000000, 0.0000000000, 0.3744473755, 0.0000000000, -0.6490764022, -0.0000000000, -0.0000000000, 0.0000000000, 0.0000000000, -0.0000000000, -0.0000000000, 0.0000000000, -0.0000000000, 0.0000000000, -1.0416225195, -0.0000000000, -0.0000000000, 0.0000000000, -0.5192534328, -0.8469737768, 1.9073605537, 0.0000000000, -0.7259246111, 0.0000000000, -0.0000000000, -0.0000000000, 0.0000000000, -0.0000000000, 0.0000000000, -0.0000000000, -0.0000000000, 0.0000000000, 0.0000000000, 0.0000000000, -0.0000000000, -0.0000000000, 0.6515731812, -0.0000000000, 0.0000000000, -0.0000000000, -0.0000000000, 0.0000000000, -0.0000000000, 0.0000000000, -0.4849924445, -0.0000000000, 0.0000000000, -0.3197050989, 0.0000000000, 1.0555331707, -0.7115281224, 0.0000000000, 0.0000000000, 0.0000000000, -0.0000000000, -0.5291145444, 0.5322898626, 0.0000000000, -0.5421187878, -0.0000000000, 0.3614693880, 0.0000000000, -0.3485954404, 0.0000000000, -0.0000000000, -0.5580644011, -0.0000000000, -0.0000000000, 0.0000000000, -0.0000000000, 0.1262815744, 0.7637431026, 0.0000000000, -0.6710088253, -1.0319883823, 0.4129034877, 0.0000000000, -0.0000000000, 0.0000000000, -0.0000000000, -0.0000000000, 0.0000000000, -0.0000000000, 0.0000000000, -0.8602352738, -0.0000000000, 0.0000000000, 0.0000000000, -0.8913353086, 0.4513534904, 0.5101284385, 0.0000000000, 0.0000000000, 0.0000000000, -0.0000000000, -0.0000000000, -1.0842964649, 0.0000000000, 0.0000000000, -0.0000000000, -0.0000000000, -0.9551125169, 0.0000000000, 0.0000000000, -0.0000000000, -0.0000000000};

#endif

#endif
