//Numpy array shape [16, 64]
//Min -1.502468466759
//Max 1.211749315262
//Number of zeros 768

#ifndef W2_H_
#define W2_H_

#ifndef __SYNTHESIS__
model_default_t w2[1024];
#else
model_default_t w2[1024] = {-0.0000000000, 0.6743578911, 0.0000000000, -0.0000000000, -0.0000000000, -0.0000000000, -0.3635604084, 0.0000000000, -0.0000000000, -0.0000000000, 0.0000000000, -0.0000000000, -0.3892683685, -0.4219568074, -0.0000000000, -0.0000000000, 0.0000000000, 0.0000000000, 0.3558959067, -0.3945491910, 0.0000000000, -0.0000000000, -0.0000000000, 0.0000000000, -0.0000000000, 0.4032555223, 0.0000000000, 0.0000000000, 0.0000000000, -0.0000000000, -0.0000000000, 0.4090657830, -0.0000000000, -0.0000000000, -0.0000000000, 0.4001773596, 0.0000000000, -0.0000000000, -0.0000000000, -0.0000000000, 0.4497354925, -0.0000000000, 0.0000000000, -0.0000000000, 0.0666408241, 0.0000000000, 0.0000000000, -0.3152130842, -0.0000000000, -0.0000000000, 0.0000000000, -0.1400472969, -0.0000000000, 0.0000000000, -0.0107950997, -0.0000000000, 0.0000000000, 0.0000000000, 0.0138582913, -0.0000000000, -0.0000000000, 0.0000000000, -0.4760065079, -0.5289131403, 0.2391308695, -0.0000000000, -0.0000000000, 0.0000000000, 0.0000000000, -0.2023050040, 0.0000000000, -0.0000000000, -0.0000000000, -0.0000000000, -0.0000000000, 0.5744997263, -0.0000000000, 0.0000000000, 0.0000000000, -0.0000000000, -0.0000000000, -0.0000000000, -0.0000000000, 0.0000000000, 0.9031454325, 0.0000000000, 0.0000000000, 0.5294637084, 0.1431466639, 0.6247435808, 0.0000000000, 0.1415089071, -0.0000000000, 0.0000000000, 0.0000000000, -0.0000000000, 0.0000000000, 0.0000000000, 0.0000000000, 0.3780362308, -0.0000000000, 0.0000000000, 0.0000000000, 0.0000000000, 0.9204844832, 0.0000000000, -0.0000000000, 0.0000000000, -0.0000000000, -0.0000000000, -0.0000000000, -0.0000000000, 0.0000000000, -0.3344530463, -0.0000000000, -0.0000000000, 0.0000000000, -0.0000000000, -0.0000000000, 0.0000000000, 0.1802004576, -0.0000000000, 0.0000000000, -0.0000000000, 0.0000000000, -0.2071315050, -0.0000000000, 0.0000000000, 0.0000000000, -0.0000000000, -0.3151838481, 0.7889397740, 0.5118761659, -0.5895708203, 0.0000000000, 0.5242385268, 0.0000000000, 0.2984611392, 0.3905481398, 0.5702290535, 0.0000000000, 0.4175959527, 0.0000000000, -0.1371813715, 0.8294245601, -0.0000000000, 0.0000000000, 0.0000000000, -0.1426064223, 0.4201867282, -0.0893910155, -0.0000000000, 0.0000000000, -0.4214849472, -0.0000000000, -0.0000000000, 0.5116940737, 0.0000000000, 0.0000000000, 0.0000000000, -0.5123898387, 0.5144112110, 0.2243624926, -0.0000000000, -0.0000000000, -0.3330603540, -0.0000000000, -0.0000000000, -0.0000000000, -0.0000000000, -0.0000000000, 0.6409927607, -0.0000000000, -0.0000000000, 0.0000000000, -0.3958532810, -0.0000000000, 0.0000000000, 0.3896356821, -0.4647174478, -0.0000000000, 0.0000000000, -0.0000000000, -0.4869863391, -0.3553209007, 0.0000000000, 0.0000000000, 0.6458258033, -0.5807105303, -0.3969889581, 0.0000000000, -0.2641849816, 0.0000000000, -0.0000000000, 0.3320629001, 0.6709036231, 0.0000000000, -0.8731741309, 0.0000000000, 1.0869590044, -0.7071075439, -0.0000000000, 0.5835500360, -0.0000000000, 0.0000000000, 0.5969674587, 0.0686278269, 0.0000000000, -0.0000000000, -0.1881125271, 0.0000000000, 0.0000000000, -0.0000000000, 0.0000000000, -0.7761901617, -0.0000000000, -0.4859392345, -0.0000000000, -0.0000000000, -0.0000000000, 0.7953044772, 0.0000000000, -0.0000000000, 0.0000000000, -0.0000000000, -0.0000000000, 0.0000000000, -0.6092335582, -0.0000000000, -0.7307401299, -0.2610280514, -0.0000000000, -0.0000000000, 0.6475468874, -0.0000000000, 0.0000000000, -0.5012159944, -0.3927221894, 0.0000000000, -0.9913586378, 0.0000000000, 0.0000000000, 0.4190176129, -0.0000000000, -0.7165735960, -0.0758004412, 0.2335672081, -0.0000000000, -0.0000000000, -0.0000000000, -0.5674233437, 0.0000000000, -0.0000000000, -0.5269711018, 0.0000000000, -0.6343124509, 0.0000000000, 0.1634075642, -0.0000000000, -0.0000000000, -0.0000000000, -0.0000000000, 0.2530976832, 0.0000000000, 0.0000000000, -0.0000000000, 0.4714381695, 0.0000000000, 0.0000000000, 0.0000000000, 0.0000000000, 0.0000000000, -0.0000000000, 0.1904480010, 0.0000000000, -0.5348726511, -0.0000000000, 0.3509323895, 0.0000000000, -0.3109846115, 0.0000000000, -0.0000000000, -0.0000000000, -0.0000000000, 0.5874764323, 0.0000000000, -0.0000000000, 0.0001317974, -0.3420078158, 0.4293501377, 0.0000000000, 0.4199666977, -0.4187216759, -0.3471616805, -0.0000000000, -0.0000000000, -0.0000000000, -0.0000000000, -0.0000000000, 0.3780949712, 0.0000000000, -0.0000000000, -0.0000000000, -0.3439831138, 0.3793213964, 0.0000000000, 0.5315743685, -0.0000000000, -0.4446417987, 0.0000000000, -0.0000000000, -0.3339488208, -0.0000000000, 0.3325938284, 0.2634882331, 0.0000000000, -0.6245547533, -0.0000000000, 0.0000000000, 0.0000000000, 0.0000000000, -0.0000000000, -0.0000000000, 0.4659466147, 0.3097526729, -0.0000000000, 0.0000000000, 0.0000000000, 0.0000000000, -0.0000000000, -0.0000000000, -0.0000000000, 0.0000000000, 0.0000000000, -0.0000000000, 0.0000000000, -0.0000000000, -0.0000000000, 0.0000000000, 0.0000000000, 0.0000000000, 0.0000000000, 0.0000000000, -0.0000000000, 0.0000000000, -0.0000000000, -0.0000000000, -0.0000000000, 0.1676868945, 0.0000000000, -0.1932631135, 0.0000000000, -0.0000000000, -0.0000000000, 0.0000000000, -0.0000000000, -0.0000000000, 0.0000000000, -0.0000000000, 0.0000000000, -0.2797188759, 0.0000000000, 0.0000000000, 0.0000000000, -0.4648835361, 0.0000000000, 0.0000000000, -0.4418231547, -0.0000000000, 0.0000000000, -0.0000000000, 0.0000000000, -0.4133594334, -0.0000000000, -0.0000000000, 0.0000000000, -0.0000000000, -0.5753526092, 0.0000000000, 0.2907103300, -0.3535727561, -0.2531052232, 0.0000000000, 0.3004438579, 0.1338839233, 0.0000000000, -0.0000000000, -0.0000000000, -0.0000000000, -0.0000000000, 0.0000000000, -0.0000000000, 0.0000000000, 0.0000000000, 0.0000000000, 0.0000000000, 0.0000000000, -0.0000000000, -0.0000000000, -0.0000000000, 0.2687617242, 0.0000000000, -0.0000000000, 0.0000000000, -0.1490948498, 0.0000000000, 0.0000000000, 0.0000000000, -0.0000000000, -0.0000000000, 0.0000000000, 0.0000000000, -0.0000000000, 0.0000000000, -0.0000000000, 0.1612649560, -0.0000000000, 0.0000000000, 0.0000000000, -0.0000000000, -0.0000000000, 0.0000000000, -0.0000000000, 0.0000000000, 0.0000000000, 0.0000000000, 0.0000000000, -0.3515734076, 0.0000000000, -0.0000000000, -0.0000000000, 0.0000000000, -0.3378192782, 0.0000000000, 0.0000000000, -0.0000000000, -0.0000000000, 0.4697586000, -0.0000000000, -0.0000000000, -0.0000000000, 0.0000000000, -0.1187795252, -0.0000000000, -0.0000000000, -0.4899024367, 0.0000000000, 0.0000000000, -0.0000000000, 0.0000000000, -0.0000000000, -0.0000000000, -0.0000000000, -0.0963464603, 0.0000000000, -0.0000000000, 0.0000000000, -0.0000000000, -0.3173922896, 0.0000000000, -0.0000000000, -0.0000000000, 0.0000000000, -0.0000000000, -0.0000000000, -0.2677717507, 0.2524946034, -0.0000000000, 0.0000000000, 0.0000000000, 0.0000000000, 0.0000000000, -0.0000000000, 0.0000000000, -0.0000000000, -0.7726479173, -0.0000000000, 0.0000000000, -0.0000000000, -0.0000000000, 0.0000000000, -0.5131625533, 0.0000000000, -0.0000000000, 0.3728579879, -0.3497061133, -0.0000000000, 0.0000000000, 0.0000000000, 0.0000000000, 0.0000000000, 0.0000000000, -0.4404665232, -0.0000000000, -0.0000000000, 0.0000000000, -0.0000000000, 0.0000000000, -0.2843908668, -0.0000000000, 0.0000000000, -0.0000000000, -0.0000000000, 0.0000000000, -0.0000000000, -0.0000000000, -0.0000000000, -0.0000000000, 0.2832853496, 0.0000000000, 0.0000000000, 0.0000000000, -0.0000000000, 0.0000000000, 0.1769615412, -0.0000000000, -0.0000000000, -0.0000000000, 0.0000000000, -0.0000000000, 0.0000000000, 0.0000000000, 0.0000000000, 0.0000000000, 0.0000000000, -0.0000000000, -0.0000000000, -0.0000000000, 0.0000000000, 0.0000000000, -0.0000000000, 0.0000000000, -0.0000000000, 0.0000000000, 0.0000000000, 0.0000000000, -0.0000000000, -0.0000000000, 0.0000000000, 0.0000000000, -0.0000000000, 0.0000000000, -0.0000000000, 0.0000000000, -0.0000000000, 0.0000000000, 0.0000000000, -0.0000000000, -0.0000000000, 0.0000000000, -0.0000000000, 0.0000000000, 0.0000000000, 0.0000000000, 0.0000000000, 0.1801716536, 0.2198946476, -0.0000000000, -0.0000000000, 0.0000000000, 0.0000000000, 0.0000000000, 0.0000000000, -0.0000000000, -0.0000000000, 0.4965376854, -0.0000000000, -0.0000000000, -0.0000000000, 0.0000000000, 0.0000000000, -0.0000000000, -0.0000000000, 0.0000000000, 0.0000000000, 0.0000000000, -0.0000000000, -0.0000000000, -0.0000000000, -0.0000000000, -0.0000000000, 0.4284204841, 0.0000000000, -0.0000000000, 0.0000000000, -0.0000000000, -0.0000000000, 0.0000000000, -0.0000000000, -0.2013199180, -0.0000000000, -0.0000000000, -0.3564711511, 0.0174590275, -0.0000000000, 0.0000000000, 0.0000000000, 0.0000000000, 0.0000000000, 0.0000000000, -0.0000000000, 0.3538922966, -0.0000000000, 0.0000000000, -0.0000000000, -0.4873269498, -0.0000000000, -0.0000000000, 0.0000000000, -0.0000000000, 0.0000000000, -0.0000000000, -0.0000000000, 0.0000000000, 0.0000000000, 0.0000000000, 0.0000000000, 0.0000000000, 0.0000000000, 0.0000000000, 0.0000000000, 0.0000000000, -0.0000000000, 0.0000000000, -0.0000000000, 0.0000000000, 0.2435197681, 0.3075356483, 0.2795792818, -0.2729735672, -0.0000000000, 0.0000000000, 0.0000000000, 0.2980446517, -0.0000000000, -0.0000000000, 0.0000000000, 0.0000000000, 0.0000000000, 0.3436347246, -0.0000000000, -0.0536569394, -0.0000000000, -0.1727599204, 0.1466094404, 0.0000000000, 0.0000000000, -0.1840309352, 0.0000000000, -0.0000000000, -0.4783591330, 0.0000000000, -0.0000000000, 0.0000000000, -0.0000000000, -0.0756469667, -0.0000000000, 0.0000000000, 0.3150912523, 0.0000000000, 0.0000000000, 0.0000000000, 0.0000000000, 0.0000000000, -0.3158532381, 0.0000000000, -0.0000000000, 0.0000000000, -0.0000000000, -0.3654203415, -0.0000000000, -0.0000000000, 0.0000000000, -0.0000000000, 0.0000000000, -0.0000000000, -0.0000000000, 0.0000000000, 0.0000000000, 0.0000000000, 0.3582688570, 0.0000000000, 0.0000000000, -0.0000000000, 0.0000000000, -0.0960834920, -0.0000000000, 0.0000000000, -0.0000000000, 0.0000000000, -0.0000000000, 0.0000000000, 0.0000000000, 0.0000000000, -0.4778878689, 0.0000000000, 0.0000000000, -0.0000000000, -0.0000000000, -0.0000000000, 0.0000000000, 0.0000000000, 0.0000000000, -0.2295408547, -0.0000000000, -0.0000000000, 0.0000000000, -0.0000000000, -0.0000000000, -0.3846715987, 0.0000000000, -0.0000000000, 0.0000000000, -0.0000000000, -0.4208730757, 0.0000000000, -0.5177502036, 0.0000000000, -0.0000000000, -0.2230762094, -0.0000000000, -0.0000000000, -0.0000000000, 0.0000000000, 0.0000000000, 0.0000000000, 0.0000000000, 0.0000000000, -0.0000000000, -0.2764033377, -0.0000000000, 0.0000000000, -0.0000000000, 0.0000000000, 0.3505570590, -0.0000000000, -0.2787764370, -0.0000000000, 0.0000000000, -0.0000000000, 0.0000000000, 0.0000000000, 0.0000000000, 0.0692033246, -0.1483222842, 0.0000000000, 0.0000000000, -0.0000000000, 0.0000000000, 0.0000000000, -0.0000000000, 0.0000000000, -0.0000000000, 0.0000000000, -0.0000000000, -0.3294226825, 0.0000000000, 0.0000000000, -0.0000000000, 0.0000000000, 0.0000000000, -0.2756922841, -0.0000000000, -0.0000000000, 0.0000000000, 0.0000000000, 0.0000000000, 0.0000000000, -0.0000000000, 0.0000000000, -0.0000000000, -0.3222990930, -0.0000000000, 0.0000000000, 0.0000000000, -0.0000000000, 0.0000000000, 0.0000000000, -0.0000000000, 0.0000000000, -0.0000000000, 0.0000000000, -0.0000000000, -0.0000000000, -0.0000000000, -0.0000000000, -0.0000000000, 0.0000000000, 0.0000000000, 0.0000000000, 0.0000000000, 0.0000000000, -0.0000000000, 0.0000000000, -0.0000000000, 0.2069247067, -0.2671978176, 0.0000000000, -0.0000000000, -0.0000000000, 0.0000000000, -0.0000000000, 0.0000000000, -0.0000000000, -0.0000000000, 0.0000000000, 0.0000000000, 0.0000000000, 0.0000000000, 0.4559552073, 0.0000000000, 0.0000000000, 0.0000000000, 0.3498985767, -0.0000000000, -0.1545714140, -0.0000000000, 0.2323272824, -0.3308225572, -0.0000000000, 0.0000000000, 0.0000000000, -0.0000000000, 0.0000000000, -0.0000000000, -0.0000000000, 0.0000000000, -0.0000000000, 0.0000000000, 0.0000000000, 0.0000000000, -0.2757287920, -0.0000000000, 0.0000000000, -0.5420995355, -0.0000000000, -0.0000000000, -0.3034398258, 0.3192691803, -0.0000000000, -0.3127677143, -0.0000000000, -0.0000000000, 0.0000000000, -0.0000000000, 0.0000000000, -0.4023091793, -0.2090205699, 0.0815864801, -0.0000000000, -0.0000000000, 0.0000000000, 0.0000000000, 0.0000000000, 0.0000000000, 0.0000000000, -0.0000000000, 0.0000000000, -0.0000000000, 0.0000000000, -0.0000000000, 0.0000000000, -0.1985302866, -0.0000000000, 0.0000000000, -0.1278510094, -0.2239755988, -0.0000000000, -0.2596952915, 0.0000000000, 0.0000000000, 0.0000000000, 0.0000000000, 0.0000000000, 0.0000000000, -0.0000000000, 0.0000000000, 0.0000000000, -0.0000000000, 0.0000000000, -0.2742531300, 0.2787423134, -0.0000000000, 0.0000000000, 0.0000000000, 0.0000000000, -0.2364941835, 0.0000000000, -0.0000000000, -0.0000000000, -0.0000000000, -0.0000000000, -0.3710370660, 0.0000000000, 0.0000000000, 0.0000000000, 0.0000000000, -0.0000000000, 0.3499322534, -0.2333714068, 0.0000000000, -0.0000000000, 0.0000000000, 0.0000000000, -0.8732976913, -0.0000000000, -0.0000000000, -1.0455429554, -0.8770741820, 0.3464527428, -0.5779116750, -0.7361190319, -1.1104732752, -1.5024684668, 0.0000000000, 0.0000000000, -0.0000000000, 1.2117493153, 0.0000000000, 0.3473502100, 1.0964460373, 0.3933969438, -0.0000000000, -0.0000000000, 0.0000000000, -0.7340447903, -0.8581300378, 0.0000000000, -0.1085777283, -0.0000000000, 0.0000000000, -0.8376460671, 0.6101036072, 0.0000000000, 0.6187447309, -0.0000000000, 0.5634890199, -0.3227562904, -0.0000000000, -0.1797683984, 0.2670780122, 0.1664654166, -1.2827503681, -0.4710777402, 0.6544329524, 0.0000000000, 1.0774794817, 0.7428652644, -0.3508143127, 0.0000000000, -0.0000000000, 0.8419116735, 0.8049941659, -0.7170682549, -0.6105059981, -0.4801055193, -0.0000000000, -0.0000000000, -0.0000000000, 0.4412631989, 0.0000000000, -0.0000000000, -0.0000000000, 0.0000000000, -0.0000000000, 0.0000000000, 0.0000000000, -0.0000000000, -0.3966015279, 0.0000000000, -0.0000000000, 0.0000000000, 0.0000000000, 0.0000000000, 0.0000000000, 0.0000000000, -0.0000000000, -0.0000000000, -1.0088123083, 0.0000000000, -0.0000000000, -0.1788096726, 0.0000000000, -0.0000000000, -0.0000000000, -0.0000000000, -0.0000000000, -0.0000000000, -0.0000000000, 0.5700905323, -0.1945325583, -0.0000000000, 0.7737304568, -0.4649417102, 0.1750642955, 0.0000000000, -0.0000000000, 0.0000000000, 0.0000000000, 0.0000000000, -0.0000000000, 0.0000000000, 0.6977196336, 0.0000000000, -0.6785902977, -0.0000000000, 0.0000000000, 0.0000000000, -0.0000000000, 0.0000000000, -0.0000000000, -0.0000000000, 0.0000000000, -0.0000000000, -0.0000000000, 0.0557310842, 0.3314906061, 0.0000000000, 0.0000000000, 0.0000000000, -0.0000000000, -0.0000000000, -0.0000000000, -0.6225100160};

#endif

#endif
