//Numpy array shape [64, 32]
//Min -1.004961609840
//Max 0.848089873791
//Number of zeros 1536

#ifndef W5_H_
#define W5_H_

#ifndef __SYNTHESIS__
model_default_t w5[2048];
#else
model_default_t w5[2048] = {-0.0000000000, 0.0447718836, -0.0000000000, 0.1807889342, 0.0000000000, 0.0000000000, 0.0000000000, 0.0000000000, 0.0000000000, -0.0000000000, 0.0000000000, 0.0000000000, -0.0000000000, -0.0000000000, -0.0000000000, -0.0000000000, 0.0000000000, 0.0000000000, -0.0000000000, 0.0000000000, -0.0000000000, 0.0000000000, 0.0000000000, -0.0000000000, 0.0000000000, -0.0000000000, 0.0837684870, 0.0000000000, 0.0000000000, 0.0000000000, 0.0000000000, -0.0000000000, 0.0000000000, -0.0000000000, 0.4744451046, -0.0000000000, -0.1360739917, 0.0000000000, -0.0000000000, 0.0000000000, 0.0000000000, 0.0020061673, 0.0000000000, -0.0000000000, 0.0000000000, 0.0000000000, -0.0000000000, 0.0000000000, -0.2953581810, -0.0000000000, -0.0000000000, 0.1035160571, -0.0000000000, 0.0000000000, 0.0000000000, 0.0000000000, 0.0000000000, 0.2767387927, -0.0000000000, -0.0000000000, 0.3795761168, -0.0000000000, 0.0000000000, -0.0000000000, 0.0000000000, 0.0000000000, -0.0000000000, -0.0000000000, -0.0000000000, 0.0000000000, -0.0000000000, 0.0000000000, -0.0000000000, -0.0000000000, 0.4521929324, 0.0000000000, -0.0000000000, 0.0000000000, -0.0000000000, -0.0000000000, 0.0000000000, 0.0000000000, 0.0651713461, 0.0000000000, -0.0000000000, 0.0000000000, 0.0000000000, -0.0000000000, 0.0912097618, -0.0000000000, -0.0000000000, 0.0000000000, -0.0000000000, 0.0000000000, 0.0000000000, -0.0000000000, 0.0000000000, 0.0000000000, -0.0000000000, -0.0000000000, -0.0000000000, 0.6560115218, -0.0000000000, 0.0000000000, -0.1767965406, -0.0000000000, -0.0000000000, 0.1378038973, -0.2474427223, 0.2894316614, -0.0000000000, 0.1838853657, 0.6437215805, 0.0000000000, -0.0000000000, 0.0000000000, -0.2724316120, 0.0000000000, 0.0611500069, -0.0000000000, 0.0000000000, -0.0000000000, -0.0000000000, 0.0000000000, 0.0000000000, 0.5540599823, 0.0000000000, -0.1906808466, 0.0000000000, 0.0000000000, -0.0789192170, -0.0000000000, 0.0000000000, 0.0000000000, -0.0000000000, -0.0000000000, 0.0000000000, 0.1237201318, -0.3262965381, -0.0000000000, -0.0000000000, -0.0000000000, -0.0000000000, -0.0000000000, 0.0000000000, 0.0000000000, -0.0000000000, 0.0000000000, 0.0000000000, 0.0000000000, 0.0000000000, -0.0000000000, 0.0000000000, -0.0000000000, -0.0000000000, 0.0000000000, 0.0000000000, 0.0000000000, 0.0000000000, 0.0000000000, 0.0000000000, -0.0000000000, 0.0000000000, 0.0000000000, 0.0000000000, -0.3666441143, 0.0000000000, 0.0000000000, 0.0000000000, 0.0000000000, 0.2697182298, 0.0000000000, -0.0000000000, -0.0000000000, -0.0000000000, 0.1328071207, -0.0000000000, 0.0000000000, 0.0000000000, 0.0000000000, -0.0000000000, 0.0000000000, 0.0000000000, -0.0000000000, -0.2395060658, -0.0000000000, -0.0150068672, 0.0000000000, 0.3777292073, 0.0000000000, 0.2631433308, -0.0000000000, -0.0000000000, 0.0000000000, -0.2758331001, -0.0000000000, 0.0000000000, 0.0000000000, 0.0000000000, -0.0000000000, 0.0000000000, -0.0000000000, 0.0000000000, -0.0000000000, -0.0000000000, -0.0000000000, 0.0000000000, -0.0000000000, 0.0000000000, 0.0000000000, -0.0000000000, -0.0000000000, 0.0000000000, 0.0000000000, -0.0000000000, 0.2197713256, 0.0000000000, -0.0000000000, -0.0000000000, 0.2737236917, 0.0000000000, 0.0000000000, 0.0000000000, 0.0000000000, 0.0000000000, 0.1569603682, -0.0000000000, 0.0000000000, -0.0000000000, 0.4448901117, -0.0000000000, -0.0000000000, -0.0000000000, 0.3651647270, -0.0000000000, -0.0000000000, -0.0000000000, -0.0000000000, -0.0190997664, 0.0000000000, 0.0000000000, 0.0000000000, 0.1502666026, -0.0000000000, 0.0000000000, 0.0000000000, 0.0000000000, -0.0000000000, -0.0096107312, -0.2447628975, -0.0000000000, 0.0000000000, -0.0000000000, 0.0000000000, 0.0000000000, -0.4746540785, -0.3384645283, 0.3879449666, 0.0000000000, 0.2431456000, 0.0000000000, -0.1026218757, 0.0000000000, -0.3304485679, 0.3267297149, -0.5169693232, -0.1305776089, -0.1232998222, -0.0000000000, -0.0000000000, -0.0000000000, 0.2759371698, -0.0000000000, -0.1814331412, -0.2669247985, 0.0000000000, -0.0000000000, -0.4816765189, 0.0687201545, -0.0000000000, 0.0000000000, -0.0000000000, -0.0340887904, 0.0000000000, 0.0000000000, 0.0000000000, 0.0000000000, 0.2211640328, 0.0000000000, 0.0000000000, -0.0000000000, 0.0000000000, -0.2892574668, 0.0000000000, -0.0000000000, 0.0000000000, 0.0693583488, -0.0000000000, -0.0000000000, 0.1353702545, -0.0000000000, 0.1801086217, -0.0000000000, 0.0000000000, 0.0000000000, 0.0000000000, -0.0000000000, 0.0000000000, -0.0000000000, 0.0000000000, 0.0000000000, -0.0000000000, 0.0000000000, -0.0000000000, -0.0000000000, 0.1660321504, -0.0000000000, 0.0000000000, 0.0000000000, -0.0000000000, 0.0000000000, -0.2189701796, 0.5070699453, -0.2082692087, -0.0000000000, 0.0000000000, -0.0000000000, 0.2128879428, -0.3345396519, -0.0000000000, -0.0000000000, 0.1051733270, -0.0000000000, -0.0000000000, -0.0000000000, 0.0000000000, 0.1698003858, 0.0000000000, -0.0000000000, 0.0000000000, -0.0000000000, 0.0000000000, 0.2878225744, -0.0000000000, 0.1584868878, -0.0000000000, -0.0000000000, 0.0000000000, -0.0000000000, 0.2894587517, 0.0000000000, -0.0000000000, -0.2628980875, -0.3213905692, -0.0000000000, -0.0000000000, 0.0000000000, 0.0000000000, 0.3164739311, 0.0000000000, 0.0000000000, -0.2318759710, 0.0000000000, -0.0000000000, -0.0000000000, -0.0837717280, -0.0000000000, 0.3829205334, 0.0000000000, 0.0000000000, -0.0000000000, 0.0000000000, -0.0000000000, -0.0000000000, 0.3032570481, 0.0000000000, 0.1269392371, -0.0000000000, -0.0354796275, 0.0568349175, -0.3729791641, 0.1866690069, -0.0694948435, -0.0000000000, -0.0603177212, 0.0000000000, -0.0000000000, 0.0000000000, -0.6030400991, 0.0000000000, 0.0000000000, 0.0000000000, 0.2321782410, -0.3390071690, -0.2936021090, 0.0000000000, -0.0000000000, 0.1960431486, 0.4172620475, 0.3911375403, -0.0000000000, 0.0000000000, -0.2246690542, 0.0000000000, -0.0000000000, 0.0000000000, 0.0000000000, -0.0000000000, 0.1564868242, -0.0000000000, -0.0000000000, 0.0000000000, -0.2065355480, 0.6148045063, 0.0000000000, -0.0000000000, 0.0000000000, 0.0000000000, -0.0000000000, 0.0000000000, 0.1003708690, 0.3132809401, -0.0000000000, -0.0000000000, -0.2515048981, 0.2985182703, -0.0000000000, -0.0000000000, -0.0000000000, -0.2392105013, -0.0000000000, 0.0000000000, 0.0000000000, 0.0000000000, 0.0088876178, 0.0000000000, 0.0000000000, 0.0000000000, 0.1661013365, -0.2376961112, 0.0000000000, -0.0000000000, -0.0000000000, 0.0000000000, -0.0000000000, 0.0000000000, 0.0000000000, -0.1035307944, 0.0000000000, 0.0000000000, 0.0000000000, 0.0000000000, -0.0000000000, 0.0000000000, -0.0000000000, 0.0000000000, -0.0000000000, 0.0000000000, 0.0000000000, -0.0000000000, -0.0656956509, 0.0000000000, -0.0000000000, 0.0000000000, -0.0000000000, 0.0000000000, 0.0000000000, 0.0000000000, -0.0000000000, 0.0000000000, 0.0000000000, -0.0000000000, 0.2116600722, -0.1336167902, 0.0000000000, 0.0000000000, -0.2074998766, 0.4299360514, 0.0000000000, -0.0000000000, 0.0000000000, 0.2595664263, 0.0000000000, 0.1035384908, -0.0049022087, 0.0000000000, -0.0000000000, -0.1578770429, 0.0000000000, 0.0000000000, 0.0000000000, -0.0000000000, -0.0000000000, 0.0000000000, 0.2534243166, 0.0000000000, -0.0000000000, 0.0000000000, 0.0000000000, 0.0000000000, -0.0000000000, 0.0000000000, 0.0000000000, -0.0000000000, 0.0000000000, -0.1549011022, 0.0222101882, 0.0000000000, -0.1910800040, 0.0000000000, 0.0605594330, 0.1023679301, -0.5515304208, -0.0000000000, 0.6755796671, 0.0906116962, -0.0000000000, 0.3611898720, 0.0000000000, 0.0000000000, 0.0000000000, -0.0000000000, 0.0000000000, 0.0000000000, -0.0000000000, -0.0000000000, -0.0000000000, 0.4510120749, -0.0000000000, 0.0000000000, -0.0000000000, 0.0000000000, -0.0000000000, -0.1473307163, 0.0000000000, -0.0000000000, 0.4742019773, -0.5349301100, -0.0000000000, 0.0000000000, -0.7427431345, 0.3042104244, 0.0000000000, -0.0000000000, 0.0000000000, -0.0000000000, -0.0000000000, 0.0000000000, 0.0000000000, 0.5458452702, 0.0000000000, -0.3922052681, 0.0000000000, 0.0000000000, 0.1229526699, 0.0000000000, -0.0340570137, -0.0000000000, -0.2547330856, 0.2192257196, 0.0595440753, 0.0000000000, -0.0119400024, 0.0000000000, -0.1143466905, -0.8171951771, 0.0000000000, 0.0926802605, 0.4930634499, -0.9419262409, -0.0000000000, 0.0783412382, -0.3627283573, -0.0138742579, 0.0000000000, -0.0000000000, 0.0000000000, 0.4512857199, 0.0000000000, -0.0000000000, 0.0000000000, -0.0197025333, 0.0000000000, 0.0000000000, 0.0000000000, 0.0000000000, -0.0000000000, -0.0000000000, 0.0000000000, -0.0000000000, -0.0000000000, -0.0000000000, -0.0000000000, -0.0000000000, -0.0000000000, 0.3443125784, 0.0000000000, 0.0000000000, -0.0000000000, 0.0000000000, 0.0282667670, -0.0000000000, 0.5564745069, -0.0000000000, 0.0000000000, 0.0000000000, 0.0000000000, 0.3325936496, 0.0000000000, -0.0000000000, -0.1492120624, 0.0000000000, 0.0000000000, 0.0000000000, 0.0000000000, 0.0000000000, 0.0000000000, 0.0000000000, -0.3144994080, -0.0000000000, -0.0000000000, -0.0000000000, -0.0000000000, 0.0000000000, 0.2552415729, 0.0000000000, 0.0000000000, -0.4287263751, -0.0000000000, -0.0000000000, 0.0000000000, -0.0000000000, -0.0218361169, -0.0000000000, -0.0000000000, 0.0000000000, 0.0000000000, -0.1336349398, 0.0000000000, -0.0000000000, 0.3028089702, 0.0000000000, -0.0000000000, -0.0000000000, 0.0000000000, 0.0000000000, 0.0000000000, 0.0000000000, 0.0000000000, -0.0000000000, 0.1568012089, -0.0000000000, -0.0000000000, -0.0000000000, 0.0781857148, -0.0000000000, 0.0000000000, 0.0000000000, -0.0000000000, 0.3241589963, -0.0000000000, 0.0000000000, 0.0000000000, 0.2332867086, -0.0000000000, -0.0000000000, -0.0000000000, 0.0000000000, -0.0000000000, 0.0000000000, 0.0000000000, -0.0000000000, 0.1758054942, 0.0000000000, -0.0000000000, -0.0000000000, -0.0581735261, 0.0000000000, -0.0000000000, 0.2261267453, -0.7300180197, -0.0000000000, -0.0000000000, -0.0000000000, 0.0372629687, -0.0000000000, -0.0032170124, -0.3663741350, 0.4373574555, 0.0000000000, 0.0769724026, -0.7231995463, 0.0000000000, 0.1936636418, 0.0000000000, -0.0000000000, 0.0000000000, 0.4475167990, -0.0000000000, 0.0000000000, -0.0000000000, 0.0000000000, 0.0000000000, 0.3576592803, 0.0000000000, -0.0000000000, 0.0000000000, -0.0000000000, 0.2344919443, 0.0000000000, 0.0000000000, 0.0000000000, 0.0000000000, -0.2584507763, 0.0000000000, 0.0050592474, 0.2420103103, 0.0827682614, 0.0179748554, 0.0000000000, -0.0000000000, 0.0000000000, -0.0000000000, 0.0000000000, 0.3149179816, 0.0000000000, 0.0000000000, -0.0000000000, 0.0000000000, -0.0000000000, -0.0039340639, 0.0000000000, 0.0000000000, 0.0000000000, 0.0000000000, -0.0000000000, 0.0000000000, 0.0000000000, -0.0000000000, -0.0000000000, 0.0000000000, 0.0000000000, -0.0000000000, 0.0000000000, -0.0000000000, -0.0000000000, 0.1788051873, -0.0000000000, -0.0000000000, -0.0125224199, -0.0000000000, -0.0000000000, 0.0000000000, 0.0000000000, -0.0000000000, 0.3383029699, -0.0000000000, 0.0000000000, 0.0000000000, -0.0000000000, -0.0000000000, 0.1817106158, -0.0000000000, 0.0000000000, -0.0000000000, 0.0000000000, 0.0000000000, -0.0000000000, 0.3441140652, 0.0000000000, -0.3414854109, -0.0000000000, -0.0301783625, 0.0000000000, -0.0000000000, 0.0000000000, 0.0000000000, 0.3790307343, -0.0000000000, 0.3412067294, -0.0000000000, -0.0000000000, -0.0000000000, -0.5044188499, 0.0000000000, -0.0000000000, 0.2099480480, 0.0000000000, -0.0000000000, 0.4181278646, 0.0000000000, -0.0000000000, -0.2101397216, -0.0000000000, -0.0000000000, 0.0000000000, 0.1927250028, 0.0000000000, 0.0000000000, -0.0000000000, 0.0926188827, -0.3423981369, -0.0000000000, -0.0000000000, 0.3089197576, 0.0000000000, 0.0000000000, 0.0000000000, 0.0000000000, -0.0000000000, 0.0000000000, 0.0000000000, -0.0000000000, -0.0000000000, -0.0000000000, -0.0000000000, -0.0000000000, 0.5437716842, -0.0000000000, 0.6031606793, -0.0000000000, 0.1617711931, 0.0000000000, 0.4589426816, -0.0024435688, -0.0000000000, -0.0000000000, 0.0000000000, 0.3865089118, 0.0000000000, 0.5200148821, -0.3563484848, 0.0000000000, 0.0000000000, -0.0000000000, -0.0000000000, 0.0000000000, 0.0000000000, 0.0000000000, 0.1349029988, 0.0000000000, -0.0000000000, 0.0000000000, 0.0898978338, -0.0000000000, -0.0000000000, -0.0000000000, 0.0000000000, 0.0000000000, 0.0000000000, -0.0000000000, 0.0000000000, -0.0000000000, 0.0000000000, 0.0000000000, -0.0000000000, 0.0000000000, -0.0000000000, -0.0000000000, 0.0000000000, 0.0000000000, 0.0000000000, 0.0000000000, -0.0000000000, 0.0000000000, 0.0000000000, -0.0000000000, 0.0000000000, 0.0000000000, 0.0000000000, -0.0000000000, 0.0000000000, -0.0000000000, -0.0000000000, 0.1786927581, 0.1719311476, 0.4099678695, 0.0000000000, -0.0000000000, 0.0000000000, -0.0000000000, 0.0000000000, 0.1480207592, 0.0000000000, -0.0000000000, 0.0000000000, 0.0000000000, -0.0000000000, 0.0000000000, 0.3602843285, 0.0000000000, 0.0000000000, -0.0000000000, 0.0000000000, 0.0000000000, -0.0000000000, 0.0000000000, 0.0000000000, -0.0000000000, -0.0000000000, -0.0000000000, 0.5967437625, -0.0000000000, -0.0000000000, 0.0019528581, 0.2324768603, 0.1330649257, 0.1818614602, -0.0000000000, -0.0000000000, -0.0869119316, -0.0000000000, 0.0000000000, 0.0000000000, -0.0000000000, 0.0000000000, 0.0000000000, 0.0000000000, 0.1011173204, -0.0000000000, 0.0000000000, -0.3363097608, -0.0000000000, 0.2210219502, -0.0000000000, 0.0000000000, -0.2057838142, -0.5846424699, 0.0000000000, 0.5079643726, -0.0000000000, 0.2254868001, -0.0000000000, 0.0000000000, -0.0000000000, 0.0000000000, 0.3054428995, -0.0726931319, -0.3958641589, 0.2875012457, -0.0000000000, 0.0000000000, -0.0000000000, 0.0000000000, 0.2508339882, -0.0000000000, 0.0000000000, 0.0000000000, -0.0000000000, 0.0000000000, 0.0000000000, -0.1150769517, 0.0000000000, -0.0000000000, 0.0000000000, 0.0000000000, -0.2505404353, 0.0000000000, 0.0000000000, -0.0000000000, -0.1822352856, -0.0000000000, -0.0000000000, 0.3278095424, 0.0000000000, 0.0000000000, 0.0000000000, -0.1543301493, 0.2784592509, -0.0000000000, 0.0000000000, -0.0795267075, -0.0000000000, -0.0000000000, -0.0000000000, 0.1519287974, -0.0000000000, 0.0000000000, 0.0000000000, 0.0000000000, -0.0000000000, 0.0000000000, 0.0000000000, -0.0814645514, 0.0000000000, -0.0009845003, -0.0000000000, 0.0000000000, -0.1256099492, 0.0000000000, -0.1627592593, -0.0000000000, -0.0000000000, -0.0000000000, 0.0000000000, -0.0000000000, -0.0000000000, 0.0000000000, -0.0000000000, 0.0000000000, 0.0000000000, 0.0000000000, 0.0000000000, 0.0000000000, 0.0000000000, 0.0742754117, -0.0000000000, -0.0000000000, -0.2436041832, -0.0000000000, -0.0000000000, 0.0000000000, 0.0000000000, 0.0000000000, -0.0000000000, 0.0000000000, 0.0000000000, -0.0000000000, 0.0000000000, -0.0000000000, -0.0000000000, -0.0000000000, -0.0000000000, 0.0000000000, 0.0000000000, 0.0000000000, -0.0000000000, 0.0000000000, 0.3826400340, 0.0000000000, 0.2192176580, -0.1871497184, 0.0000000000, 0.1061341986, 0.2863049209, 0.0000000000, -0.0000000000, 0.0000000000, -0.0000000000, 0.0000000000, 0.0000000000, 0.0000000000, 0.0851921290, 0.0000000000, -0.4001932740, 0.0000000000, 0.0000000000, -0.0000000000, -0.1330071986, -0.0000000000, -0.0000000000, 0.0000000000, -0.0000000000, 0.0000000000, 0.3976390064, -0.0000000000, -0.3091935217, 0.0000000000, 0.0553685986, -0.0000000000, 0.0000000000, 0.0000000000, -0.0000000000, 0.3256717026, -0.0000000000, -0.0000000000, -0.1431216896, -0.0000000000, -0.0000000000, 0.4256660044, 0.0000000000, 0.0000000000, 0.0000000000, 0.0000000000, 0.0000000000, 0.0000000000, -0.0000000000, 0.0000000000, 0.2795820534, -0.0000000000, 0.1515392810, -0.0000000000, 0.1487825215, 0.0000000000, -0.0000000000, 0.0000000000, 0.0000000000, -0.0000000000, 0.0000000000, 0.0000000000, 0.0122177117, 0.0000000000, -0.0000000000, 0.0000000000, -0.0000000000, -0.0000000000, -0.0000000000, -0.1568881571, -0.0000000000, -0.0000000000, -0.0000000000, -0.0000000000, -0.0000000000, 0.0000000000, 0.0000000000, 0.0000000000, -0.0000000000, 0.0000000000, -0.0000000000, 0.0000000000, 0.0000000000, -0.0000000000, 0.0000000000, -0.0000000000, -0.0000000000, 0.0000000000, -0.0000000000, 0.0000000000, 0.0000000000, 0.1088683680, -0.2509344220, 0.1968594193, 0.0000000000, 0.1572258621, -0.2777689993, 0.0000000000, 0.0000000000, -0.2902240455, 0.4453139305, -0.0000000000, 0.0000000000, 0.0000000000, -0.0000000000, -0.0000000000, -0.0000000000, 0.4987759292, -0.0000000000, 0.0000000000, -0.0000000000, 0.3557893634, -0.2250571996, -0.2521855831, 0.0000000000, -0.0000000000, 0.0000000000, -0.0000000000, -0.0000000000, 0.0000000000, 0.0000000000, 0.2770036161, 0.0000000000, 0.0745060816, 0.0000000000, -0.2364175767, -0.0000000000, -0.0000000000, 0.0000000000, 0.0000000000, -0.0000000000, -0.0000000000, 0.0000000000, 0.2139637172, 0.2132043391, -0.0000000000, -0.0941328630, -0.2802738547, -0.0000000000, -0.0000000000, 0.0000000000, 0.0000000000, -0.0000000000, 0.0000000000, -0.0000000000, 0.0000000000, 0.0000000000, -0.0000000000, 0.0000000000, -0.3339682221, -0.0000000000, 0.0000000000, -0.0000000000, 0.0000000000, 0.0000000000, -0.1351924241, 0.0000000000, -0.0000000000, -0.0000000000, 0.2641881406, 0.2104365379, 0.0000000000, 0.0000000000, 0.0000000000, 0.0000000000, 0.0000000000, 0.0000000000, -0.0000000000, -0.0000000000, -0.0000000000, -0.0000000000, 0.0000000000, 0.0816244781, 0.0000000000, 0.0000000000, 0.0000000000, -0.0000000000, -0.0785244256, 0.0000000000, -0.0000000000, -0.3417199850, -0.0000000000, -0.0000000000, 0.0000000000, 0.4830310047, 0.0000000000, 0.0000000000, 0.2428225130, 0.0000000000, 0.3156152666, -0.0000000000, -0.0000000000, 0.1731162518, 0.0000000000, -0.0000000000, 0.0000000000, -0.0676798522, -0.0000000000, -0.0000000000, 0.0000000000, -0.0000000000, 0.1802576035, -0.0000000000, -0.0000000000, 0.0000000000, 0.0000000000, -0.0000000000, 0.0000000000, -0.0000000000, 0.0000000000, 0.0000000000, -0.0000000000, 0.0000000000, 0.3703223765, -0.0000000000, 0.0000000000, -0.0000000000, 0.0000000000, 0.0000000000, -0.0000000000, 0.0000000000, -0.0000000000, -0.0000000000, -0.0000000000, 0.0000000000, 0.0000000000, 0.0000000000, 0.0000000000, 0.0000000000, 0.0000000000, 0.0513973869, -0.0000000000, -0.0000000000, -0.0000000000, -0.0000000000, 0.0000000000, 0.0624638200, -0.0160677712, -0.0000000000, -0.0000000000, -0.0000000000, -0.0000000000, 0.0000000000, 0.0000000000, 0.0000000000, -0.0000000000, -0.0000000000, 0.0000000000, 0.0000000000, 0.0000000000, 0.0000000000, -0.0000000000, 0.0000000000, 0.0855390057, -0.0000000000, -0.0000000000, 0.0000000000, 0.0000000000, -0.0000000000, 0.0000000000, -0.0000000000, -0.0000000000, -0.0000000000, -0.0000000000, -0.0000000000, -0.0000000000, -0.0000000000, -0.0000000000, -0.2136916518, 0.4216175377, -0.0000000000, 0.6291327477, -0.0000000000, 0.0000000000, 0.0000000000, -0.0000000000, 0.0000000000, 0.4123748541, -0.0000000000, 0.0000000000, -0.0000000000, 0.0000000000, 0.0000000000, -0.0797095373, 0.0000000000, -0.3775345683, 0.1438788325, -0.0000000000, 0.0000000000, 0.0000000000, 0.0000000000, 0.0000000000, 0.0000000000, -0.0000000000, 0.0000000000, -0.0000000000, 0.0748377293, -0.4507466555, 0.0000000000, 0.0000000000, 0.0000000000, 0.0000000000, -0.0000000000, -0.0000000000, -0.0000000000, 0.0000000000, 0.0021620253, 0.0000000000, 0.0000000000, -0.0818888769, -0.4053091705, 0.0000000000, 0.0000000000, 0.0000000000, 0.0000000000, -0.0000000000, 0.0000000000, -0.5382284522, 0.1097095609, 0.0000000000, -0.0000000000, 0.0000000000, -0.0000000000, -0.0000000000, 0.0000000000, -0.0000000000, 0.1779032052, -0.0000000000, -0.0000000000, -0.0000000000, 0.0000000000, -0.0000000000, 0.0000000000, 0.4399138987, -0.0000000000, -0.0000000000, 0.0000000000, 0.0000000000, 0.0000000000, -0.0000000000, 0.0000000000, -0.0000000000, -0.4066118896, 0.0000000000, -0.0000000000, 0.0000000000, 0.0000000000, -0.2472890764, -0.1200183108, 0.2565076053, -0.0000000000, 0.0000000000, -0.4280152023, 0.0000000000, -0.0000000000, 0.0000000000, -0.0000000000, -0.2073324472, -0.0000000000, 0.1402589977, -0.0000000000, -0.0000000000, 0.0000000000, 0.1363098919, 0.0000000000, 0.0000000000, -0.0000000000, -0.2769224942, 0.1088546589, 0.0000000000, 0.0000000000, -0.0000000000, 0.0000000000, -0.0000000000, -0.0000000000, 0.2893577218, 0.0000000000, 0.5074846148, -0.4031828642, -0.0000000000, 0.0903712586, 0.1966882050, 0.0000000000, -0.0000000000, 0.0000000000, 0.0000000000, 0.0000000000, 0.0000000000, -0.0000000000, 0.0000000000, 0.0000000000, -0.0000000000, -0.0000000000, -0.0000000000, -0.0000000000, 0.0000000000, -0.3310259581, 0.0000000000, 0.0967443958, 0.1408247650, -0.0000000000, 0.2147165388, 0.0000000000, -0.0000000000, 0.0000000000, 0.5041992664, -0.0000000000, 0.0000000000, 0.0000000000, 0.0000000000, 0.0000000000, 0.2732971907, 0.2397685647, -0.0000000000, 0.0000000000, -0.0000000000, 0.0000000000, -0.0892477483, 0.0000000000, 0.0000000000, 0.0000000000, -0.0000000000, 0.0000000000, 0.0000000000, 0.3202187121, -0.0000000000, -0.0000000000, -0.0000000000, 0.0000000000, 0.0026861671, -0.0000000000, 0.0000000000, -0.0000000000, 0.0000000000, 0.0000000000, -0.0000000000, 0.0000000000, 0.0000000000, -0.0000000000, 0.0000000000, 0.2266397923, -0.6018604040, 0.0000000000, -0.0000000000, 0.0000000000, -0.0537725762, -0.0000000000, 0.4060537219, 0.0000000000, 0.0000000000, 0.0000000000, -0.3866405487, 0.0000000000, 0.0000000000, 0.0000000000, -0.4232898653, -0.0000000000, 0.2640332580, -0.0000000000, 0.5844686031, -0.0000000000, 0.0000000000, -0.1849420816, 0.0000000000, 0.2017162591, -0.8224976659, 0.0000000000, -0.0000000000, 0.0392695740, -0.7011017799, -0.0000000000, 0.0000000000, -0.4185076654, 0.0000000000, -0.1361461431, 0.0482032970, 0.0000000000, -0.0538786463, -0.0000000000, 0.0000000000, 0.0000000000, -0.2560409009, 0.0000000000, -0.4539535046, 0.0000000000, 0.0000000000, 0.0000000000, 0.0000000000, 0.3179310560, -0.0000000000, -0.1107966527, 0.0771943852, -0.0000000000, 0.0000000000, 0.0000000000, -0.2381166518, 0.2439217418, 0.0000000000, 0.0000000000, -0.3510399759, -0.1709064692, -0.2554205060, -0.0000000000, -0.0407613292, 0.3287396431, -0.2359568775, 0.0000000000, 0.1797987372, 0.0000000000, 0.0000000000, -0.0000000000, -0.1905073524, 0.0000000000, 0.0000000000, -0.0000000000, 0.1746551991, -0.0000000000, -0.0000000000, -0.0000000000, -0.0000000000, -0.0000000000, -0.0000000000, -0.0000000000, 0.0000000000, 0.0000000000, 0.0000000000, -0.0000000000, -0.2311812490, -0.0000000000, 0.2356142700, 0.0000000000, -0.0000000000, 0.0000000000, 0.2115575820, -0.0000000000, 0.0000000000, -0.0000000000, 0.0000000000, -0.0666428059, -0.1848026961, 0.1733508110, -0.0000000000, 0.0000000000, -0.1717081219, 0.0000000000, 0.0000000000, 0.0000000000, -0.0000000000, 0.0000000000, -0.0000000000, 0.0000000000, 0.0000000000, 0.0000000000, -0.0000000000, -0.0000000000, -0.0000000000, 0.0000000000, 0.0000000000, -0.0000000000, -0.0858284235, -0.0451365747, -0.0000000000, -0.0000000000, 0.0000000000, 0.0000000000, 0.0000000000, -0.0000000000, -0.0000000000, 0.0000000000, 0.0000000000, 0.0000000000, -0.0000000000, 0.0000000000, 0.0000000000, -0.0000000000, -0.3658518195, -0.0000000000, 0.3549862206, -0.1099274233, 0.3848482668, -0.5222960114, 0.3127831519, -0.0000000000, -0.0000000000, -0.0000000000, -0.0000000000, -0.0000000000, -0.2641789615, 0.0000000000, -0.1513771713, 0.1292041093, 0.0000000000, 0.0000000000, 0.0000000000, 0.0000000000, -0.0000000000, 0.0000000000, 0.1037211195, 0.2574802339, -0.0986494124, -0.0000000000, 0.0000000000, -0.1904478222, -0.0000000000, 0.4238927960, 0.0000000000, -0.0000000000, -0.1141421720, 0.5197214484, 0.0000000000, -0.0000000000, -0.0000000000, 0.0000000000, 0.1562721133, 0.3477278054, 0.0000000000, -0.0000000000, -0.0000000000, -0.0000000000, -0.1020992622, 0.0000000000, 0.0000000000, -0.0000000000, -0.4126900434, -0.0573950745, 0.0000000000, 0.0000000000, -0.0000000000, -0.1500790715, -0.0000000000, -0.0000000000, 0.0000000000, -0.0000000000, 0.0000000000, 0.0000000000, 0.0000000000, 0.1714212447, -0.0000000000, -0.0000000000, 0.0000000000, 0.0000000000, 0.0000000000, 0.0000000000, -0.3744446635, 0.3251787126, -0.0000000000, 0.0000000000, 0.0000000000, -0.0000000000, -0.0000000000, -0.0000000000, 0.0000000000, 0.1057769209, 0.0000000000, 0.0000000000, 0.0000000000, -0.0000000000, 0.0000000000, 0.0000000000, -0.0000000000, -0.0194089692, -0.2062009871, -0.0000000000, 0.0000000000, 0.3143983483, 0.0000000000, 0.3577091992, -0.0000000000, -0.0208237227, -0.0000000000, 0.1665776372, -0.0000000000, -0.0000000000, 0.0000000000, 0.0000000000, -0.0000000000, 0.0000000000, -0.0000000000, 0.0000000000, 0.0000000000, 0.3297526836, -0.0338685215, -0.0000000000, -0.0000000000, 0.1272886693, -0.0000000000, -0.0000000000, 0.0000000000, 0.2928695083, 0.0004070979, -0.0000000000, 0.0000000000, -0.0959758312, -0.0000000000, 0.0000000000, 0.0000000000, -0.0000000000, -0.2316664606, 0.1470581591, 0.0000000000, 0.0000000000, 0.0000000000, -0.0000000000, -0.0000000000, 0.0000000000, 0.0000000000, -0.0000000000, 0.0000000000, 0.0000000000, 0.2346391082, -0.0000000000, -0.0000000000, -0.0000000000, -0.0000000000, -0.0000000000, 0.0000000000, 0.0000000000, 0.0000000000, 0.0000000000, 0.0000000000, -0.0000000000, 0.0000000000, 0.0000000000, -0.0000000000, 0.0000000000, -0.0000000000, -0.0000000000, 0.2434691936, -0.0000000000, 0.0000000000, 0.0000000000, -0.0000000000, 0.5213396549, -0.0449461341, -0.0000000000, -0.0000000000, 0.8480898738, 0.0000000000, 0.0000000000, -0.0000000000, 0.0000000000, 0.4598122835, -0.0000000000, 0.0000000000, -0.2496238202, -1.0049616098, -0.0029797768, 0.0000000000, 0.0000000000, 0.4419289529, -0.0000000000, 0.0000000000, -0.0000000000, 0.0000000000, 0.0000000000, -0.0000000000, 0.0000000000, -0.0000000000, -0.0000000000, 0.0000000000, -0.0000000000, 0.0000000000, 0.0000000000, -0.0000000000, 0.0000000000, 0.0000000000, -0.0000000000, -0.1915579140, 0.4013651609, 0.0000000000, -0.0000000000, -0.0000000000, 0.0000000000, 0.3554836214, 0.1454378366, 0.0786155537, -0.0000000000, -0.0000000000, -0.0000000000, -0.3086705208, 0.0000000000, 0.0000000000, 0.0604501106, 0.0000000000, 0.0000000000, 0.0000000000, 0.0000000000, -0.0000000000, 0.0000000000, -0.0000000000, -0.0000000000, 0.0000000000, -0.0000000000, -0.0918062702, 0.0000000000, 0.0000000000, -0.2681339681, -0.0000000000, -0.0000000000, 0.6217627525, 0.0000000000, 0.3681052923, 0.0000000000, 0.0000000000, 0.0000000000, -0.0000000000, 0.0000000000, 0.0000000000, -0.0000000000, -0.0000000000, -0.0000000000, 0.0000000000, -0.0000000000, 0.0000000000, 0.0000000000, 0.0000000000, -0.0000000000, 0.0000000000, 0.0000000000, -0.0000000000, 0.0000000000, -0.0000000000, -0.0000000000, 0.0000000000, -0.2552175522, 0.0000000000, 0.0000000000, -0.0000000000, 0.0000000000, 0.2939821482, -0.0000000000, 0.3155797720, 0.0000000000, 0.0000000000, 0.0000000000, 0.0000000000, 0.0000000000, -0.5127441883, 0.0000000000, 0.1615023315, -0.0000000000, -0.0000000000, -0.0000000000, 0.1692460328, 0.0535209253, 0.0000000000, -0.0485050753, 0.0000000000, -0.0000000000, 0.0000000000, 0.0722750425, -0.0000000000, 0.0000000000, -0.0000000000, -0.0000000000, 0.0000000000, 0.0000000000, 0.0000000000, 0.0000000000, -0.0000000000, -0.2206131667, 0.2206885815, -0.0000000000, 0.0000000000, -0.3931264579, 0.0000000000, 0.2246764749, 0.0000000000, 0.0000000000, -0.0000000000, -0.3255645335, 0.0505157523, -0.0000000000, -0.0000000000, -0.0000000000, 0.2959377170, 0.0000000000, 0.1794480681, -0.1380334049, 0.0000000000, -0.0000000000, 0.0000000000, 0.0000000000, -0.0000000000, 0.1175511330, 0.0631241053, -0.0000000000, 0.2872985899, 0.0000000000, 0.0000000000, 0.0000000000, -0.0000000000, 0.0000000000, -0.2277669907, 0.0000000000, 0.0000000000, 0.3178505301, 0.0000000000, 0.0000000000, 0.0000000000, 0.0000000000, 0.0000000000, 0.0000000000, -0.0000000000, 0.1434184462, -0.0000000000, -0.0000000000, 0.0000000000, 0.2671098709, 0.2250686437, 0.0000000000, 0.0000000000, -0.0000000000, -0.0462000221, 0.0000000000, -0.0000000000, -0.1407814175, -0.0000000000, -0.0000000000, 0.0000000000, 0.3564761579, -0.0097395545, 0.0000000000, -0.0000000000, 0.0000000000, -0.0000000000, -0.0000000000, 0.0000000000, 0.0000000000, -0.0457952581, 0.0000000000, 0.0000000000, 0.0000000000, -0.1968555748, 0.0000000000, -0.0000000000, -0.0000000000, -0.3297017217, -0.0000000000, 0.0000000000, -0.0000000000, 0.0000000000, 0.0000000000, 0.1536683738, -0.0000000000, -0.0000000000, -0.1636295319, -0.0000000000, 0.0000000000, -0.0000000000, -0.0000000000, -0.0563615859, 0.0000000000, -0.4468374252, 0.0000000000, -0.0000000000, 0.0000000000, 0.0000000000, -0.0000000000, -0.0014816155, 0.0082954960, 0.0000000000, 0.0000000000, 0.0000000000, -0.0027228461, -0.0000000000, -0.0000000000, -0.0000000000, -0.0000000000, -0.0000000000, -0.0000000000, -0.0000000000, 0.0000000000, 0.0000000000, -0.0000000000, 0.0000000000, -0.0000000000, 0.0000000000, 0.0000000000, 0.3135585487, 0.0000000000, -0.0000000000, -0.0000000000, 0.2261331081, 0.2507572174, 0.0000000000, 0.0000000000, 0.2341994494, 0.1312630177, 0.4798389375, -0.0000000000, -0.0000000000, 0.0000000000, -0.3818689287, 0.0000000000, 0.1327848434, 0.0000000000, -0.0000000000, -0.0115960911, 0.0000000000, -0.0000000000, -0.0000000000, 0.0895421579, -0.2750070989, -0.0000000000, -0.2886929512, 0.0000000000, -0.2493619323, 0.4384493232, 0.1810794324, 0.0000000000, -0.0000000000, 0.0000000000, 0.4503040314, 0.1049253047, 0.0000000000, 0.0957084075, -0.0120317508, 0.0000000000, 0.5289620757};

#endif

#endif
