//Numpy array shape [64]
//Min -1.587310910225
//Max 0.999216914177
//Number of zeros 0

#ifndef B21_H_
#define B21_H_

#ifndef __SYNTHESIS__
bn_dense_1_bias_t b21[64];
#else
bn_dense_1_bias_t b21[64] = {-0.1045347899, -1.0815374851, -0.5093721747, -0.5543366075, 0.0964777619, -1.5290033817, 0.2065314054, -0.0195366759, 0.6957417727, -1.0439969301, -0.4572951794, 0.5701276064, -0.2896810770, 0.2986789346, -0.0580043048, -0.3116204441, -0.7523285747, 0.2884559035, -1.3920551538, -0.3168060780, 0.8177773952, -1.2559546232, -0.6188426614, 0.9992169142, 0.4852330387, 0.8171237707, -1.1330937147, 0.5300206542, -0.4119862914, -1.3655359745, 0.5009890795, -0.1685390919, -0.9534842968, -0.1088607758, -0.1828221530, -1.5269485712, 0.4969029427, -0.5940955281, -0.4547994137, -1.4126702547, 0.5786833763, -0.2059619576, -0.0731267035, 0.1773698032, 0.4774956107, -0.5023260117, 0.3832272887, -0.4521748126, -0.5689064264, -0.3881605864, -0.1066587940, -1.0996863842, 0.3119738996, -0.0653464943, -1.5873109102, 0.2324894965, -0.1627410799, 0.0949342176, -0.0961290896, -0.4988552034, -0.7068707943, -0.9869109988, 0.5698732734, 0.7969416976};

#endif

#endif
