//Numpy array shape [42, 64]
//Min -0.406250000000
//Max 0.437500000000
//Number of zeros 1110

#ifndef W19_H_
#define W19_H_

#ifndef __SYNTHESIS__
weight19_t w19[2688];
#else
weight19_t w19[2688] = {0.00000, -0.03125, -0.15625, -0.06250, 0.03125, 0.00000, 0.00000, 0.00000, 0.03125, 0.00000, 0.00000, 0.00000, 0.03125, 0.12500, 0.00000, 0.00000, 0.00000, -0.06250, 0.15625, -0.09375, 0.15625, 0.03125, 0.06250, 0.00000, 0.03125, 0.00000, 0.00000, 0.00000, 0.03125, 0.00000, -0.15625, 0.06250, 0.00000, -0.03125, 0.06250, -0.21875, 0.00000, -0.15625, -0.12500, 0.00000, 0.00000, -0.09375, 0.09375, -0.06250, -0.03125, 0.00000, 0.00000, 0.00000, -0.09375, 0.06250, 0.12500, 0.00000, 0.00000, 0.00000, 0.18750, 0.00000, -0.06250, 0.00000, 0.25000, 0.15625, -0.12500, 0.00000, 0.06250, 0.00000, 0.15625, -0.09375, 0.00000, 0.00000, 0.00000, 0.12500, 0.09375, 0.00000, -0.12500, 0.12500, 0.06250, -0.12500, 0.00000, 0.00000, 0.03125, 0.25000, -0.09375, 0.21875, 0.18750, -0.12500, -0.06250, 0.00000, 0.15625, -0.03125, 0.06250, -0.28125, 0.00000, 0.00000, 0.00000, 0.06250, -0.15625, 0.00000, 0.00000, 0.00000, -0.06250, -0.03125, 0.06250, 0.00000, 0.00000, 0.25000, -0.18750, -0.06250, 0.06250, -0.03125, 0.09375, 0.00000, 0.03125, 0.28125, 0.00000, 0.00000, 0.06250, 0.00000, 0.00000, 0.03125, 0.09375, 0.06250, 0.00000, 0.00000, 0.00000, 0.25000, 0.00000, 0.00000, 0.00000, -0.18750, 0.12500, 0.00000, 0.00000, 0.00000, -0.06250, 0.12500, 0.00000, -0.03125, -0.06250, 0.00000, 0.09375, -0.12500, 0.00000, 0.00000, 0.00000, 0.00000, 0.00000, 0.00000, 0.06250, 0.03125, -0.06250, 0.00000, 0.00000, 0.06250, 0.12500, 0.00000, 0.00000, 0.03125, -0.09375, 0.00000, 0.00000, 0.06250, 0.18750, 0.00000, 0.00000, 0.06250, 0.18750, -0.03125, 0.00000, 0.06250, 0.00000, -0.03125, 0.00000, 0.00000, 0.00000, 0.09375, 0.03125, 0.18750, -0.06250, -0.15625, -0.09375, 0.03125, 0.00000, 0.00000, 0.00000, 0.12500, 0.06250, -0.15625, 0.00000, 0.09375, 0.09375, 0.06250, 0.00000, -0.06250, 0.00000, 0.18750, 0.00000, 0.12500, 0.06250, 0.00000, 0.00000, -0.09375, 0.06250, 0.00000, -0.12500, 0.00000, 0.15625, 0.00000, 0.00000, 0.00000, 0.00000, 0.03125, 0.00000, 0.18750, -0.12500, 0.00000, 0.18750, 0.00000, 0.00000, 0.03125, 0.00000, 0.00000, 0.00000, 0.09375, -0.03125, 0.06250, 0.15625, 0.09375, -0.09375, 0.00000, -0.03125, 0.18750, 0.00000, 0.00000, 0.03125, 0.00000, -0.12500, 0.00000, -0.12500, 0.00000, -0.18750, -0.09375, 0.15625, -0.18750, 0.09375, -0.09375, -0.03125, 0.00000, 0.03125, -0.03125, 0.00000, 0.12500, -0.06250, 0.00000, 0.15625, 0.06250, 0.00000, 0.00000, 0.03125, 0.09375, -0.06250, -0.03125, 0.00000, 0.03125, 0.21875, -0.03125, 0.15625, 0.00000, 0.00000, 0.00000, 0.15625, 0.00000, 0.00000, -0.15625, -0.12500, -0.21875, 0.00000, 0.06250, 0.06250, 0.06250, -0.06250, -0.06250, 0.00000, 0.00000, -0.03125, -0.03125, 0.12500, 0.00000, 0.00000, 0.00000, -0.15625, 0.12500, 0.00000, -0.15625, -0.25000, 0.00000, 0.09375, 0.00000, 0.00000, -0.09375, 0.12500, 0.12500, -0.03125, 0.06250, 0.12500, 0.00000, 0.00000, 0.09375, -0.09375, 0.12500, 0.00000, -0.06250, 0.00000, 0.03125, 0.00000, 0.03125, 0.25000, 0.00000, -0.21875, -0.18750, 0.00000, 0.06250, 0.00000, 0.03125, 0.21875, -0.03125, -0.03125, 0.18750, 0.00000, 0.00000, 0.00000, -0.06250, 0.09375, 0.03125, 0.00000, -0.06250, 0.15625, 0.00000, 0.00000, 0.15625, -0.15625, -0.18750, -0.06250, 0.00000, 0.03125, 0.00000, 0.12500, 0.00000, 0.00000, -0.09375, -0.06250, -0.12500, 0.00000, -0.09375, 0.06250, 0.03125, -0.09375, -0.03125, 0.00000, 0.00000, 0.06250, 0.00000, -0.03125, -0.28125, 0.18750, 0.15625, -0.28125, 0.09375, -0.18750, 0.18750, -0.21875, 0.06250, 0.00000, 0.00000, 0.00000, 0.12500, 0.00000, -0.03125, -0.06250, 0.09375, -0.03125, 0.00000, -0.09375, 0.03125, 0.12500, 0.06250, 0.00000, 0.00000, 0.00000, 0.12500, 0.00000, -0.06250, 0.06250, -0.06250, -0.03125, 0.00000, 0.00000, 0.00000, 0.12500, -0.15625, -0.03125, -0.03125, 0.03125, -0.06250, 0.00000, 0.00000, 0.00000, 0.00000, 0.00000, 0.03125, 0.03125, 0.09375, 0.00000, 0.03125, 0.00000, 0.25000, 0.28125, 0.18750, 0.09375, -0.12500, 0.12500, -0.03125, -0.15625, 0.06250, 0.00000, -0.03125, 0.00000, 0.18750, 0.00000, 0.00000, 0.03125, 0.00000, 0.00000, -0.03125, 0.12500, 0.00000, -0.03125, 0.03125, 0.03125, -0.09375, -0.03125, 0.12500, -0.03125, 0.00000, 0.00000, 0.00000, 0.09375, 0.00000, 0.06250, 0.03125, -0.03125, 0.06250, 0.03125, 0.21875, 0.00000, 0.00000, 0.03125, 0.00000, 0.03125, -0.28125, 0.03125, 0.00000, -0.25000, 0.06250, 0.00000, -0.12500, 0.00000, 0.28125, 0.00000, -0.09375, 0.00000, 0.09375, 0.12500, 0.09375, 0.00000, 0.09375, 0.00000, 0.00000, -0.06250, 0.00000, 0.21875, 0.00000, 0.00000, 0.00000, -0.06250, 0.18750, 0.00000, 0.00000, -0.06250, 0.00000, 0.03125, 0.15625, -0.09375, -0.06250, 0.00000, -0.12500, -0.12500, -0.12500, 0.12500, -0.09375, -0.15625, 0.00000, 0.00000, 0.09375, 0.00000, 0.00000, -0.03125, -0.28125, 0.00000, -0.03125, -0.03125, 0.18750, -0.21875, 0.00000, -0.25000, 0.21875, 0.03125, 0.15625, 0.31250, 0.00000, -0.31250, 0.00000, 0.03125, 0.00000, -0.15625, 0.00000, 0.00000, 0.00000, 0.12500, 0.00000, 0.21875, 0.00000, -0.15625, 0.25000, 0.00000, 0.03125, 0.00000, 0.00000, 0.00000, 0.00000, 0.03125, -0.06250, 0.09375, 0.00000, 0.00000, -0.21875, 0.00000, -0.09375, 0.03125, 0.00000, -0.15625, 0.00000, 0.06250, 0.09375, 0.09375, 0.00000, 0.09375, 0.21875, -0.03125, 0.00000, -0.18750, -0.18750, 0.00000, 0.09375, 0.09375, 0.00000, 0.06250, 0.06250, 0.12500, -0.12500, 0.00000, 0.00000, 0.00000, 0.00000, -0.09375, -0.09375, -0.03125, 0.00000, 0.06250, 0.00000, 0.00000, 0.15625, 0.00000, 0.00000, 0.21875, 0.00000, 0.03125, 0.28125, -0.15625, 0.00000, 0.00000, 0.00000, 0.00000, 0.06250, -0.15625, -0.03125, 0.00000, 0.00000, 0.00000, 0.00000, 0.09375, 0.00000, 0.00000, 0.03125, 0.06250, 0.00000, 0.00000, 0.03125, 0.00000, 0.00000, 0.15625, 0.00000, 0.00000, 0.00000, 0.00000, 0.03125, 0.06250, 0.00000, 0.00000, 0.06250, 0.21875, -0.06250, -0.12500, 0.12500, 0.00000, 0.03125, 0.00000, 0.00000, 0.09375, 0.12500, 0.06250, -0.09375, 0.00000, 0.00000, -0.03125, 0.00000, 0.00000, 0.00000, 0.09375, 0.00000, 0.00000, 0.06250, 0.09375, 0.00000, -0.12500, 0.09375, -0.12500, 0.03125, -0.03125, -0.21875, 0.12500, -0.09375, -0.03125, 0.03125, -0.06250, 0.00000, -0.12500, -0.03125, 0.06250, 0.03125, 0.03125, -0.03125, 0.00000, 0.00000, 0.00000, 0.00000, 0.00000, 0.00000, 0.21875, -0.15625, 0.03125, 0.03125, 0.12500, 0.03125, 0.00000, 0.00000, -0.03125, 0.15625, 0.03125, 0.06250, 0.00000, 0.00000, 0.00000, -0.03125, 0.12500, 0.12500, 0.00000, 0.00000, -0.12500, -0.06250, 0.06250, 0.00000, -0.06250, 0.06250, 0.06250, -0.09375, 0.00000, -0.09375, 0.09375, 0.00000, 0.00000, 0.00000, 0.06250, 0.06250, 0.03125, 0.09375, 0.00000, 0.09375, 0.06250, 0.00000, 0.06250, 0.09375, -0.18750, -0.06250, 0.09375, -0.03125, 0.03125, 0.09375, -0.06250, -0.12500, 0.03125, 0.06250, 0.00000, -0.03125, -0.12500, 0.09375, -0.03125, 0.03125, -0.03125, 0.18750, 0.00000, 0.00000, -0.09375, -0.15625, -0.09375, 0.03125, 0.00000, 0.00000, 0.06250, -0.03125, 0.09375, 0.15625, 0.00000, 0.12500, -0.06250, -0.12500, 0.09375, 0.00000, -0.03125, -0.03125, 0.00000, -0.09375, -0.03125, 0.00000, 0.00000, 0.00000, 0.00000, 0.18750, 0.09375, -0.03125, 0.00000, 0.06250, 0.00000, 0.06250, 0.09375, 0.00000, 0.00000, -0.06250, 0.00000, 0.03125, -0.03125, 0.09375, 0.00000, 0.00000, -0.09375, 0.00000, -0.21875, -0.03125, 0.06250, 0.15625, 0.06250, 0.03125, 0.00000, -0.12500, 0.00000, 0.00000, -0.12500, 0.00000, 0.00000, 0.00000, -0.12500, 0.15625, -0.06250, -0.03125, -0.18750, 0.00000, 0.00000, -0.03125, -0.21875, 0.09375, 0.00000, 0.00000, 0.00000, 0.00000, 0.00000, 0.03125, 0.00000, -0.06250, 0.00000, 0.00000, -0.06250, 0.00000, -0.03125, 0.00000, 0.00000, 0.09375, 0.06250, -0.03125, 0.12500, -0.18750, 0.03125, -0.03125, 0.03125, 0.00000, 0.00000, 0.03125, 0.00000, 0.00000, -0.18750, 0.12500, 0.00000, 0.00000, -0.12500, 0.06250, -0.12500, 0.03125, 0.00000, -0.18750, -0.06250, 0.25000, -0.03125, 0.00000, -0.15625, 0.09375, 0.21875, 0.00000, 0.00000, 0.00000, 0.03125, 0.15625, 0.00000, 0.06250, 0.00000, 0.00000, 0.00000, 0.06250, 0.06250, 0.00000, 0.00000, -0.12500, -0.15625, 0.00000, 0.09375, -0.18750, -0.12500, 0.00000, 0.00000, 0.03125, 0.00000, 0.00000, 0.09375, -0.09375, -0.09375, 0.06250, -0.03125, 0.00000, 0.03125, 0.09375, 0.00000, 0.09375, 0.00000, 0.12500, 0.15625, 0.00000, 0.00000, 0.00000, 0.00000, 0.06250, 0.06250, 0.00000, -0.21875, 0.00000, 0.00000, 0.00000, 0.00000, -0.09375, 0.15625, -0.34375, 0.00000, 0.21875, 0.06250, 0.21875, 0.00000, 0.00000, 0.00000, -0.03125, 0.00000, 0.00000, 0.00000, -0.06250, -0.25000, 0.15625, 0.18750, 0.00000, 0.00000, -0.15625, 0.06250, 0.00000, 0.00000, -0.12500, 0.00000, 0.00000, -0.06250, 0.15625, 0.00000, -0.18750, -0.03125, 0.03125, -0.09375, 0.00000, 0.00000, 0.00000, 0.00000, 0.12500, 0.15625, 0.00000, 0.09375, 0.00000, 0.00000, 0.00000, 0.00000, 0.15625, -0.06250, 0.09375, -0.03125, -0.15625, 0.00000, 0.00000, 0.00000, 0.00000, -0.03125, 0.18750, 0.09375, 0.00000, -0.09375, 0.06250, -0.06250, -0.06250, 0.12500, 0.00000, -0.15625, 0.00000, -0.06250, 0.09375, 0.00000, 0.00000, 0.00000, 0.09375, -0.09375, 0.00000, 0.12500, 0.00000, 0.09375, 0.06250, 0.00000, 0.00000, -0.25000, 0.15625, 0.03125, 0.00000, -0.15625, 0.00000, 0.00000, -0.09375, 0.00000, 0.00000, 0.09375, 0.00000, -0.03125, -0.06250, 0.00000, 0.00000, -0.21875, 0.00000, 0.00000, 0.03125, 0.12500, 0.00000, 0.06250, -0.18750, 0.00000, 0.00000, 0.15625, -0.03125, 0.00000, -0.06250, 0.00000, 0.18750, -0.03125, 0.00000, 0.00000, 0.06250, 0.03125, 0.00000, 0.34375, 0.00000, 0.00000, 0.00000, 0.15625, 0.06250, 0.03125, 0.09375, 0.00000, -0.03125, 0.03125, 0.03125, 0.00000, 0.15625, -0.18750, 0.00000, 0.00000, 0.00000, 0.00000, -0.03125, 0.09375, 0.00000, 0.03125, 0.09375, 0.12500, 0.00000, 0.09375, -0.06250, 0.00000, -0.21875, 0.00000, -0.12500, -0.06250, 0.28125, -0.12500, -0.18750, 0.00000, 0.00000, -0.09375, -0.03125, 0.03125, 0.00000, 0.00000, 0.00000, 0.00000, 0.34375, 0.00000, 0.00000, -0.06250, 0.15625, 0.00000, 0.00000, 0.09375, -0.12500, -0.09375, 0.00000, 0.00000, 0.00000, 0.15625, 0.06250, -0.12500, 0.03125, -0.18750, 0.12500, -0.06250, 0.00000, 0.12500, -0.15625, 0.03125, -0.21875, 0.18750, -0.09375, -0.03125, -0.03125, -0.21875, 0.00000, 0.06250, 0.00000, 0.18750, 0.03125, 0.00000, 0.06250, 0.00000, -0.06250, 0.06250, 0.00000, 0.00000, 0.00000, 0.00000, 0.00000, 0.09375, 0.00000, -0.12500, -0.03125, 0.21875, -0.03125, 0.06250, 0.00000, 0.00000, 0.03125, -0.09375, 0.00000, 0.00000, -0.15625, 0.00000, 0.25000, 0.03125, 0.00000, 0.03125, 0.00000, -0.03125, 0.00000, 0.00000, 0.00000, 0.21875, 0.00000, -0.03125, -0.12500, 0.43750, 0.03125, 0.00000, 0.00000, 0.00000, 0.00000, -0.03125, 0.09375, 0.09375, 0.00000, 0.00000, -0.06250, 0.00000, -0.09375, 0.00000, 0.00000, 0.15625, -0.21875, 0.00000, -0.09375, 0.00000, 0.31250, -0.15625, -0.15625, 0.12500, 0.00000, -0.06250, 0.00000, -0.06250, 0.00000, -0.15625, 0.00000, 0.00000, 0.00000, -0.03125, 0.15625, 0.25000, 0.00000, -0.03125, -0.15625, 0.12500, -0.15625, -0.12500, 0.03125, 0.15625, 0.00000, 0.00000, -0.03125, 0.06250, -0.15625, 0.12500, 0.00000, 0.06250, -0.21875, 0.00000, 0.09375, -0.31250, 0.06250, -0.12500, 0.00000, -0.09375, 0.09375, -0.12500, -0.09375, 0.00000, 0.06250, 0.00000, 0.18750, -0.18750, 0.03125, 0.00000, 0.00000, -0.09375, 0.00000, 0.00000, -0.03125, 0.00000, -0.28125, -0.18750, -0.12500, 0.00000, -0.12500, -0.09375, 0.00000, -0.09375, -0.03125, 0.06250, -0.03125, 0.00000, 0.12500, 0.06250, -0.06250, 0.00000, 0.00000, 0.00000, -0.12500, 0.03125, -0.06250, -0.09375, 0.09375, 0.00000, 0.00000, 0.21875, -0.03125, 0.00000, 0.00000, 0.00000, 0.28125, 0.06250, -0.12500, 0.00000, 0.12500, 0.00000, 0.15625, 0.15625, -0.03125, 0.06250, 0.18750, -0.09375, -0.03125, 0.00000, 0.09375, 0.00000, 0.25000, 0.09375, 0.00000, 0.00000, 0.06250, -0.21875, 0.09375, 0.06250, -0.15625, -0.03125, -0.18750, 0.00000, 0.06250, -0.09375, -0.12500, 0.00000, 0.21875, 0.03125, -0.31250, 0.09375, 0.06250, -0.12500, -0.09375, 0.25000, 0.28125, 0.09375, -0.15625, 0.00000, -0.18750, 0.00000, 0.03125, 0.00000, 0.00000, 0.00000, 0.00000, -0.09375, 0.09375, -0.06250, -0.12500, 0.00000, -0.09375, 0.00000, 0.00000, 0.06250, 0.00000, 0.12500, 0.00000, -0.09375, -0.21875, 0.03125, 0.00000, -0.03125, 0.00000, 0.00000, 0.09375, -0.03125, 0.00000, -0.06250, -0.18750, 0.00000, 0.00000, 0.00000, 0.00000, 0.00000, 0.03125, -0.06250, 0.00000, 0.00000, 0.09375, 0.00000, 0.00000, -0.03125, -0.15625, 0.00000, 0.09375, 0.06250, 0.00000, 0.09375, -0.09375, -0.03125, -0.06250, 0.00000, 0.00000, 0.00000, 0.09375, 0.00000, 0.09375, 0.06250, 0.15625, 0.00000, -0.12500, 0.12500, 0.03125, 0.00000, -0.03125, -0.09375, 0.03125, 0.03125, -0.03125, -0.03125, 0.00000, 0.00000, 0.09375, 0.00000, -0.09375, 0.06250, -0.18750, 0.15625, 0.00000, 0.12500, 0.09375, -0.06250, 0.12500, 0.00000, -0.06250, 0.00000, -0.06250, 0.18750, 0.00000, 0.00000, 0.00000, 0.18750, 0.00000, -0.06250, 0.03125, 0.00000, 0.09375, 0.09375, 0.03125, 0.00000, 0.09375, -0.09375, 0.00000, -0.03125, 0.00000, 0.15625, 0.09375, 0.09375, 0.00000, 0.00000, 0.12500, 0.00000, 0.00000, -0.12500, 0.00000, -0.06250, -0.03125, 0.18750, -0.03125, 0.00000, 0.03125, 0.00000, 0.06250, -0.18750, 0.12500, -0.06250, 0.00000, 0.00000, 0.00000, -0.31250, -0.09375, 0.12500, 0.00000, 0.00000, 0.00000, 0.00000, 0.06250, 0.09375, 0.00000, -0.12500, 0.00000, -0.03125, 0.00000, 0.06250, 0.09375, -0.09375, 0.00000, -0.09375, 0.00000, 0.00000, -0.06250, 0.00000, -0.15625, 0.00000, 0.09375, 0.00000, 0.06250, 0.00000, 0.06250, 0.00000, 0.00000, -0.09375, 0.15625, -0.15625, -0.06250, -0.09375, -0.03125, 0.00000, 0.00000, -0.09375, 0.09375, 0.06250, 0.00000, 0.00000, 0.00000, 0.00000, 0.00000, 0.00000, 0.00000, -0.09375, 0.06250, 0.06250, -0.06250, 0.00000, 0.00000, 0.03125, -0.03125, -0.06250, 0.00000, 0.18750, 0.00000, 0.00000, 0.00000, 0.00000, 0.06250, 0.06250, -0.06250, 0.00000, 0.00000, 0.00000, 0.00000, 0.00000, 0.09375, -0.03125, 0.06250, 0.00000, 0.00000, 0.25000, -0.21875, 0.00000, 0.00000, 0.00000, -0.15625, -0.06250, 0.00000, 0.15625, -0.06250, 0.03125, -0.12500, -0.03125, 0.15625, 0.00000, -0.06250, 0.00000, 0.00000, 0.00000, 0.12500, -0.06250, 0.00000, -0.03125, -0.12500, 0.00000, 0.00000, 0.00000, 0.00000, 0.03125, 0.06250, -0.03125, 0.03125, -0.09375, 0.00000, -0.09375, -0.12500, -0.12500, 0.00000, -0.12500, 0.15625, 0.06250, 0.00000, -0.03125, 0.09375, 0.06250, 0.00000, 0.00000, 0.03125, 0.12500, 0.00000, 0.00000, 0.00000, -0.12500, 0.00000, -0.06250, 0.00000, 0.00000, 0.00000, 0.03125, 0.21875, 0.00000, 0.03125, -0.12500, 0.00000, 0.00000, -0.06250, -0.09375, 0.00000, -0.06250, 0.00000, -0.25000, -0.21875, 0.12500, 0.00000, 0.00000, 0.03125, -0.12500, -0.03125, 0.00000, -0.15625, 0.00000, 0.00000, 0.00000, -0.06250, 0.06250, 0.03125, -0.06250, 0.09375, -0.06250, 0.09375, 0.00000, -0.06250, 0.00000, -0.18750, -0.12500, 0.00000, 0.03125, 0.00000, -0.09375, 0.18750, 0.09375, 0.00000, -0.06250, 0.00000, 0.00000, 0.00000, 0.00000, 0.00000, -0.06250, 0.00000, 0.18750, -0.18750, 0.00000, 0.03125, 0.00000, 0.06250, 0.00000, 0.06250, -0.18750, 0.00000, -0.12500, -0.15625, -0.03125, 0.06250, 0.06250, 0.03125, 0.00000, 0.09375, 0.12500, 0.00000, 0.18750, 0.00000, 0.00000, 0.00000, -0.06250, -0.12500, 0.00000, 0.00000, 0.00000, 0.21875, 0.00000, 0.06250, -0.12500, -0.09375, 0.00000, 0.06250, 0.00000, 0.00000, 0.03125, 0.06250, -0.15625, 0.00000, 0.06250, 0.03125, 0.09375, -0.06250, -0.09375, 0.18750, -0.18750, 0.00000, 0.09375, 0.00000, 0.00000, 0.03125, 0.00000, -0.03125, -0.09375, 0.00000, 0.00000, 0.00000, 0.06250, 0.00000, 0.09375, 0.12500, 0.00000, -0.03125, 0.18750, 0.12500, 0.12500, 0.15625, 0.00000, 0.03125, 0.00000, 0.00000, 0.25000, 0.00000, -0.06250, 0.00000, 0.12500, 0.18750, 0.00000, 0.03125, 0.00000, -0.21875, 0.00000, -0.06250, 0.00000, 0.00000, -0.06250, 0.06250, 0.00000, 0.06250, 0.00000, 0.00000, 0.00000, 0.00000, 0.00000, 0.00000, -0.31250, -0.06250, 0.00000, 0.00000, 0.00000, 0.09375, -0.03125, 0.00000, 0.06250, -0.25000, 0.00000, 0.00000, -0.21875, 0.00000, -0.03125, 0.00000, 0.03125, 0.00000, 0.00000, -0.03125, 0.09375, 0.00000, -0.09375, -0.25000, 0.03125, 0.00000, 0.00000, 0.00000, 0.12500, 0.00000, -0.21875, 0.03125, 0.00000, 0.12500, 0.00000, 0.12500, 0.00000, 0.00000, 0.06250, 0.00000, 0.18750, 0.18750, 0.09375, 0.00000, 0.06250, 0.00000, -0.06250, -0.15625, 0.18750, 0.00000, -0.25000, 0.00000, -0.09375, -0.25000, -0.18750, 0.00000, 0.09375, 0.00000, 0.00000, 0.00000, -0.06250, -0.21875, -0.15625, 0.03125, 0.00000, 0.00000, 0.00000, 0.00000, 0.03125, 0.03125, 0.00000, -0.12500, 0.12500, 0.00000, 0.00000, 0.09375, -0.06250, 0.00000, 0.00000, 0.06250, 0.00000, 0.09375, -0.18750, 0.03125, 0.15625, -0.12500, 0.00000, -0.03125, 0.00000, -0.31250, -0.18750, -0.18750, -0.12500, 0.00000, 0.00000, 0.06250, 0.03125, 0.00000, 0.21875, 0.00000, -0.03125, 0.18750, -0.18750, 0.00000, 0.00000, 0.00000, 0.00000, 0.00000, 0.06250, 0.06250, 0.00000, -0.12500, 0.00000, 0.00000, 0.00000, 0.00000, 0.00000, -0.06250, 0.00000, -0.18750, 0.21875, 0.00000, 0.06250, 0.03125, -0.09375, -0.06250, 0.00000, 0.00000, 0.00000, 0.00000, 0.00000, 0.06250, 0.12500, 0.15625, 0.00000, 0.21875, 0.00000, 0.03125, -0.06250, 0.00000, -0.12500, 0.00000, 0.00000, 0.00000, 0.21875, 0.00000, 0.00000, 0.00000, 0.15625, 0.00000, 0.06250, 0.00000, 0.00000, -0.09375, 0.25000, 0.00000, 0.00000, 0.00000, 0.00000, 0.09375, 0.00000, 0.00000, 0.00000, 0.21875, 0.12500, 0.00000, 0.00000, 0.00000, 0.09375, 0.06250, 0.00000, 0.18750, -0.03125, -0.21875, 0.00000, -0.06250, 0.09375, 0.09375, 0.03125, 0.00000, -0.28125, -0.18750, -0.06250, 0.00000, -0.09375, 0.00000, -0.15625, 0.00000, -0.28125, 0.03125, 0.00000, 0.12500, -0.06250, 0.03125, 0.03125, 0.00000, 0.00000, 0.00000, 0.00000, -0.15625, -0.15625, 0.00000, 0.00000, 0.00000, 0.00000, 0.00000, -0.03125, -0.18750, -0.06250, 0.00000, -0.12500, 0.03125, 0.03125, 0.00000, 0.00000, 0.00000, 0.00000, 0.12500, -0.18750, 0.06250, 0.00000, 0.00000, 0.18750, 0.00000, -0.03125, -0.03125, 0.03125, 0.00000, -0.06250, -0.03125, -0.09375, 0.00000, -0.06250, 0.00000, -0.03125, 0.00000, 0.00000, -0.09375, 0.15625, 0.00000, 0.00000, 0.00000, -0.15625, 0.12500, 0.00000, -0.12500, 0.15625, -0.18750, 0.00000, 0.15625, 0.18750, 0.00000, -0.09375, -0.09375, 0.00000, 0.00000, 0.00000, 0.00000, 0.00000, -0.18750, 0.00000, 0.18750, 0.06250, 0.00000, -0.12500, -0.09375, 0.00000, 0.03125, 0.00000, 0.00000, 0.00000, 0.03125, 0.00000, -0.12500, -0.09375, 0.00000, 0.12500, -0.06250, 0.09375, -0.03125, -0.09375, 0.09375, 0.06250, 0.00000, -0.15625, -0.25000, -0.18750, 0.00000, 0.00000, 0.00000, 0.00000, 0.12500, -0.03125, -0.06250, 0.09375, 0.03125, 0.12500, 0.06250, -0.03125, 0.00000, 0.00000, 0.03125, 0.00000, -0.12500, 0.00000, 0.25000, 0.00000, 0.09375, 0.00000, 0.00000, -0.31250, -0.03125, 0.00000, -0.18750, -0.03125, 0.06250, 0.03125, -0.15625, -0.18750, 0.18750, 0.00000, 0.00000, 0.15625, 0.00000, 0.00000, 0.03125, 0.09375, -0.15625, -0.09375, -0.12500, 0.00000, 0.00000, 0.06250, -0.06250, 0.00000, 0.03125, 0.00000, -0.03125, -0.09375, 0.00000, 0.09375, 0.00000, 0.09375, 0.00000, 0.00000, 0.00000, 0.00000, -0.15625, -0.06250, 0.00000, 0.03125, 0.06250, 0.00000, 0.09375, 0.03125, 0.00000, 0.00000, 0.03125, 0.03125, -0.12500, 0.00000, 0.00000, 0.00000, 0.31250, 0.03125, 0.18750, 0.06250, -0.06250, 0.06250, 0.03125, 0.03125, 0.00000, 0.00000, 0.00000, 0.00000, 0.00000, 0.00000, 0.12500, -0.06250, 0.09375, 0.03125, 0.00000, 0.00000, -0.09375, 0.09375, 0.00000, 0.12500, -0.03125, 0.18750, 0.06250, 0.00000, 0.00000, 0.06250, 0.00000, 0.00000, -0.18750, 0.06250, 0.00000, 0.00000, 0.00000, 0.00000, 0.00000, -0.03125, 0.00000, 0.18750, 0.00000, 0.00000, -0.06250, 0.09375, 0.00000, 0.03125, 0.00000, -0.06250, 0.06250, 0.03125, -0.03125, 0.00000, -0.09375, -0.09375, -0.03125, 0.09375, -0.03125, -0.21875, 0.18750, 0.15625, 0.09375, 0.00000, 0.00000, -0.06250, -0.09375, 0.00000, 0.12500, 0.21875, 0.00000, 0.09375, 0.25000, 0.00000, -0.21875, 0.25000, -0.25000, 0.00000, 0.00000, 0.09375, -0.09375, -0.12500, 0.03125, -0.03125, -0.21875, 0.00000, 0.00000, 0.00000, -0.21875, 0.06250, 0.18750, -0.12500, 0.12500, 0.00000, 0.00000, 0.00000, -0.03125, 0.15625, 0.09375, 0.00000, 0.12500, 0.15625, -0.15625, -0.06250, 0.15625, 0.06250, 0.00000, 0.00000, 0.00000, 0.00000, 0.25000, 0.00000, 0.21875, 0.00000, -0.15625, -0.03125, 0.09375, -0.03125, 0.00000, 0.00000, 0.00000, -0.03125, 0.00000, 0.00000, 0.00000, 0.00000, 0.09375, -0.12500, 0.03125, 0.00000, 0.00000, 0.00000, 0.03125, 0.06250, 0.06250, -0.09375, 0.06250, 0.00000, -0.03125, 0.00000, 0.03125, 0.00000, 0.06250, 0.00000, 0.00000, 0.03125, -0.06250, 0.00000, 0.12500, 0.00000, -0.03125, 0.03125, 0.03125, -0.12500, -0.03125, 0.00000, 0.00000, -0.40625, 0.03125, -0.21875, -0.03125, 0.00000, -0.09375, 0.03125, -0.03125, 0.00000, -0.06250, -0.15625, 0.06250, 0.00000, 0.00000, -0.06250, 0.18750, -0.21875, 0.00000, 0.03125, 0.03125, -0.09375, -0.12500, -0.03125, 0.00000, 0.15625, 0.03125, 0.00000, 0.09375, 0.09375, 0.00000, -0.03125, 0.00000, 0.12500, 0.00000, 0.00000, 0.00000, 0.00000, -0.03125, 0.00000, 0.12500, 0.00000, -0.12500, -0.03125, 0.09375, 0.03125, 0.00000, 0.00000, 0.06250, 0.00000, 0.00000, 0.15625, -0.03125, -0.12500, 0.00000, 0.15625, -0.03125, -0.06250, 0.25000, 0.03125, 0.03125, -0.15625, 0.06250, -0.12500, 0.00000, 0.00000, -0.12500, 0.00000, 0.03125, 0.00000, 0.00000, 0.28125, 0.00000, -0.09375, 0.25000, 0.00000, -0.09375, 0.06250, 0.00000, 0.00000, 0.00000, 0.00000, -0.06250, 0.00000, 0.06250, 0.00000, -0.06250, -0.09375, 0.15625, -0.09375, -0.28125, -0.03125, 0.06250, 0.00000, 0.06250, 0.03125, 0.09375, 0.00000, 0.00000, 0.12500, -0.09375, 0.00000, -0.06250, 0.00000, -0.06250, 0.00000, 0.03125, 0.00000, 0.06250, 0.18750, 0.00000, 0.00000, -0.06250, 0.00000, -0.03125, 0.03125, 0.09375, 0.06250, 0.00000, 0.00000, 0.18750, 0.12500, 0.00000, -0.09375, 0.00000, 0.06250, 0.00000, 0.00000, 0.06250, 0.06250, -0.12500, 0.00000, 0.12500, 0.00000, 0.09375, 0.09375, 0.09375, 0.00000, 0.12500, 0.18750, 0.00000, -0.15625, 0.03125, 0.12500, 0.00000, -0.09375, 0.00000, -0.03125, 0.00000, 0.00000, -0.03125, 0.00000, 0.00000, 0.00000, 0.00000, 0.00000, -0.09375, -0.09375, 0.00000, 0.18750, 0.21875, 0.00000, 0.00000, -0.12500, 0.00000, -0.03125, 0.00000, 0.00000, -0.06250, -0.06250, 0.00000, 0.00000, -0.12500, 0.15625, 0.09375, -0.06250, 0.00000, 0.12500, 0.00000, -0.15625, 0.00000, -0.09375, -0.03125, 0.28125, 0.00000, 0.00000, 0.06250, 0.00000, 0.12500, 0.00000, -0.06250, 0.03125, 0.18750, -0.15625, -0.12500, 0.12500, -0.03125, 0.00000, 0.00000, 0.12500, -0.09375, 0.12500, -0.09375, 0.06250, -0.03125, -0.03125, 0.06250, 0.06250, 0.28125, -0.18750, 0.00000, 0.03125, 0.12500, 0.00000, -0.12500, -0.15625, 0.00000, 0.00000, 0.00000, 0.00000, -0.09375, 0.03125, 0.00000, 0.00000, 0.00000, -0.12500, -0.12500, 0.15625, -0.03125, -0.06250, 0.00000, 0.00000, 0.00000, 0.00000, 0.00000, -0.21875, -0.18750, 0.03125, 0.09375, -0.12500, -0.06250, 0.21875, 0.00000, 0.00000, 0.15625, 0.06250, -0.15625, 0.12500, -0.09375, 0.21875, 0.06250, 0.00000, 0.12500, -0.03125, 0.00000, 0.00000, 0.21875, -0.03125, 0.00000, 0.03125, -0.03125, -0.03125, -0.06250, 0.00000, 0.00000, 0.09375, 0.00000, 0.00000, -0.03125, 0.00000, 0.00000, 0.00000, -0.03125, -0.09375, 0.06250, 0.06250, 0.00000, 0.00000, 0.03125, -0.15625, 0.00000, -0.03125, -0.03125, 0.03125, 0.06250, -0.03125, 0.06250, -0.06250, 0.09375, 0.00000, -0.28125, 0.06250, -0.15625, 0.00000, 0.00000, 0.03125, 0.00000, 0.00000, 0.06250, 0.00000, 0.00000, 0.06250, 0.06250, 0.06250, 0.00000, 0.00000, 0.00000, 0.03125, 0.12500, 0.00000, 0.00000, 0.09375, 0.00000, 0.06250, 0.00000, -0.03125, 0.09375, 0.03125, 0.00000, 0.12500, 0.00000, -0.03125, -0.12500, -0.03125, 0.12500, 0.09375, 0.00000, 0.09375, 0.00000, -0.09375, 0.18750, 0.00000, -0.12500, -0.03125, 0.00000, -0.06250, 0.00000, 0.00000, 0.00000, 0.00000, 0.00000, 0.00000, -0.12500, 0.03125, 0.09375, 0.03125, -0.09375, -0.03125, 0.00000, -0.21875, 0.06250, -0.03125, 0.00000, 0.00000, 0.03125, 0.00000, -0.12500, 0.00000, 0.00000, 0.09375, 0.00000, -0.15625, 0.12500, 0.00000, 0.00000, -0.03125, -0.03125, 0.00000, -0.06250, 0.00000, 0.18750, 0.06250, 0.03125, -0.09375, 0.00000, -0.03125, 0.03125, -0.06250, 0.00000, 0.00000, -0.31250, 0.12500, 0.09375, -0.12500, 0.00000, -0.12500, -0.06250, 0.18750, 0.00000, 0.00000, -0.06250, -0.06250, 0.00000, 0.00000, 0.00000, -0.12500, 0.00000, 0.25000, -0.03125, 0.00000, 0.00000, 0.00000, 0.00000, -0.09375, 0.00000, 0.00000, -0.09375, -0.03125, -0.06250, 0.00000, -0.25000, -0.06250, 0.00000, 0.06250, 0.18750, -0.09375, 0.06250, -0.03125, -0.18750, 0.06250, -0.15625, 0.00000, -0.03125, 0.09375, 0.06250, 0.00000, 0.12500, 0.09375, 0.15625, 0.00000, 0.00000, 0.06250, 0.03125, 0.00000, 0.06250, 0.00000, 0.00000, 0.00000, 0.18750, 0.00000, 0.00000, 0.03125, -0.06250, -0.21875, 0.12500, 0.15625, 0.12500, 0.00000, 0.03125, 0.15625, 0.12500, 0.00000, 0.09375, 0.15625, 0.09375, -0.18750, 0.18750, -0.09375, 0.12500, 0.00000, 0.15625, 0.00000, 0.15625, 0.00000, -0.06250, 0.00000, 0.00000, 0.00000, 0.09375, 0.06250, 0.06250};

#endif

#endif
