//Numpy array shape [64, 10]
//Min -0.886240243912
//Max 0.833654522896
//Number of zeros 0

#ifndef W23_H_
#define W23_H_

#ifndef __SYNTHESIS__
output_dense_weight_t w23[640];
#else
output_dense_weight_t w23[640] = {-0.8862402439, 0.2548264265, 0.5889021754, -0.0847474039, -0.4141446948, -0.2169442922, -0.5764236450, -0.1640584767, 0.4270337522, -0.2775882483, -0.4139339030, 0.0347819589, -0.2459197193, 0.2367150933, 0.6566582322, 0.2645525038, 0.4242023230, -0.0156844333, -0.6119390726, -0.6296241283, 0.1676539779, 0.5778344274, -0.2526337504, -0.3610462844, -0.1646975428, -0.5793747306, -0.3301786184, -0.1094831526, -0.1636030525, 0.0798619166, -0.3224943280, 0.8336545229, -0.4968412817, 0.3349018097, 0.4192898273, -0.4102108181, -0.2106955945, -0.3499776125, 0.0505936518, -0.1055022255, -0.0833339095, 0.2299257070, -0.4134293795, -0.5264824033, 0.6349847913, -0.0632832274, -0.2997184098, 0.6515353322, 0.1216403693, -0.1905280799, 0.4802860022, -0.3426909447, 0.3706098199, -0.5223307610, 0.5941877961, -0.4092335999, -0.0218936317, -0.4635745585, -0.1939916313, 0.5145547390, 0.5029588938, 0.1196577325, 0.3775072992, 0.2261549085, -0.0464772433, -0.1240396351, -0.3834141195, -0.6611351967, 0.4143432379, -0.2370675951, 0.3863515258, 0.1726343036, 0.1175729260, -0.2736269832, -0.3469751775, -0.4475321472, -0.7225373983, 0.6289319396, -0.1831618845, -0.1024425253, -0.7534760237, -0.4989332259, -0.2179616541, 0.1837736964, 0.5766155720, 0.4318754375, 0.1396611035, -0.5514867902, 0.3785994053, -0.4714020491, 0.5865187645, -0.3929143846, -0.1348796934, -0.6123549938, -0.4432590008, 0.5978159904, 0.1102924794, -0.1152923107, -0.4622603357, 0.1802082807, 0.2149404585, -0.4402181804, 0.3098826408, -0.1795930564, 0.6509349346, -0.4237988591, -0.4439858198, -0.4221046567, -0.3363154531, 0.4764825702, -0.4797312021, 0.0953325108, -0.0048645572, -0.3948659599, 0.7250382900, 0.2443913966, 0.3940968513, -0.5728960633, -0.1247607395, -0.1638732404, 0.5188668966, -0.1227484792, -0.4189958274, -0.6633792520, -0.5578039289, 0.1053651124, 0.5388409495, -0.2395924479, 0.0315867551, -0.2766087949, -0.4333070815, 0.5337510109, 0.5209402442, -0.2886207700, 0.4546276331, -0.1295652837, -0.0080284635, -0.2755849957, -0.2475246638, -0.5353929400, 0.3133504689, 0.5268493891, -0.3207533360, -0.5033684969, 0.3574962020, -0.3095649779, -0.4672236741, 0.2296946198, -0.0440401100, 0.2252540141, -0.2580449879, 0.1560057998, -0.2183372676, -0.5478879213, 0.3975089490, 0.3423467278, -0.5229223967, -0.6999081373, 0.1579494774, 0.6438631415, -0.2118294686, -0.3273067772, -0.0225105323, 0.4264871180, -0.1305345297, -0.6732417345, -0.2974465489, 0.7240993977, -0.2739019394, -0.1463845521, -0.4399530590, -0.1699085832, 0.3760454059, 0.4263905585, 0.0283864811, -0.5451809168, -0.3751468658, 0.3606369495, -0.5834580064, 0.5849044323, 0.5141390562, 0.4450233281, 0.5806910992, -0.2027210444, 0.2281661183, 0.0391387716, -0.2362913787, -0.4496949315, -0.5521847010, -0.5027443171, -0.2784623802, 0.0048631490, -0.2131636590, 0.3601060510, -0.5375713110, 0.3503063023, 0.5424606800, 0.4572060108, -0.6457908154, 0.0047249612, -0.4403442442, 0.2092098594, 0.5270406008, -0.1967487633, -0.4239784479, -0.2067619562, -0.2675559223, 0.3479073048, 0.5835582018, -0.3818848431, 0.4015832543, -0.5312196016, 0.1703280658, -0.2947907150, 0.0537631139, -0.5215227604, 0.4787370861, 0.4699915051, -0.6505243182, -0.4894261658, 0.1792118102, -0.1395086497, -0.3881917894, 0.2343989164, -0.4177224636, 0.0507517196, -0.4745280445, -0.0808071867, -0.4973321855, 0.5228792429, -0.5248827934, 0.0106552932, -0.4101486504, 0.2678106725, -0.1668910682, 0.4190690219, 0.0514495522, -0.6735762954, 0.2419606745, 0.5399312377, -0.0357133746, -0.5700537562, 0.3390707970, 0.3535363078, -0.4246021509, -0.2805818617, -0.2511329949, 0.4552320838, 0.3184539974, 0.4122487903, -0.6378655434, -0.1752831787, 0.0388457179, 0.4880941510, 0.5107609034, -0.5450336337, -0.5266853571, -0.2863775194, 0.4825555384, 0.0042843833, 0.1050030738, 0.4736546576, -0.3167656660, 0.0588210337, -0.6044903994, -0.1359598190, -0.1720263064, -0.2001063675, -0.3107342720, -0.3099078834, -0.4197749496, -0.0099016158, 0.4073562920, 0.1172942519, -0.2091886103, -0.2011235207, -0.2402294129, 0.3980162144, -0.3815591633, -0.7075966001, 0.5811609626, 0.0822394639, -0.1165890619, -0.0633177459, -0.6419921517, -0.3877287805, -0.6157243252, 0.4454249144, 0.0594653413, 0.0573640540, 0.3310712278, 0.4016106129, -0.0771946609, 0.0966370329, -0.7880674601, 0.4883368313, 0.5318147540, -0.2625543773, -0.0261512734, -0.4948472977, 0.1941269785, 0.1787258834, -0.2813306153, 0.6169005036, -0.3539982736, -0.5116606951, 0.0747887418, -0.5278848410, 0.2886099815, -0.2900403440, -0.3611333072, -0.3521571755, 0.5710287094, 0.5936343670, -0.0580983758, -0.5274426937, 0.2380224615, -0.4221085310, 0.5474391580, 0.0585705787, -0.0471232049, -0.1174026951, 0.0420924462, 0.3282358050, -0.1674960703, 0.4083410203, -0.5321128368, -0.5528691411, 0.1901799738, 0.4657134414, 0.2137232125, -0.7044269443, -0.2287275642, -0.2718044221, 0.6341364384, 0.2881307900, 0.5034902096, -0.5739949346, -0.2691845894, -0.0560961179, -0.5313006639, -0.4343041778, -0.0995332673, 0.0180810764, -0.6043845415, 0.4517755210, 0.4882279932, 0.2321029902, 0.3322853148, -0.2123067528, -0.1951260269, 0.3254975080, -0.2615658641, 0.4432514906, 0.2689220309, -0.1694934368, 0.0152184553, -0.2878360450, -0.3757089376, 0.2306711972, -0.6540758610, 0.3601474166, 0.4331288636, -0.2478448451, 0.5370125175, 0.0397813469, 0.0788918808, -0.3495098352, -0.3497693837, 0.2011231631, 0.3340310156, -0.0333483219, -0.5198963284, 0.5747514963, 0.3194640279, -0.2215792537, -0.3682447374, -0.3043930829, 0.1145452484, -0.3119936287, 0.1568178385, 0.2694076598, -0.2166613340, -0.5404760838, -0.6367372274, -0.6616527438, 0.5037957430, 0.2731285691, 0.2543582320, -0.1828905791, 0.3521067500, 0.3507579863, 0.3523081541, -0.3817717433, -0.4206615090, -0.6058320403, -0.3215786517, 0.2828376889, -0.6190778613, 0.0618431643, -0.6010953784, -0.5187388659, -0.1014780253, 0.5315881371, 0.1778784394, 0.2421628088, 0.1902452558, 0.3074769080, 0.3637969792, -0.4993237257, -0.1859046519, 0.1320576668, -0.0285823531, 0.6538837552, -0.4757079780, 0.4407890439, -0.3080184460, 0.5038112998, -0.6576071382, -0.4622991979, 0.0711834431, 0.2675927877, -0.5895564556, -0.4250635505, -0.1068105474, -0.3854424059, 0.3371305466, -0.5312664509, 0.5087592006, 0.5509899259, -0.3228726089, 0.2384931594, -0.1915778071, -0.2533515096, 0.8183448315, -0.4281436503, -0.0928936377, 0.4086545110, 0.3060133159, -0.2632398307, 0.1792780906, 0.0452323332, 0.2922187448, 0.5583196282, -0.3059813678, -0.3001186848, -0.0134147210, 0.0989151523, -0.3428029418, -0.5332877636, 0.5538976192, -0.5419509411, -0.3841183186, -0.5128346086, 0.1800875962, -0.3898285627, 0.3215834498, -0.4845744669, -0.1457438618, 0.4997870028, 0.2450456470, -0.2453046888, 0.2788882852, -0.3673459291, -0.4905215502, -0.1651586145, 0.5644528270, -0.4588182867, 0.2735866010, -0.5483859777, 0.4976170659, -0.3314508796, 0.2835139334, -0.3427019715, -0.6881108880, -0.2963981628, -0.2238699496, -0.4330700040, 0.2216579169, 0.8010457754, 0.2146193087, -0.2031590492, -0.3503801227, 0.5289661288, 0.1430031210, 0.5633351803, -0.3056633472, -0.5531929135, -0.3639943004, 0.1469900459, 0.2092442960, 0.0956356227, -0.3299793899, -0.3558766246, -0.2792311013, -0.6920843124, 0.0935369432, 0.2242037356, 0.3006492555, -0.3633227944, -0.5960681438, 0.3547646701, -0.2718379498, -0.1962241232, -0.1738461405, 0.5512036681, -0.4049836099, 0.0464725532, -0.5838116407, -0.0534016341, 0.5774547458, -0.2810409367, -0.3445504606, -0.0396971777, 0.3956197202, -0.5641939044, 0.4379656017, -0.0644639507, 0.2276583910, 0.3325190544, -0.5326410532, -0.1450442970, -0.3409375250, 0.0864367262, -0.5351449847, 0.4202824533, 0.2419204265, -0.0125807319, 0.1643576771, 0.5671758652, -0.3106757700, 0.0209986400, 0.4512248933, -0.4207749665, 0.5314928293, -0.3813579679, -0.2664667368, 0.4749738872, -0.2864244282, -0.0410498381, -0.1652025729, 0.3701832294, -0.3910103440, -0.4106033742, 0.3779141903, -0.0306002926, 0.1754264981, 0.6728575230, -0.5294057131, -0.4978423417, -0.5824527740, -0.4575661421, 0.1429781914, -0.2353751659, -0.3240131438, 0.5465739965, 0.0371602848, -0.6710070372, 0.3059607744, -0.1005568877, -0.2424112111, -0.4029186070, 0.1393409222, 0.2317961156, -0.7413889170, 0.2027083188, 0.6374343634, -0.2467380464, -0.4506210685, -0.3266507089, -0.4861011505, 0.0288022850, -0.2876704335, -0.2271685898, 0.2499677390, 0.7515282035, -0.6525463462, -0.1941208392, 0.1119328216, -0.2106646597, 0.1516086012, -0.2566597164, -0.1440571100, -0.5782174468, 0.3165973425, -0.6673709154, 0.1085017920, -0.4682134986, 0.4683268964, -0.3949101865, -0.3919191658, -0.6441820264, 0.1948186159, -0.2176896781, -0.7748388648, 0.5842356086, -0.1114068478, 0.4607745111, -0.0643445104, 0.0253067389, -0.4272854030, 0.4712737501, -0.2486066967, 0.6604267955, -0.1621379405, 0.1702577621, -0.3544248939, 0.3053313196, -0.1548400670, -0.3389751911, -0.1092826650, 0.1309075803, 0.5625376105, 0.5181864500, -0.4596160054, -0.2456801385, -0.1887361258, 0.4100565016, -0.6519269347, -0.5028145313, -0.2338724136, -0.1650833189, 0.2374367118, 0.3331442177, -0.2572855353, -0.1229297370, -0.4227743447, 0.2963818908, 0.5687668324, 0.7650576234, -0.2506400645, 0.5383409858, -0.4301391840, -0.1474619359, -0.0993131101, -0.2564404607, 0.4522095621, -0.4737955630, 0.3584188819, -0.6483592987};

#endif

#endif
