//Numpy array shape [64, 32]
//Min -0.511174738407
//Max 0.476253628731
//Number of zeros 0

#ifndef W5_H_
#define W5_H_

#ifndef __SYNTHESIS__
fc2_weight_t w5[2048];
#else
fc2_weight_t w5[2048] = {-0.0156148607, -0.2180197239, -0.0626465008, 0.1218727157, 0.0554365478, 0.1101543009, -0.1508280635, -0.0799456611, -0.1171680987, 0.2320723236, -0.1069997177, 0.0306113102, 0.0004775966, 0.0239661578, 0.1437939107, -0.0116118509, 0.0684072524, -0.0006351478, -0.1948156059, 0.1248467043, 0.1648378223, -0.0908544287, 0.0827369168, -0.0238224603, 0.0273879860, -0.1366085559, 0.0493773557, -0.0404909961, 0.0575218610, -0.0600572340, 0.0994915143, 0.4029792249, 0.1576240659, -0.0297633540, -0.0828707069, 0.0521536320, 0.1446580887, 0.0271586515, -0.0400989391, 0.0351954401, -0.0789571777, -0.0247955974, 0.0885259509, 0.0552660264, -0.0000991798, 0.0400722995, 0.0614294112, 0.0966065153, -0.0037784423, 0.0665797293, -0.0291941222, -0.0772717893, 0.1776115149, -0.0208020043, 0.0960502326, -0.0410234332, -0.0215667207, -0.0164750312, 0.1290426254, 0.0820551962, -0.1982459873, 0.0826762989, 0.0901811719, 0.1679879576, -0.0097113419, 0.0020054353, -0.0521446876, -0.1440159529, 0.0348259769, 0.1889859736, 0.1511670649, -0.0057729939, -0.0137702832, 0.1635601074, 0.2170103937, -0.0705286637, 0.1155400500, 0.2206357718, 0.0907592401, 0.2348785847, 0.1540269554, -0.1120343506, 0.1071394458, 0.1051587686, -0.1261774749, 0.2355161160, 0.1429681778, -0.0002206217, -0.0924914405, 0.0442487486, 0.1996622235, 0.1360056698, 0.0706377700, 0.2152871937, -0.1694252193, -0.1086895689, -0.0841317996, 0.1075110957, -0.1374863237, 0.0003021485, 0.1229614168, 0.0106438547, 0.3013723195, 0.1364567280, -0.0255993940, 0.0832115114, 0.0368425176, 0.0872782618, 0.1400908828, 0.0607161298, -0.0005986470, 0.2204149663, -0.1911136955, 0.0153133851, 0.1070771962, -0.1496992260, 0.2557094693, 0.0444998406, 0.1038580537, -0.1519505233, -0.1033746600, -0.2302235812, 0.0163131244, 0.1589579433, 0.2877231240, 0.0503394827, -0.1717981100, 0.0374811478, 0.1145791411, 0.1346123815, 0.0309293997, 0.1476881206, 0.0419645198, -0.0016683119, 0.2412643284, 0.1182127744, -0.0142448656, -0.0499654040, 0.0983503908, 0.0102670165, 0.0721036792, 0.1596238315, -0.0007988571, 0.2597912848, -0.1761642694, -0.0498470068, -0.1472254246, 0.2210841775, 0.1318192482, 0.0518008843, 0.0823531672, -0.1089385897, -0.0311752129, 0.0115529662, -0.0834295526, 0.1765655875, 0.1834229976, 0.0289888270, -0.1040757820, -0.2923534513, 0.0214524865, 0.0163864419, 0.0757421702, 0.0008513227, 0.0345832221, 0.0128106158, 0.3104867637, 0.1557169408, 0.1109568104, 0.0184942745, 0.2459319979, 0.0802399293, 0.0096610822, 0.0001141073, 0.1799647361, 0.2595072091, 0.0154052600, -0.1198648363, -0.1925280839, 0.1714451760, 0.0839396194, 0.1812709719, 0.0711426660, -0.0523747727, 0.0913932398, 0.0141543075, -0.1373291910, 0.3189961314, -0.0248820465, 0.2062795460, -0.1765878052, -0.0902661234, 0.0643102005, 0.0876127258, -0.0003783125, -0.0002128774, 0.1354830116, 0.0108845448, 0.0029116222, -0.0351285972, 0.0547780581, -0.0328704938, 0.1629343182, 0.0287380293, 0.0305303950, 0.0785547644, -0.1250955164, -0.0785868615, 0.0026611031, 0.0390686877, 0.0426436439, -0.0997094363, -0.0286419261, 0.1323046386, 0.2104440331, -0.1718563288, -0.0786039010, 0.0558886267, -0.1739680022, 0.0524629503, -0.0937122852, 0.1450350732, -0.1533053070, -0.1189955771, 0.1254167706, 0.2092885822, 0.0683994889, -0.0622669533, 0.1913112253, 0.2270352393, -0.0524362028, -0.0789629221, 0.1795499772, -0.0935942680, 0.3752538860, 0.0011460041, -0.1712376773, -0.1955914348, -0.0066570449, -0.0745527595, -0.1416872442, 0.1000404432, -0.3492306471, -0.1154617816, -0.3608477414, 0.2085568756, 0.0224956628, -0.0005538447, -0.1403984427, 0.2047231048, 0.0640267953, 0.2297170907, -0.0587887242, -0.0071990821, -0.1667478830, -0.4364196062, 0.1333132684, -0.3615974486, 0.0325562060, 0.1693834662, 0.1143707559, 0.0025647040, -0.2214611024, 0.0058000442, -0.0980227590, 0.2254673541, 0.0515468679, -0.0275263637, -0.2232009172, -0.3442860544, -0.1323896646, 0.0844997540, -0.0965647101, 0.0713400692, 0.2551490664, -0.0611609779, -0.0042384746, 0.3130034804, -0.1848039776, 0.1721701175, 0.0509252362, 0.2734293640, -0.0078230780, -0.3621386290, 0.1211680099, 0.0104182847, 0.2294389904, 0.3460411429, 0.1462608427, 0.0959147662, 0.0497625917, -0.0005277637, -0.1124877259, 0.0620225593, 0.1708194017, 0.1417009085, 0.0415474661, -0.0015816840, -0.1287907064, -0.0037687302, 0.1426525414, 0.0007578451, -0.0540064313, -0.0616617426, 0.1616744101, -0.1269939542, 0.1028849334, 0.0976382867, 0.0906233341, 0.0912194550, -0.1807772517, -0.0904532149, -0.0501688980, -0.0921387225, -0.0793250501, 0.0007691281, -0.0094307847, 0.1321300864, 0.2040195763, 0.1221350357, 0.1412205249, 0.0138654187, 0.0221486948, -0.0006525433, 0.2365416884, 0.0011414734, -0.0001789920, -0.1405187547, 0.0119513590, -0.2400314212, 0.0002929867, 0.0433813781, 0.0020584881, 0.2281993479, 0.0027003677, -0.0015409521, 0.1033204496, 0.0341974087, -0.1023435742, 0.0077038310, 0.0062573967, -0.0110239387, 0.1442603171, 0.0076741767, -0.0910727382, -0.0742064789, 0.0002203070, 0.0276080742, -0.0848114789, -0.0609997027, -0.0646118522, -0.1033964530, 0.0000653847, 0.0003000408, 0.1129987314, -0.0455482751, 0.2379406989, -0.0018576450, -0.1590355486, 0.1046896428, 0.0540124364, -0.0855406672, -0.0018778139, 0.3301022351, -0.0004588275, 0.1029130816, 0.1669926047, -0.0348941684, 0.0014786305, -0.0002021872, -0.2580690384, 0.2859240472, 0.0526195206, -0.1053846627, 0.1682397127, 0.0627002344, 0.0240393076, -0.1840923429, -0.0028141520, -0.0306347702, 0.0087333638, -0.0100776078, -0.0647875965, -0.0061597009, 0.0083964551, -0.0116994679, -0.0691337362, 0.0047781570, 0.0820233747, 0.0507077985, -0.0777115077, 0.0432489067, -0.1554145664, 0.3130321205, 0.1172913164, -0.2543051243, 0.0667405650, 0.0101345768, 0.0923088342, -0.0226423182, 0.1080445871, 0.2783643901, 0.0043818019, -0.2341557890, -0.1549685746, 0.0263805818, -0.0127066439, -0.1638879627, -0.1416246742, -0.0946466327, 0.1021895483, 0.0105902217, -0.0669919178, 0.0688784868, 0.3326210082, 0.3553777933, 0.1145167053, -0.0190513153, 0.1861171871, -0.0283566751, -0.0257591568, 0.0004317345, -0.1875214875, -0.0033890761, 0.1154239103, -0.2029261887, -0.1182618737, 0.1211757138, -0.0029604111, 0.0122495396, 0.1509520411, -0.0010787364, 0.0381389782, -0.0684442297, 0.0486040488, 0.0825291201, 0.0882958844, -0.0564522371, 0.1119818985, -0.0484381057, -0.0314588770, -0.1992559582, -0.1333205253, -0.1063258126, -0.1039587185, 0.0098043671, 0.1608388424, -0.0017939014, 0.1508189738, 0.0814811140, 0.0164200570, 0.0533196256, -0.1889315695, 0.0576259531, 0.1275659204, 0.0022749160, -0.1360556781, 0.0155375898, 0.0753951818, -0.2242679000, -0.0000737719, -0.0184242185, -0.0281631835, 0.0396740362, -0.1623960286, -0.0149594499, 0.0651992783, -0.1097690165, 0.0574275702, 0.0019394404, -0.0314236991, 0.1361543834, 0.1275425851, 0.0650465861, 0.0003507360, -0.0809690133, 0.1971702576, 0.0915096328, 0.1013477370, -0.0621818788, -0.0227383804, -0.2390749902, 0.1222588196, 0.0247617085, -0.2043198496, -0.1242197827, -0.0268791690, 0.2349919230, -0.0609619096, 0.0774379149, 0.0231740102, 0.0063229674, -0.1506453305, 0.0714433417, 0.1232796609, -0.0143486941, 0.0995316207, -0.0003637853, -0.0980740115, -0.1214465052, 0.1255916953, -0.1075781509, 0.0475296080, 0.1758183390, 0.0482615642, 0.1554341316, -0.1965888590, -0.1893875599, 0.0114196241, 0.0519653782, 0.1356531978, 0.0332562439, 0.0713170320, -0.0876361430, 0.2093709707, 0.0712201744, 0.0728005767, -0.1144431829, 0.0140646556, -0.1674094498, 0.0165890418, 0.0380259119, -0.2442280352, -0.0073358081, -0.1414599866, -0.2460467219, 0.0302342679, -0.0971236825, -0.0141205741, 0.0585816354, 0.0616961606, 0.0397900045, -0.1518470347, -0.0200109910, -0.0355457179, -0.0616154000, 0.0001043264, 0.0001978457, -0.0940227807, -0.2627437413, -0.0173193142, 0.0918421596, -0.0002383765, 0.3022921085, -0.2364133596, -0.2077552378, 0.1706441194, 0.1101204008, 0.2396186739, 0.0088749100, -0.0393741690, 0.0800455511, 0.0781046674, 0.0630683303, -0.0063920203, 0.0747708157, -0.0501795597, 0.0758450329, -0.0414806120, 0.1298248768, 0.0594043843, 0.2020904869, 0.1278591305, -0.0445462838, 0.0648445711, 0.1444514692, 0.1633537859, 0.1210858822, -0.1423551589, 0.2540310025, 0.0173731335, -0.2278616279, 0.0695565417, 0.1946351975, 0.1291052997, 0.1416357905, 0.0291987322, 0.0684823692, -0.0023949523, -0.0001321688, -0.1111822352, 0.1908545494, 0.4762536287, 0.0545153245, 0.0941334739, -0.0599942207, -0.0519667342, -0.0121156173, 0.0047595082, -0.2054283470, 0.0076285568, -0.0003299926, 0.0007375505, -0.0022340612, -0.0177244060, 0.1178151071, 0.2052835822, 0.0144108078, -0.0630414262, 0.0420804769, 0.0715371743, -0.1925332844, 0.1645904183, 0.0789470896, 0.3038032651, 0.1661334336, -0.0349261053, 0.0685893074, 0.0158047322, -0.0106084365, -0.2392758131, 0.0728829876, -0.1537691802, -0.0604102761, -0.0013599843, 0.0180280693, -0.1894584745, 0.0092007192, 0.0914561972, 0.0476574190, -0.0514579825, -0.0479713306, -0.1132862493, 0.0535555929, 0.2133282274, 0.0493636988, -0.0057028970, -0.2954634428, -0.0162061993, 0.1477978677, -0.0050828741, -0.0397055596, 0.0799413621, 0.1882710755, 0.2758513391, -0.0916084573, 0.2495537847, 0.2506433427, 0.3618684411, 0.0821429640, 0.1940225810, -0.1575928330, 0.0991358012, -0.0047954908, -0.0987814292, 0.0123778190, -0.1785747856, -0.1968398541, -0.1541710049, 0.3955105543, -0.1141696200, -0.2498251200, -0.4950335026, -0.0836950988, -0.0428686664, -0.2141264230, -0.1250703186, 0.2200953662, 0.0968215317, -0.2668280005, -0.2889337838, 0.0135769034, 0.1239377931, -0.0006505996, 0.0279607307, 0.1082793698, 0.2104290128, -0.5111747384, -0.0969680026, 0.0503852516, 0.4378658235, 0.3352506459, 0.1037600189, -0.0690973401, 0.0056136600, -0.0328485332, 0.1304741204, -0.0959316343, -0.1209765673, -0.0270534251, -0.2209195644, 0.0039831642, -0.0510628410, -0.1149748117, 0.0070682047, 0.0018168513, -0.0847793743, -0.0169034172, 0.0016394344, 0.3854711652, 0.1805660874, -0.0088942358, -0.0066021699, 0.0895039588, -0.2325125784, 0.0737049580, 0.1925924122, -0.1753063351, 0.3794748187, -0.1283429116, 0.0940932333, -0.0813665688, 0.4312757254, 0.0806980729, 0.1926972121, -0.1572206169, -0.1832083017, -0.0001628205, 0.0749976560, -0.0205927864, -0.1021587476, -0.0512944348, -0.0499113947, -0.0091233961, -0.0158332232, -0.0212172791, -0.1116683707, -0.0819709823, 0.0740078688, -0.1903714091, 0.1769150496, 0.2275712639, -0.0333412364, 0.0886168629, 0.0186706297, -0.0932398960, 0.0570875145, 0.0126230503, 0.0773189887, 0.0178710129, 0.0741989091, -0.0307922233, 0.0325152464, -0.0407429077, 0.0011586040, -0.0581526235, 0.1244255975, -0.0862238407, 0.1915291697, 0.0955887213, -0.0993803963, 0.0028554068, -0.1069082096, -0.1145114303, -0.2600937486, -0.1202568710, 0.0277023427, 0.0501827300, -0.0002358405, -0.0701332167, 0.1466315091, -0.1049698442, -0.0796186700, 0.0008441177, 0.1525152624, 0.1049293652, -0.0001027873, -0.0867098272, 0.0001072239, -0.0573525839, -0.0217153337, 0.0860307664, 0.0692826807, -0.0186212063, -0.0831224769, 0.0361452699, 0.2878600359, 0.1766074002, 0.1924355179, -0.1084786579, 0.0018561357, 0.1034891009, -0.0003708605, 0.1033177227, -0.0000975995, -0.1103572920, -0.1068696976, 0.1688752174, 0.1424725056, -0.2356351316, 0.1556005776, -0.0001286289, -0.0423112847, -0.0008235513, 0.0098599279, 0.2089387625, 0.2144685090, -0.2264313847, -0.0167705733, -0.0001050646, -0.0644352734, -0.0846080333, 0.0003628763, 0.0242111720, 0.0898783356, 0.1362902820, 0.0265518576, 0.1903863847, 0.2728800476, 0.0035193888, -0.0699535981, -0.0001155302, -0.0000322201, -0.0358335450, 0.0275887959, -0.0000180693, -0.1976206303, 0.1840466410, -0.0613072179, -0.0862044841, 0.0001593875, 0.0523654856, -0.0014517336, 0.1775510013, 0.0782583877, -0.1025357619, 0.1942591667, 0.1460136771, 0.1303657144, 0.0227677301, -0.0006433073, -0.0492255166, 0.0702441558, 0.0011049906, 0.0438711308, -0.0056109121, 0.0354471430, 0.1317217946, -0.1249522790, -0.1672985256, 0.0952528641, -0.0392062366, 0.3337695897, -0.0120299514, 0.0011028525, -0.1796744317, 0.0555922538, 0.0012578189, -0.1017097980, 0.0001460501, -0.0139754936, 0.0518153459, -0.0953137130, 0.1504042596, -0.0127368327, 0.3048128188, 0.0117171351, -0.0402185619, 0.0341062695, -0.0529334173, -0.1727830023, 0.0771675035, -0.3593691289, 0.2020084560, 0.0365406722, -0.0015382250, -0.0004495028, -0.0052148751, 0.0826187581, 0.2607345879, -0.0866131485, -0.0732117966, 0.0011978993, -0.0412581824, 0.0468001068, 0.0576246046, 0.0274837725, -0.0344922990, 0.0174346194, -0.0127969105, 0.0128211835, 0.2889010906, 0.0022895772, -0.0816649646, -0.0772333890, 0.2039500475, -0.0002490424, 0.1630163789, -0.0867550001, 0.0572173856, -0.0365170464, -0.0774845034, -0.0002504255, 0.1394254416, 0.0655817911, 0.0933436006, 0.0242108144, 0.0254640356, 0.0402098894, 0.0534540340, -0.2544676065, 0.1585609913, -0.1194064096, -0.0073005660, -0.0200698357, -0.0509271175, -0.0217487961, -0.0040162141, -0.0469644181, 0.0003177647, 0.0780462399, 0.0337118730, 0.0811425745, 0.0422995649, 0.0000335981, 0.1047954187, -0.1441884190, 0.0926415846, 0.0294305626, 0.1551980972, 0.0113612898, -0.1682050228, 0.1573382616, -0.0008660291, 0.1534987092, 0.1619736552, 0.2528291345, -0.0391905755, 0.0649957508, -0.0017202307, 0.1628282368, -0.0922919661, 0.0268227961, 0.1875960529, -0.0825894400, -0.2044740617, -0.2494327575, -0.1463289559, 0.1161261871, -0.0216719452, -0.0591488406, 0.0000780684, 0.0268792305, 0.1530957073, 0.0140885627, -0.1018379107, -0.3351789117, 0.0420594774, 0.0220118426, -0.1527414173, 0.0028058379, 0.0209798180, 0.0320835300, 0.1786173284, 0.0002910178, 0.2029772252, 0.0658342242, -0.3732183874, 0.1101047471, 0.2862867117, -0.2395062894, -0.1743260473, -0.0002206144, -0.0129234670, 0.2336683422, 0.1271251291, 0.2190317661, 0.1475872844, 0.2877598703, 0.1504217982, -0.0002701989, -0.1435515881, -0.0003711384, -0.0814427286, 0.1792262793, 0.0972929150, 0.0005583399, -0.0117117222, 0.0143877007, -0.2380272299, -0.1196382865, 0.0198517330, -0.1392553747, 0.0003336563, 0.1761599928, 0.0871167034, 0.1938771158, 0.0840235204, -0.0760482028, 0.0801343024, 0.0426075794, -0.0030326708, -0.0111902561, 0.0153963296, 0.1213432476, -0.0037106690, -0.0061292094, -0.0036282274, 0.0104934834, -0.0727399811, -0.0625717565, -0.0004357691, 0.0585507043, 0.0324828029, -0.0336977169, -0.1013145298, -0.1381798834, 0.0018468051, 0.1260060668, -0.1211201474, 0.0705169141, 0.1708295941, -0.2057772726, -0.0709362552, -0.0649390891, -0.0747706890, -0.1296332330, 0.2265415341, 0.1360953599, -0.0047290949, -0.0621207841, 0.1135631353, -0.1070231795, 0.0995971411, -0.1800244302, -0.0104730772, 0.2271548212, 0.0120337103, 0.0970717818, -0.1569463462, 0.2029737979, 0.1023399606, 0.1361393332, 0.2331504673, 0.0000872076, 0.1600708812, -0.1614033580, -0.0386335403, -0.0412697457, 0.1477394402, -0.1685903966, -0.1654819846, -0.2458932400, 0.0702324286, 0.0845329687, 0.0273834113, 0.0072999275, 0.0450482443, -0.0010887083, -0.1115310937, 0.0242760871, 0.1047183350, -0.0448695235, -0.2263616323, -0.3029728234, 0.0950905681, 0.1792033613, -0.0009429512, -0.0535101183, 0.2053569704, 0.0712513700, -0.0240909457, -0.1063031852, -0.0968419611, 0.1495134383, 0.0281816069, -0.0063290056, -0.4376340806, -0.0565553196, 0.0912083238, -0.2656307220, -0.3097312450, 0.3552071750, 0.3750734627, 0.1029969305, -0.2710734308, -0.2890649438, 0.2372463793, -0.0062608649, 0.0895717517, -0.0041364660, 0.0002778680, -0.1833291948, 0.0618214794, 0.1109353751, -0.0000432464, 0.2476471066, 0.1368150860, -0.1755944788, 0.0337078907, 0.2243597060, 0.0806925744, -0.0544086620, -0.2909018993, 0.3109098375, 0.2461017370, -0.0306806806, -0.0746376738, 0.2358909547, 0.1917817891, -0.1620704681, 0.0011415923, -0.0798908770, 0.1108953655, 0.0717501715, 0.0943284854, -0.0544200353, -0.0026953300, 0.0145829488, 0.1011973694, -0.0002816011, -0.1148758903, 0.1707239598, -0.0299094990, -0.0558242500, 0.1348315924, -0.1537402719, -0.0547912605, -0.0313144699, 0.1144415811, 0.1313345730, -0.0503903516, 0.0524792112, 0.0734569952, 0.1285398602, 0.0090165958, -0.1354130656, 0.0323083103, 0.0418100022, -0.1017943919, 0.2455061525, -0.3525236249, 0.1520896256, -0.0378428064, 0.1796673834, -0.2061293125, 0.0156988055, 0.1294433624, 0.1848212183, -0.0845309794, -0.0477385558, 0.2441774458, 0.0662334934, 0.0913473442, -0.0790156350, -0.1699866503, 0.0274681989, -0.0013404053, -0.1620823890, 0.2068831623, 0.3116455972, 0.1101538166, -0.0517105758, 0.2190654129, 0.1811030954, 0.0286895335, 0.0855676010, -0.0586779304, 0.0753511339, -0.0464031957, -0.1024834663, 0.0743612722, 0.1920728236, 0.0695002601, -0.0219452232, -0.0184484664, 0.1407626420, -0.0532530732, -0.0248044860, 0.1842142344, -0.1654523462, 0.0372524373, -0.0221514441, 0.0947468281, 0.0408750288, 0.1638780087, 0.0862792656, -0.0101265786, -0.2003703117, 0.0009295882, 0.1013455838, 0.0064584082, 0.0951700509, 0.0332384408, 0.1388068795, -0.1066539735, -0.0036131656, -0.0052860854, -0.0131065007, -0.0817602351, -0.2596339285, -0.1553605646, 0.0008954495, -0.0459485799, 0.0419058353, -0.2654333711, 0.0614954121, 0.1540065706, 0.1120235175, -0.3291780651, 0.0009882123, -0.0680213869, 0.0014119627, -0.1143725887, -0.1336653382, 0.1167294085, -0.1046026796, 0.1348649114, 0.2434316576, -0.2681098282, 0.1181524992, -0.0938130915, -0.0257525593, 0.1683263034, 0.1121829301, 0.0686157048, -0.0115243243, 0.0246961210, 0.2136530578, -0.0648036301, -0.0839800388, -0.2453579903, -0.3249967694, -0.0194856692, 0.1794829816, 0.1501159966, -0.0000987963, 0.1183273792, 0.1035786420, 0.1980291456, 0.2029746175, 0.1377019137, 0.2430779189, -0.0919576138, 0.1427312791, -0.1074510440, 0.2136811763, 0.1224941313, 0.0805893615, 0.0321563892, 0.0048002461, 0.1228480712, 0.0407703072, -0.1509164721, 0.2119484395, 0.2273751944, 0.1315495223, -0.0210336223, -0.0718765110, -0.2829335630, -0.0119987139, 0.0257358216, 0.0000733915, 0.1552247852, 0.1168735325, 0.0882634670, -0.1198087037, -0.3356277645, -0.0079607423, 0.1623452455, 0.1860217154, 0.0627381131, 0.0117009198, 0.1222899184, 0.0189900864, 0.2140294611, 0.0443112142, -0.1023663506, 0.1205780655, 0.3233088553, 0.2643276155, -0.0034135501, -0.0335076489, 0.2216742933, 0.0117831305, -0.1797526032, -0.1787845045, 0.1573278904, 0.1755599678, -0.0539964400, -0.0274795983, -0.1118062511, 0.0234932415, -0.0995885059, 0.1074351966, 0.2041530460, 0.1119137034, -0.1060113162, -0.0751109943, 0.0122443717, 0.0507656746, -0.1170033738, 0.2471176386, 0.2370019704, -0.1529624313, 0.0178074650, 0.0001765407, 0.2595561743, 0.2866861224, -0.2787541449, -0.0708303675, 0.1106625497, 0.0592052899, 0.0400818698, 0.0001127808, 0.0000404492, -0.0957741812, 0.1290123463, -0.0791072473, 0.2026104331, 0.0237391014, 0.0438766032, 0.1661356091, 0.0095760794, 0.2409467995, 0.0011046327, -0.0882664621, -0.0463809893, 0.1471012682, 0.0001177021, -0.0869235322, 0.0032333459, -0.0724495724, 0.1251254827, 0.0229442827, -0.0982225016, 0.2079386413, 0.0075157960, -0.0426023565, -0.0231043119, 0.2126227766, -0.0109749418, -0.0001221171, -0.0589792691, -0.0604530163, -0.0236385893, -0.0904556513, 0.0581306778, 0.1874837130, -0.0773558989, 0.2094896883, -0.2322296202, 0.0272560101, 0.2764696181, -0.0413107537, 0.0272093844, 0.2539074123, -0.0219853800, 0.1530239731, 0.0382826850, 0.0371221453, -0.0439939685, 0.0562160984, -0.0870825723, -0.0584492534, 0.1038087606, -0.2138590664, -0.1354178041, 0.1068762317, 0.2279786766, 0.0608681701, -0.0433569998, -0.0311331209, -0.0563652851, 0.0325975269, 0.0668291077, 0.1660120785, -0.0439489670, 0.0407244712, 0.1818077862, -0.0308663510, -0.0156532526, 0.0009477859, 0.0254636668, -0.1909977496, -0.0523444824, -0.1870159507, -0.1044244692, -0.3223051429, 0.0817484558, -0.0856633931, 0.2056101412, 0.0868901461, 0.0577503890, -0.1815820932, -0.2340541482, -0.1765655726, -0.0791123509, 0.0004346644, 0.1677009016, -0.0000790095, -0.1692451686, 0.0434085801, 0.2903422415, 0.2971904278, -0.2770142853, -0.1407009661, 0.2393578887, -0.1786792576, 0.0844987780, 0.0003227174, 0.0008971379, -0.0169925876, 0.1590460390, 0.2381821126, 0.1775490493, -0.0872191712, -0.0503627919, 0.0795030370, 0.2131954283, 0.2095616758, 0.1399228275, -0.1866868436, -0.0012191432, 0.0840156227, 0.0629254431, 0.1180542409, 0.0044697081, 0.1339391917, 0.0447930954, 0.2214479297, 0.0002169193, 0.1006333753, -0.0069520189, -0.1878798008, 0.0121371094, 0.0470554978, 0.0009409331, -0.0326019935, 0.0764748082, 0.0964964107, 0.1057741642, -0.0005509147, -0.1762044728, -0.0489856228, -0.0213467367, -0.1234609336, 0.0345859118, -0.1820218116, -0.1241517216, 0.1703008562, 0.0251938161, -0.0175525434, -0.0826065242, -0.1058547571, 0.0571104847, -0.0038443855, 0.0075519667, -0.4235739410, -0.3947685063, -0.0479136035, 0.2364487499, -0.1289435327, -0.1279828995, 0.1605620235, 0.2199598104, -0.1282035112, 0.0236453898, -0.1897522211, 0.0588469990, 0.1125972942, -0.0274571851, -0.0353734605, 0.0149453850, -0.0215341710, -0.1342538297, 0.0971132219, 0.0201856699, 0.0716018602, -0.1692830473, -0.0789306611, 0.1219442114, 0.1562808901, -0.0165132359, -0.0808095485, 0.0453748181, -0.0427688584, 0.1215192229, -0.0062187752, -0.0995254666, 0.0090172151, 0.0759435892, 0.1335341781, -0.1366983354, -0.0684949681, 0.2485872805, 0.0566721521, -0.1651875675, -0.0076222545, 0.1513385326, -0.0163554754, 0.1118240133, -0.1670583785, -0.2459679246, -0.0676422790, -0.1113705635, -0.0351830870, 0.2251489162, -0.0814469680, -0.0001626212, 0.1378123760, -0.1709603816, -0.0660804212, 0.0873022825, -0.1942795813, -0.1668803245, -0.0108226826, 0.0409272052, -0.0137635348, -0.1371873468, 0.0033770539, 0.1373746842, 0.0516407862, 0.2285763621, -0.0258296058, -0.0001518886, 0.0889598280, -0.1177139282, 0.1525277346, -0.1099537089, -0.1109696627, -0.0729222596, 0.0958165601, -0.0000194785, 0.0827141330, -0.0925312713, -0.0683321580, -0.0357132368, -0.0649656579, 0.0393226333, 0.1537983268, 0.0004419887, 0.0243372191, 0.0829564556, -0.1229302064, 0.0131660663, 0.0756950453, 0.0498125739, 0.1617118120, -0.0001172425, -0.0049917335, -0.0306660235, 0.0072620171, 0.0188350417, 0.0879201964, -0.0458472073, -0.0001727703, -0.0037346354, 0.0558993630, -0.0665207580, 0.0309060495, 0.0035589687, 0.0121784061, -0.1816982478, -0.0366375223, 0.0003170414, 0.0273449607, -0.0953318998, 0.0092561822, 0.0831828490, 0.2039517462, 0.0483893454, 0.1865585148, 0.0107723819, -0.1333716810, 0.2087913454, 0.0143063981, 0.1051520705, -0.0281260107, 0.1726409942, -0.0065561039, -0.0113411751, 0.1634867936, 0.0357714333, 0.1011642292, -0.1545405090, -0.0979730189, 0.1829736233, -0.0566769205, -0.3481313288, 0.2518472075, -0.1312631667, 0.0384669267, -0.3117079139, -0.3794057369, 0.1205892786, -0.1293045431, -0.0506438240, -0.1759639978, -0.1978593469, -0.3507472575, -0.0997397155, 0.0990439430, -0.3561163247, -0.0581496619, 0.1650931686, 0.0469274893, 0.0977640003, -0.2988233268, 0.0496856198, -0.0450465977, 0.0999932662, 0.0242151208, -0.0306162983, 0.0455129370, -0.4769147635, -0.3776557148, -0.2245429605, 0.1535662860, -0.0456273183, 0.1317233592, -0.0168054644, 0.0168380179, -0.0002283872, -0.1743795276, 0.0586645529, 0.1021210551, 0.1209601611, 0.1355025619, -0.0742523968, 0.0584509782, -0.1621614844, 0.0822471008, 0.0298016109, 0.0588900782, 0.0664179847, 0.1449959278, -0.1865108460, -0.0021748955, 0.0794436336, 0.2209390998, -0.0222115032, -0.1981950551, 0.1453582793, 0.0092523415, -0.1981213540, -0.0208675470, 0.0295864381, 0.3029540181, 0.2300913334, -0.0351250768, 0.1349815130, 0.0369596742, 0.0519867875, -0.0381234698, -0.0027746626, 0.1818083674, -0.1078404561, 0.0024007601, -0.1578014493, 0.2536803186, -0.0001522509, 0.0795641467, 0.2105382234, 0.1715977639, 0.1318200082, 0.1450311244, -0.1526873857, -0.1001464203, 0.1283309162, 0.0929142386, 0.2078777403, -0.0121306321, -0.1609995216, 0.2620776296, -0.0486934595, 0.0010081868, -0.1498050839, 0.1417119354, 0.0565873459, -0.2245015502, -0.0001002181, -0.1878639311, -0.1334569901, 0.2050694525, -0.2057986408, 0.1308095157, -0.0091586486, -0.0683376789, 0.0005078375, -0.1494670212, -0.0418024771, -0.2046733201, 0.0878544226, -0.0009580459, 0.0563256629, -0.0256512780, 0.0216146316, 0.0293186549, -0.0001517994, -0.0007948826, 0.0002835676, -0.1695094407, 0.1386496425, -0.0259113982, 0.0331409052, -0.0299354736, 0.0836546198, -0.1643218547, -0.0000742160, 0.0090510892, -0.0001066183, -0.1529554874, -0.0998067632, 0.1872410029, -0.0529634580, -0.0770772919, 0.0321921892, 0.0162031017, -0.0533401147, -0.0228346679, -0.0925301984, 0.0687280521, -0.0213124417, 0.0716413409, 0.0266147871, 0.1182658449, 0.0245147925, 0.0958610103, -0.2626490295, 0.1712952256, 0.1629126370, 0.0102722757, -0.0017962400, -0.1941665709, 0.1560430974, -0.1198456734, 0.0785457194, 0.0880684555, -0.0537703671, -0.0672046170, 0.0083069047, 0.1158833951, 0.0292582605, -0.1173036322, 0.0575316288, -0.1601411253, -0.0768460929, 0.2071540952, 0.0002502858, 0.0482625589, 0.1060446650, 0.1382049322, -0.0442685522, 0.0237503313, -0.1932292134, -0.0237611812, 0.0870771334, 0.0830293670, -0.1041938812, 0.1050424799, -0.0918543041, 0.0143464739, -0.0210670494, -0.0029701064, 0.0310045891, 0.0261000842, 0.0605074726, 0.0912621394, 0.0081738140, 0.0034545744, 0.1005465686, 0.2271212339, 0.1080904678, 0.0386115164, -0.1360244155, -0.0952196643, 0.0645939708, 0.1089568883, 0.0907706395, -0.0000402512, -0.0243372377, -0.0198009331, 0.0000649366, -0.0292805322, 0.0885708109, -0.1413047016, -0.2675436139, -0.1262828261, 0.2146144807, 0.0382112525, -0.1794763207, -0.0258712005, -0.0989048555, -0.0479636565, -0.0070222872, -0.0422615036, 0.0310077965, -0.0558522381, 0.1166703999, -0.0785683319, 0.1523145735, 0.2641716301, 0.0834079608, -0.0932626948, -0.0312121902, 0.1317742616, -0.0934951603, 0.1596711278, -0.0169129483, 0.0855784565, 0.0392763689, -0.0003930498, -0.0729243159, -0.1297437102, -0.0007913359, 0.0953542218, -0.2129173428, -0.1097087413, -0.0025560488, 0.0094155958, 0.0026859515, -0.0231746063, 0.0010082098, -0.1259263605, -0.0932465270, -0.1701670736, 0.0492886677, 0.1839328557, -0.0922176018, 0.0022192497, -0.0970319286, 0.1513314992, 0.0811983421, 0.0341786556, 0.0320545100, 0.1388878524, 0.2067342848, -0.1254050881, -0.0031224340, -0.0023791911, 0.0126187904, 0.0880090892, 0.0008387112, 0.1362189800, 0.2778775692, 0.1148148701, -0.1929143518, 0.0626734346, 0.3035013378, -0.0492701344, 0.1104293391, -0.0858544707, -0.1367404014, 0.4045385122, -0.1808397621, 0.1822176725, 0.1899396330, 0.1068971232, 0.0784746781, 0.2217169106, -0.0978432819, -0.1948866099, -0.0962570459, -0.4438400269, -0.0110572707, -0.0514403917, -0.1253270954, -0.0747686625, 0.0885201842, -0.0025539754, 0.1378676146, 0.0882725865, -0.2364526689, -0.1511270553, -0.4551444650, 0.0421884619, -0.0769918337, -0.0005687463, 0.0611592941, 0.2686563730, -0.0541225001, -0.0607978739, -0.0707059726, -0.0683184639, 0.0670148060, -0.0901333690, -0.0258062128, -0.3419973552, -0.2306534201, -0.0004154478, -0.1070207432, -0.1401647478, 0.1898397654, 0.0006570859, -0.0005580698, -0.0162899159, 0.0538730621, 0.0869043469, -0.0921402350, 0.2464336008, 0.1710082889, 0.1486539096, -0.0681271404, -0.0000042493, -0.1763887852, 0.0622792542, 0.1780758947, 0.2091852129, 0.1322150975, 0.1437743753, 0.0206495859, -0.1034559980, 0.1645915806, 0.0527361929, -0.0232169777, -0.0328836069, -0.2131258398, 0.2079642564, -0.0043374402, 0.2303199619, -0.0116014034, -0.2097659856, 0.2858379781, 0.1171717942, -0.1207047254, 0.0678614452, -0.0843614489, 0.0886039063, 0.1019825712, 0.1486975402, -0.0629577562, -0.2468936443, 0.0027124779, 0.0181274377, 0.2566783130, -0.0065815342, 0.1287401617, 0.0914667174, -0.0244835112, 0.1816863567, -0.0951918364, 0.0273398086, -0.0002825832, -0.0371822491, -0.2270546854, 0.0017336882, 0.0182580631, 0.1828457266, -0.0747129843, 0.0670390278, -0.0027488370, 0.0103422822, 0.0797659531, -0.0386459529, -0.0109286057, 0.1119692996, 0.1138327271, 0.0120012257, -0.1266564429, 0.1551925391, -0.0002291555, -0.1484375745, -0.1135351211, 0.1158648953, 0.0995535329, 0.0006980847, -0.0001607749, -0.0718891248, 0.1813651025, 0.0680225194, 0.1885365397, -0.1420654804, 0.0929514691, 0.0209328718, -0.1094909012, 0.2212249935, 0.0395392515, -0.2512854338, 0.0618734397, 0.1427211314, -0.0769349113, -0.0079668304, 0.0533453152, -0.1298685372, -0.0003657227, -0.0079862345, -0.0065199812, -0.0112402570, -0.0880524814, -0.3192802072, -0.0205930062, -0.3013573885, 0.1747768223, 0.0565571897, 0.1047268808, -0.2481099218, 0.1767990589, -0.1492857933, 0.0756632090, -0.1858843118, -0.1399403065, 0.0009413572, -0.1584553570, 0.0399555825, 0.0000357726, 0.0109104766, 0.1700339913, -0.1985091865, -0.1615857333, -0.1080132052, 0.1547830403, 0.1468232870, 0.0117196413, -0.0001422040, 0.0140489619, -0.1607815623, 0.0002166331, -0.0376844853, -0.0778218210, 0.0279514026, 0.0751780421, 0.0315996595, 0.0882544219, 0.1571657807, 0.1168321297, -0.0160603486, -0.1195424795, -0.0179958083, -0.2130634487, -0.1749476492, 0.1176058054, -0.1860126108, -0.0101426803, -0.0555555299, 0.1020694003, -0.0484177507, 0.0806892440, 0.0781851187, 0.0355599634, -0.2043419927, 0.1138753444, 0.2838316858, -0.0572496206, 0.0471529216, 0.0016829713, -0.0658678859, -0.1693582833, -0.0812491402, -0.0877617821, 0.0539573617, -0.0008963229, -0.0499704815, -0.0645771250, 0.0010993811, 0.0077595692, 0.1304136962, 0.1312269866, 0.1034831181, 0.0001756519, 0.0690680444, 0.1451111138, 0.0008414187, 0.1378295422, 0.0960024148, 0.1287894845, -0.0059343157, -0.0051055034};

#endif

#endif
