//Numpy array shape [3, 3, 3, 16]
//Min -5.979379177094
//Max 5.458008289337
//Number of zeros 130

#ifndef W2_H_
#define W2_H_

#ifndef __SYNTHESIS__
conv_0_weight_t w2[432];
#else
conv_0_weight_t w2[432] = {-1.3493081331, -0.0000000000, -0.0000000000, 0.0000000000, 0.0000000000, -4.2735457420, -2.8371138573, -1.3767113686, -4.1805286407, -0.6063609719, 0.9672484398, 1.6878356934, -0.0000000000, 0.0000000000, 0.0000000000, -0.0000000000, 0.0000000000, -4.2868242264, -0.0000000000, 0.2462522984, 0.0000000000, -4.7876830101, 3.6720280647, 0.5257783532, -0.0000000000, 1.1670558453, 3.8782200813, -5.8836150169, 2.9953482151, -1.9561343193, -0.0000000000, -1.2730705738, -0.4055757821, -2.1272945404, 1.2916204929, 1.6766506433, 0.0000000000, -0.0000000000, -0.0000000000, -0.6153203845, -0.0000000000, 3.5539221764, 3.3194475174, 1.9657790661, 3.3975005150, 0.0000000000, -0.6385176778, -0.3091374040, 2.9997200966, -0.0000000000, 0.0000000000, 0.0000000000, 0.0000000000, -1.6088496447, -3.3246765137, 0.9041559696, -0.0000000000, 2.4498925209, 1.5089718103, 1.4127148390, -0.0000000000, -0.7092892528, 0.0000000000, -2.9785480499, 1.5508728027, 2.3969490528, -0.0000000000, 0.6052390337, 0.0000000000, -0.0000000000, -4.4773774147, 0.4744859636, -3.8814623356, 3.7237026691, 1.8316206932, 1.6800962687, -1.8083018064, 1.1950833797, 0.0000000000, -0.8220950961, 2.7120490074, -0.8183104992, 1.3257871866, 0.0000000000, 0.0000000000, -0.0000000000, -0.0000000000, -0.0408410057, -2.5059130192, -0.6861018538, 1.6169945002, 2.0462739468, -2.7178473473, -0.7938711047, 1.2041492462, 0.8840912580, 3.1581201553, -0.0000000000, 0.0000000000, 0.0000000000, -0.0000000000, 2.6585681438, -1.2219679356, 0.7953301072, -0.0000000000, -0.8594324589, 4.8062319756, -0.0000000000, -4.3072834015, 2.0296738148, 0.0000000000, -1.1941987276, 3.9327614307, 2.2756505013, 0.0000000000, 0.1571620107, -0.0000000000, 4.3207273483, -0.6259219050, -1.0149718523, -3.8874337673, 2.4212121964, -0.0000000000, -0.0000000000, -0.0000000000, 0.0000000000, -0.4786723256, -0.0000000000, 1.0760015249, -0.0000000000, -0.8528615236, 1.0914738178, -0.0000000000, 1.8496795893, -1.6848809719, -1.6171973944, -2.6249184608, -3.1155991554, 1.0953375101, -5.9793791771, -3.8852095604, -1.1739397049, -0.0000000000, 1.4487955570, 0.0000000000, -0.7613028288, -0.0000000000, -0.2147774547, 0.0000000000, 2.3947775364, 3.2559206486, -0.0000000000, -0.0000000000, 2.1818711758, -4.2828259468, -2.1815428734, -0.0000000000, 0.6284893751, 0.0000000000, 1.1401227713, -2.3715629578, 1.6199754477, -0.2925201058, 0.0000000000, 0.0000000000, 2.8656716347, -3.7808966637, -0.3654594421, -3.3485424519, -2.0514783859, 3.0262172222, -4.3161883354, -0.0000000000, 1.4206955433, -0.0000000000, -0.0000000000, 0.0000000000, -0.0000000000, 0.8105217814, 0.4610132873, -0.0000000000, -0.0000000000, 1.4029669762, 0.0000000000, -1.9444785118, 1.4769686460, -3.1235661507, -0.0000000000, 2.3005228043, -1.9717284441, -0.0000000000, -0.3158117533, 0.0000000000, -1.3559581041, -0.0000000000, -0.0332043767, 0.0000000000, 4.7694873810, -0.0000000000, 0.6654694676, -1.7120893002, -1.2834575176, -2.5884566307, -3.0146489143, -1.7937721014, 0.9698737264, 0.0000000000, -0.8285698295, -1.3661688566, 0.6899055243, -0.0000000000, 0.0000000000, 0.0000000000, -0.6359643936, -0.0000000000, -0.7338892817, 3.2167377472, 1.5052038431, 3.3457078934, 5.3581094742, 2.4608602524, 2.2025017738, -0.9098396301, -0.0000000000, -2.1980769634, 1.2517845631, -0.0000000000, 1.3812171221, -0.6099296808, -2.9608161449, -3.0596964359, 0.0000000000, -0.0000000000, 1.2079687119, -0.7192949653, 4.9147338867, 2.5883674622, -1.4229151011, 0.5491499305, -0.5090091825, -1.9660325050, 2.9218616486, 0.0000000000, 1.5174578428, -1.2836852074, -0.0000000000, 4.2085623741, 0.0000000000, 2.6362998486, -0.0000000000, -0.8214217424, 3.9243180752, 1.3727871180, 0.7981786132, -1.4433138371, -0.9189551473, 0.0000000000, 3.8702898026, -0.3270086944, 0.1428010613, -0.0000000000, -3.2199096680, -0.0000000000, 1.7341532707, 1.7286144495, -2.6342921257, -0.0000000000, -1.4418287277, -1.4473628998, 2.0904533863, -1.4657212496, 1.4807412624, 0.0000000000, -1.4064961672, -0.0000000000, 0.4334786236, 1.3150620461, -5.0741667747, 3.0154242516, -0.0745712146, -1.9129577875, -2.8170413971, -1.1415964365, -0.0000000000, 0.8346983194, -0.6162258983, -0.0000000000, 0.3609803319, -1.2139375210, -0.0000000000, -0.1804483831, -1.6737750769, -0.0000000000, -0.0000000000, -0.9567140341, -2.5745589733, 4.6729650497, -2.6472475529, 1.7753206491, -3.9708843231, 2.8305969238, -1.1554418802, -0.1102571636, -0.0000000000, -1.6279757023, -2.1233887672, -1.7378422022, -0.0303098634, -0.5297265649, -0.0000000000, -0.0000000000, -0.3308659792, 2.3323383331, 2.3149812222, -5.4305620193, 2.2467422485, -0.0000000000, 0.6795402765, -1.6943371296, 0.9693238735, 1.9283807278, -3.2359769344, -1.1788353920, 0.0000000000, 0.2331848592, 3.1209006310, -1.4857498407, -0.4942556620, 5.0130009651, 2.4070153236, -0.0000000000, -5.6340546608, -2.5806410313, -1.8602436781, -0.0000000000, 1.2339917421, 1.2948352098, -2.4941008091, -0.0000000000, -0.3314405680, -1.2447334528, 3.7324740887, -0.8779836297, 0.0000000000, -0.0000000000, 0.4910514951, -0.0000000000, 5.4580082893, 1.9152538776, -1.3686921597, -0.4840067327, -0.0000000000, -3.3469696045, -1.8973597288, -0.7633653283, 0.0000000000, -0.0000000000, 1.8804134130, 1.8105661869, -0.2863887548, 2.3061761856, -3.4206638336, -4.1006574631, -0.0000000000, 1.1146318913, -0.8560456038, -1.9734489918, -0.0000000000, -2.8431191444, 2.6011917591, -0.4842053950, -0.8377670050, -1.7736074924, 3.1080422401, -1.4260282516, 0.0000000000, -0.0000000000, -3.0169434547, -1.2181540728, 1.4586614370, -0.0000000000, 0.9113184810, -0.0000000000, -0.0000000000, -0.9018087983, 1.5730057955, -1.2329895496, 0.0000000000, -0.0000000000, -4.6624741554, 2.5604686737, 1.4127779007, -1.9846764803, 0.5859614611, -2.2157237530, -3.8175878525, -0.0000000000, -0.5001463890, 1.1293381453, -1.1666013002, -1.7059764862, -1.6049587727, 0.0000000000, -1.3107470274, -0.0000000000, -0.0000000000, 1.9125137329, 0.2644651532, 2.6743018627, -4.3218126297, 1.0858764648, 4.8770112991, -3.3029644489, 2.1227116585, 2.5384137630, 0.0000000000, 2.3460996151, 3.0197865963, -0.0000000000, -0.1716362387, -0.0000000000, -3.2512593269, 4.0319867134, -0.6383068562, 3.6669428349, 1.5166068077, -2.3781397343, -0.0000000000, -0.0000000000, 0.8623967171, -0.0000000000, -1.3004144430};

#endif

#endif
