//Numpy array shape [64, 10]
//Min -0.870470702648
//Max 0.727764427662
//Number of zeros 0

#ifndef W26_H_
#define W26_H_

#ifndef __SYNTHESIS__
output_dense_weight_t w26[640];
#else
output_dense_weight_t w26[640] = {0.1412844062, -0.3626611233, 0.3474588692, -0.2492865473, 0.5139396787, -0.3718692362, 0.0107994117, -0.0581441484, -0.1050324589, 0.1008155569, -0.0831947550, 0.0757648051, 0.2206091136, 0.4011368454, 0.0925846025, 0.3167006969, -0.5446423888, -0.4147566557, -0.3590471447, 0.0241763517, -0.4807436168, 0.4365613163, -0.4273313880, 0.3658021390, -0.1740732789, -0.3270938694, -0.3096129298, -0.2657328844, 0.0123024872, 0.0246446766, -0.5029852390, 0.4164241552, -0.4194821119, -0.1832533926, 0.4894626439, -0.1787942350, -0.2297100872, -0.3340695500, -0.0653265715, -0.1320547312, -0.5829588771, -0.1701853424, 0.0208394453, 0.1798815131, -0.4871144593, 0.3090410531, 0.2128567845, -0.3192524910, 0.2129334062, -0.5762804747, 0.2296905965, -0.1504511386, 0.5020997524, -0.0901273414, -0.2376046777, -0.5098201036, -0.7727864385, 0.4188245237, -0.3232802749, -0.1024622768, 0.2548491657, -0.3420787752, 0.2142932415, 0.4871065915, 0.3292885423, 0.4701184332, -0.1241120249, -0.1948807985, -0.2926374972, -0.4391976893, -0.5058463216, 0.5159544945, 0.4573169053, -0.4516875148, -0.2123462409, -0.2588906288, -0.4113838375, 0.5509884953, 0.2420303822, -0.2266268730, 0.0682480335, 0.4995535612, -0.3236821294, 0.2160603255, -0.4402387738, -0.4620969296, -0.1954594851, 0.3934990764, 0.0386595540, -0.0419142097, 0.0007622571, 0.4374618232, 0.1086361557, -0.1768224388, -0.6940556169, 0.3159323633, 0.1350142509, -0.2435731739, -0.5932903886, -0.3584673107, 0.0113426028, 0.3757925332, 0.3889703453, 0.1420630217, 0.1599936485, 0.2423593551, -0.1303384602, -0.6839146018, -0.4497236013, -0.2001892626, -0.2954020500, 0.3332183957, -0.4205232561, 0.4224231541, -0.1006209403, 0.3025350869, -0.1099086776, 0.2429262400, -0.3242205679, 0.2617690563, -0.2826913595, -0.2595163882, 0.1787976623, 0.1259244829, 0.6218891144, -0.4643809497, -0.6965063214, 0.2061537057, 0.0254236963, 0.2875615954, 0.3934381902, -0.1012728065, -0.0942926481, 0.4181872904, -0.3541493118, -0.4437370300, 0.2550767660, 0.1413477808, -0.2960688174, 0.0122507662, 0.6048214436, -0.3283047080, -0.3523227870, -0.3164258301, 0.3783055842, -0.1840563864, -0.3417192698, -0.3561776578, -0.2701491117, 0.4292157888, 0.7277644277, -0.1242845431, -0.2848012149, 0.0228234138, -0.1151340380, 0.0938289836, 0.4450463057, -0.3451361358, 0.0660574213, -0.3925326765, -0.0271328650, -0.2701596916, 0.2763893902, 0.1122351214, 0.3990460336, -0.4085281491, -0.3207420111, 0.4506499767, -0.0585691445, 0.1412214935, 0.2540537119, -0.1808588207, -0.2594208419, -0.0244626328, 0.1068747267, -0.1704131961, 0.3754654825, 0.0099578053, 0.0389298610, 0.3638982177, -0.4846687615, -0.1795101911, 0.4954993427, 0.0247428510, 0.4393180013, 0.4093106091, 0.2169729769, 0.2975730896, -0.1847002655, -0.1869330257, 0.0502789542, -0.0575205572, 0.1895122528, 0.1240300462, -0.3636238575, -0.0760559887, -0.5342866778, 0.5056494474, 0.1666117460, -0.4918195605, -0.2544423342, 0.1926246583, 0.3283716142, -0.3881481588, -0.1057340950, 0.1918669492, 0.0895324647, -0.6229848862, 0.5939584970, 0.2823783457, 0.2642198801, 0.2811752260, -0.4366980195, 0.3739567399, 0.2765222490, -0.4139347076, -0.2566820383, -0.0187806040, -0.4280885458, -0.2282307595, 0.2691348195, -0.2433349639, -0.0581656769, -0.0870738626, 0.4404915869, -0.1586479694, 0.5714985132, -0.3578910828, -0.2947030962, -0.0410875268, -0.1548104882, -0.0268278699, -0.4914222956, -0.5998430848, 0.2251302600, -0.1076117232, 0.5176230669, -0.3425514400, -0.1426782310, -0.4602490366, 0.2913218141, 0.4374046326, -0.2456589639, -0.5418549180, -0.3204426467, 0.0011554996, -0.4767259657, 0.3887014687, -0.0292805992, 0.1283529699, -0.1439574808, -0.2582526803, -0.2557793856, -0.5091670156, 0.1674047858, -0.3683368564, -0.1971012801, 0.4846062958, 0.0401055999, 0.0938130841, 0.3880018890, 0.3097899854, -0.0263938401, 0.2114575803, -0.2805333734, -0.3727973700, 0.0318797678, 0.0348779224, -0.4534528852, -0.3585015237, 0.0762230307, -0.2981145084, 0.0530725084, -0.0027389491, 0.5934260488, -0.4355207682, 0.0864240900, 0.2638712823, 0.0446506031, 0.0246782005, 0.1990870684, 0.0448277071, 0.0404116102, 0.1465931535, -0.4837971926, -0.3125170171, -0.3966976702, -0.8704707026, 0.2067910880, 0.3591764867, 0.2457427680, -0.0492971055, -0.5465424657, 0.0532105640, -0.3523969948, 0.4729229808, -0.4091234505, -0.1767660975, -0.0887251571, -0.2514438927, 0.0848651677, -0.1030743644, 0.4442443848, 0.0751194730, -0.4719964266, -0.3530752659, -0.0468901917, 0.3482457697, -0.3301498294, 0.1941964626, -0.3956139684, 0.3023994267, -0.2467300445, -0.5746284723, 0.4501740634, 0.0586441197, 0.1472837180, -0.4328744113, -0.0356476791, -0.0879407972, -0.4825214148, -0.0250895787, -0.3104628623, -0.1097442731, 0.0509610437, 0.1673370451, 0.5843968391, -0.4483677447, 0.3904178143, -0.5176607370, 0.1617851555, 0.4060008526, -0.3668745458, 0.3034360111, 0.1343455911, -0.2723367512, -0.3252819479, -0.5294538736, -0.0435534455, 0.4742335379, -0.0197542813, -0.0698121861, 0.3620639443, -0.3353402615, -0.3080455959, -0.2076407373, -0.1342411935, 0.2565596104, -0.3520241678, 0.2962940931, -0.2860547006, 0.1277201474, -0.1438338906, 0.1776085198, -0.1700209230, 0.2158654779, 0.2579638362, -0.8237207532, 0.4544290900, 0.3566105366, -0.5400398970, 0.1287384331, 0.1003364921, 0.4522612989, -0.0415833928, -0.4603850842, -0.4526816308, 0.0207166001, -0.2621070743, -0.2761039436, -0.4888147414, -0.2516870499, 0.4399197102, -0.1270449013, 0.3120458424, 0.1049702093, 0.2345482111, 0.0129579371, -0.2124980539, 0.3162256181, -0.3760533631, -0.0793080851, 0.5104820728, 0.1216330528, 0.5642322898, 0.0225513801, -0.5244749188, -0.4195202589, 0.3389727771, -0.0774394572, -0.0300474539, -0.3265405595, 0.2192731947, 0.1360923499, 0.2267322689, -0.7469789386, -0.1182471290, -0.0367396437, 0.2920590937, -0.5735417604, -0.0007724139, 0.3337008655, 0.2148152888, -0.6194967031, 0.4761864543, 0.0695259124, -0.0513848364, -0.1236041859, -0.3255649209, -0.4344966710, -0.6619528532, 0.1651234776, -0.1566464454, 0.4186124802, 0.1950653195, -0.0853376314, 0.2382297218, -0.5190803409, 0.3369137049, -0.2127510011, -0.4243304133, -0.2604117095, -0.0040477924, -0.0338392965, -0.6641049981, 0.5793294311, -0.0220720898, 0.1281561852, 0.1261313707, 0.2111039162, -0.1977654397, -0.2543174922, 0.1637975574, 0.0925757885, 0.3686201870, 0.3594290912, -0.5217359066, -0.2465563267, -0.3254663348, -0.0463249460, -0.1025601849, -0.4122578800, -0.0465924367, 0.1155674830, 0.1433244050, 0.3691548705, 0.1641254723, 0.0362519622, -0.1244064793, 0.1019194201, 0.2712772191, 0.4457745850, -0.0629351139, -0.0611357838, -0.2896289229, -0.2223945707, 0.0003883637, 0.0982700214, -0.1868413687, 0.0032570898, -0.0984710902, -0.4021736085, -0.2810688019, 0.4010062814, -0.3010006845, 0.1830592304, 0.0620737784, 0.5373333097, -0.6953846216, -0.5448436141, -0.1870718151, -0.5043396950, 0.5154575109, 0.0009949433, -0.5109068751, -0.2052530497, 0.3897269070, -0.4429872632, 0.5384954810, -0.0763664469, 0.0885600075, -0.1288020313, -0.5377123952, -0.2199468315, -0.4068298042, 0.0319317393, 0.1037890315, 0.0450854339, 0.4632233083, 0.6108670831, 0.1889094412, 0.2959958911, -0.4389434159, -0.5850316882, 0.4650009274, -0.4262185693, -0.0189959854, 0.0584968925, 0.1504257321, -0.3316457570, -0.3412277102, 0.0043843407, 0.3552597463, 0.3251029253, -0.5776128769, 0.1511560678, -0.1947805583, 0.0847027600, -0.1579097360, -0.1309474707, 0.2383228689, 0.3614720404, 0.2273851186, -0.3055073023, -0.4261856377, 0.1439997256, -0.4417320192, 0.0258982107, -0.3162648678, 0.1728627235, -0.3578999341, -0.2611896396, -0.5238027573, -0.0698657706, -0.1494663954, 0.3517124951, 0.3188991845, -0.1205276847, 0.1230134442, 0.3860401809, 0.2857859135, 0.3173109889, -0.4144333899, 0.0664660111, 0.2453764081, -0.3195021152, -0.1203380823, 0.3033987284, 0.3772161305, -0.7748212814, 0.2251515985, -0.4150427580, 0.4664664268, 0.3379316330, -0.4767065346, -0.1209370717, 0.1061175838, -0.3458453715, -0.2446770519, -0.4063726664, 0.3289044797, -0.4230259657, 0.3435984254, -0.3148500621, -0.5243371725, -0.0891210735, 0.0953793973, -0.6769497991, -0.0500050187, 0.1214106828, 0.2165669650, -0.2251906097, 0.0537439957, -0.0075475574, -0.2840034366, 0.2914976776, -0.1641461849, -0.3070752621, 0.4562223256, -0.4479972422, -0.2261939943, -0.1246616393, 0.0273245871, -0.5911633968, 0.5043225288, 0.3013616800, -0.0981457531, 0.2027743906, -0.5560459495, 0.1926249415, 0.1349466443, 0.0491698943, 0.0491708666, -0.0549938940, 0.0518179126, -0.1846770942, 0.4616181552, 0.5414012074, -0.2078120261, -0.2139528394, 0.6311109066, -0.0568149015, -0.3882679939, -0.4912204146, -0.3684547544, -0.6077734232, 0.4108696282, 0.1457629204, 0.5992246270, 0.2377260774, -0.4405777752, -0.3775243163, -0.5344187617, 0.0327412263, -0.1344683766, 0.2380878478, -0.1068856642, -0.3850522041, -0.1596125066, 0.3027904630, -0.6021728516, -0.3232662976, -0.3536697924, 0.5630298853, -0.1446664035, 0.1341934055, -0.7525408864, 0.0845538378, 0.1830915064, 0.3323788345, -0.0561315268, -0.1646358073, 0.4957285821, -0.3213273585, -0.4505189061, -0.0389089361, -0.1847862154, 0.4363015890, -0.5693137646, 0.0621359721, -0.0627345964, 0.1246197745, 0.2592844367, -0.0214980282, -0.0417021327, 0.4925263822, 0.4423947036, -0.0163057614, -0.7145549059, 0.0738826096};

#endif

#endif
