//Numpy array shape [32, 32]
//Min -0.775590837002
//Max 0.516143679619
//Number of zeros 0

#ifndef W8_H_
#define W8_H_

#ifndef __SYNTHESIS__
model_default_t w8[1024];
#else
model_default_t w8[1024] = {0.0731593743, -0.0437440351, 0.0254023559, 0.0940986425, 0.1011606380, 0.3387688100, -0.1190690026, 0.3692748547, -0.0851852372, -0.0353894271, -0.2360779196, -0.0000095528, -0.1359358728, -0.2610731721, 0.2856343985, 0.0815906227, -0.2760094702, 0.0417278633, -0.0658307746, 0.1390035301, 0.2674586177, -0.0479393341, -0.0733984336, 0.0854476467, 0.2205746323, 0.1995314956, 0.0206175689, 0.1970042884, 0.0266912226, 0.0000128466, 0.1260371506, 0.0432920344, -0.3419158757, 0.1275787652, -0.1757084578, -0.0000231920, 0.4140955210, 0.2175273448, -0.1877606064, -0.2957566381, 0.0296583008, -0.1102790758, 0.0942514464, -0.0000058856, -0.3568927050, 0.0680718273, 0.0000113053, -0.6093723178, 0.2314264327, -0.0000316561, 0.0000031470, 0.1035027802, 0.0000367705, 0.3001137376, 0.2199566215, 0.2277708501, 0.2951965928, 0.0000100368, 0.1573164016, -0.0899442956, -0.0000007707, -0.0000147968, -0.0281218626, 0.0000012264, 0.1788381785, 0.0005471781, 0.1995003670, 0.0036342579, 0.0758186430, -0.0996953472, 0.1671295017, 0.0099670393, -0.3957474828, 0.0599479079, 0.0051299920, -0.0000114658, 0.2683552504, 0.1912738383, 0.0139457723, -0.1955238432, -0.1074975729, -0.0738292187, -0.0005296888, -0.0645068064, -0.3420827389, 0.1118443161, 0.2526660264, 0.0815003216, -0.1986388713, -0.3873002231, 0.1633511186, -0.1281761527, -0.0948107019, -0.0000009162, 0.2806969881, 0.1567722857, 0.1009050980, -0.1128615215, 0.0936570913, 0.1476673484, -0.0915028527, -0.1670827568, 0.2802526951, 0.1581531018, 0.0971313417, 0.1259771883, -0.1772242486, 0.0000054243, -0.1372260600, -0.1980896443, -0.1095746681, 0.0757915080, -0.0814263523, 0.0866658315, -0.0001269721, 0.1128749326, 0.0191147458, -0.1679151654, 0.1571434587, -0.0783054829, 0.1971708536, 0.1992554665, -0.1221739352, -0.1141944826, 0.1494774669, 0.0000057213, -0.0918699503, 0.1990794092, 0.0522979088, -0.1711736917, -0.1822084486, 0.3213942051, 0.1214853525, -0.0012773536, 0.1159284040, -0.0973664150, 0.0859805718, -0.3242087066, 0.0343264118, 0.0000444939, -0.0301058665, 0.1338443309, -0.3710548282, -0.0173883643, 0.3060597479, -0.0553228892, -0.1081800982, 0.2241602540, -0.0817382559, 0.2627408504, 0.3782483339, 0.1991916597, -0.2418708205, -0.0370642766, -0.2757861614, 0.0209248252, 0.0649809688, -0.0000024621, 0.2128057182, -0.1497199982, 0.0342547819, 0.2088967711, -0.0784800500, -0.3555020690, 0.0264906883, 0.0428010784, -0.3354954720, 0.2397269756, -0.2160965055, -0.1674145758, -0.0128162503, -0.0000002104, 0.2560321093, 0.2475037724, -0.6442971230, -0.0047462215, 0.1536836475, 0.0061948062, -0.0000029852, 0.1454696059, -0.2540277839, -0.0250792075, 0.2560055256, -0.0399058387, 0.2307366729, -0.7580347657, -0.1804691851, -0.0227214489, -0.7723804712, -0.0000024988, -0.1961270869, -0.5402593613, 0.3187308609, -0.2326131463, -0.1976995319, 0.1227287650, -0.0460112467, -0.0696791485, 0.0908235535, 0.1363222003, 0.3821342289, 0.2026438117, -0.2390480340, 0.0000060429, 0.2802232206, 0.2515091002, -0.0368825123, -0.0007937598, -0.1531535685, -0.3938329518, 0.0000074673, 0.0195930377, 0.0091115516, 0.0104825115, -0.1884535551, -0.1135315299, -0.2027239054, 0.1877668798, 0.0002314974, 0.4340982735, 0.3064263761, 0.0000102349, -0.0916862339, 0.2413545549, 0.3584717214, -0.0582763553, 0.0966292694, -0.0391204171, -0.0486583002, -0.0997437760, 0.4297254980, 0.1842836142, 0.0000168589, 0.2874159515, -0.0418716446, 0.0000105244, 0.0134271001, -0.2635706067, 0.2475664318, 0.1171615794, -0.0722032189, -0.1479728371, -0.0002631741, -0.1414377093, 0.2781595290, -0.0291761421, -0.0938947350, 0.3921861351, -0.2067080438, 0.0037786381, -0.0561039783, -0.0738738254, -0.0616516061, -0.0000029855, -0.1675905138, 0.0943344086, 0.3074923456, 0.2418718189, 0.1068623289, 0.0001434441, -0.3981111646, -0.2213451266, 0.2408138663, 0.2779226005, -0.0744954571, 0.1885429472, -0.3732407391, -0.0000147389, 0.0299382694, 0.0009654249, 0.0643777549, -0.0165367555, 0.3060312569, -0.0982868150, -0.0003477211, -0.2014751285, -0.0377440155, 0.0994095579, 0.0001538420, 0.5161436796, -0.0308890548, 0.0886913016, -0.2833669782, -0.2214937210, 0.2031117976, 0.0000127722, -0.0270786881, -0.0479389243, -0.0012503385, 0.2152535617, 0.1763473451, 0.0452051088, 0.1262496859, -0.0003396975, -0.1392352730, -0.5007679462, -0.0005082699, -0.3120332360, 0.0223567970, 0.0000005385, -0.2584992349, 0.2200571895, -0.0775393099, -0.3262387812, -0.0002981848, -0.0359669328, -0.0000204960, 0.3325816095, 0.2039649040, -0.4522106946, -0.1165862978, -0.3846022189, 0.1183897033, 0.0341768190, -0.2216905355, 0.1975117773, -0.3411225975, -0.0000095258, 0.0057692109, -0.0634799078, 0.1717123538, 0.0551438741, -0.0329324827, -0.1708649248, -0.1076583639, 0.1987788975, -0.0268379282, 0.0553590506, 0.1402491331, 0.1197387949, 0.1258805394, -0.0000219222, 0.2106636018, 0.2562795281, -0.2652813196, 0.0603081621, 0.0239423644, -0.1497419924, 0.0000151249, -0.0281663928, -0.0083039869, 0.2795055509, 0.0813173652, 0.2551156282, 0.2462579906, -0.5232381821, -0.0033591266, 0.2540984750, -0.4064975679, -0.0000068693, 0.2916186452, -0.3444897234, 0.2350572199, 0.0318587832, -0.3446956873, 0.0051979129, -0.4396455288, 0.1231106296, -0.0221528858, 0.2871046960, -0.0070929676, -0.0045628208, -0.2530454397, -0.0000073668, 0.0058935303, 0.1935574859, 0.0831092522, 0.3037886620, -0.0351712927, -0.3756561577, -0.0001725804, -0.2123354375, -0.4063906968, 0.3804331124, 0.2854160070, 0.1812629551, -0.3640616834, 0.0471713841, -0.1835688949, -0.0786573887, 0.2722833455, -0.0000242211, 0.0000450895, 0.0009245978, 0.1395317614, -0.0153219225, 0.1437605321, -0.3162808418, 0.3030184209, 0.1334401220, -0.1139070764, 0.1366966069, -0.1006162018, 0.0639403984, 0.3049623668, 0.0000163346, 0.0488735065, -0.2377749681, -0.2081156373, 0.1868150532, 0.0798497275, -0.0000186330, 0.0000087996, -0.0157504492, -0.4563386440, 0.2917118371, -0.0002195989, 0.0852954760, -0.1823964417, -0.5039284229, 0.1556477249, -0.0051714466, -0.4200146198, 0.0000096952, -0.2418455631, 0.0000000115, 0.0467018411, 0.0951061621, -0.0054580257, -0.3541949689, 0.0004478986, 0.1661610901, -0.0887426138, 0.1336988360, -0.2573349476, -0.0004441624, 0.0007844690, 0.0000035270, 0.1221376657, -0.0849238858, -0.0007226486, 0.1601483971, -0.1772891134, 0.0001299911, -0.0000465490, -0.0370909907, -0.1630937159, 0.4376378357, 0.3129671216, -0.1191439927, -0.0015827157, -0.1276483834, 0.1596809030, -0.4116063118, -0.1041434929, -0.0000344072, 0.2504855394, -0.0004893170, -0.0015430269, 0.1041250676, -0.1812621057, -0.1231656075, 0.0681889877, 0.0014021951, -0.0973394439, -0.0345558338, 0.0575705506, -0.0993176252, -0.2298603952, -0.0000174251, -0.0974662676, 0.2839592695, -0.2753548324, 0.0310867317, 0.3080345690, -0.0014801791, -0.0001369780, -0.0616409034, 0.0121186282, 0.0002135906, 0.1705385745, -0.0521121137, -0.0381169468, 0.2408691943, 0.3008900583, -0.2317867726, 0.0007140610, -0.0000047336, 0.2104663849, -0.0002519639, -0.0927714631, 0.0518287905, 0.2320611328, -0.0136237824, 0.3834311366, -0.2536529005, 0.1012676954, 0.0835956112, 0.3860436082, -0.1474141926, 0.0493669957, -0.0000033388, 0.2654854953, 0.0379392020, 0.3007941246, 0.0355273075, -0.1799548268, -0.1644528508, -0.0000818670, -0.1544581354, 0.1402801722, 0.2840420008, -0.0004384441, -0.2057908326, 0.1342515051, 0.4647184908, -0.1828110516, -0.0489730276, -0.0912001133, 0.0000096893, -0.1576076448, -0.0337393358, -0.0722370967, 0.1040659398, 0.2972614169, -0.0119498856, -0.0773503929, -0.0885288343, -0.2008453161, -0.2028993219, -0.0004305208, 0.0167027917, 0.2692425251, 0.0000147377, 0.1346165538, 0.3116900921, -0.0689753070, 0.2533056438, 0.2379091382, -0.1256963909, -0.0001248390, 0.1101744846, 0.1689186841, 0.1694238335, 0.2359015346, 0.0263558291, -0.2374412268, -0.2359457463, -0.1221220866, -0.2341941744, -0.1348165721, 0.0000215115, 0.1600488871, -0.0517807975, -0.4558712840, 0.0445940830, 0.0606625564, 0.2087200284, 0.1265220493, 0.2535979450, -0.1438800842, -0.1977345198, -0.2687043250, 0.2816672325, 0.0101107536, -0.0000166483, -0.0713677481, -0.0901109502, 0.0942427367, -0.2520439029, 0.2885135114, 0.3136684000, -0.0005750430, -0.0036551435, 0.1662629247, -0.0508425049, 0.1029862314, 0.2831867039, 0.1489049494, -0.1981000304, -0.0566870533, 0.2253356427, -0.0832908899, 0.0000441908, 0.2890982032, -0.2695071995, -0.0912957937, 0.0000840534, 0.3213561773, -0.0305732861, -0.1633831114, -0.0000823919, 0.3665315509, -0.0232020710, 0.3737722933, 0.0257075485, -0.2414141744, 0.0000032034, -0.0945972130, -0.0843843892, 0.0147240665, -0.0020909689, 0.0200588740, 0.1956403404, -0.0007046175, -0.2261969447, 0.3284944296, -0.1096337661, 0.1763054430, 0.0135416146, -0.0004409808, -0.0601408556, 0.1771464497, 0.3705697060, 0.0887391344, -0.0000246217, -0.0798490345, 0.1274195462, 0.0487534665, 0.2401451766, -0.0385970101, 0.0935173184, -0.2827287018, 0.1257694513, 0.1880300045, 0.2761838734, -0.3322496414, -0.1330404729, 0.1340790987, -0.0000015353, 0.1955682635, 0.0198623072, 0.1281668544, 0.2758461535, 0.3290077448, -0.2325281203, -0.0004506099, 0.2668050528, -0.0403827541, 0.2932671309, -0.0315510333, 0.4701385796, -0.3642543852, -0.2320119441, 0.0417678244, -0.0378098674, 0.1606798321, 0.0000189401, -0.0161072314, -0.1551903337, 0.4196420014, -0.0542760082, 0.3252693713, 0.1127100810, -0.2311265022, 0.1991584599, -0.1332765967, 0.3010560572, 0.4609767795, 0.3944939077, -0.1991912723, 0.0000156764, 0.2594943345, -0.1748522222, -0.0635054931, 0.4951233566, 0.1049697474, 0.1976579279, -0.0383021981, -0.1179902926, -0.2339194268, -0.3714161515, -0.0971080214, 0.0174392127, -0.0467671752, 0.3589610755, 0.3062529564, -0.0939655602, -0.0197962932, 0.0000267095, -0.0767515898, 0.0031345675, 0.0657591969, -0.0900773555, 0.3068944514, 0.0135215996, 0.3007598221, 0.0900879502, 0.2295939922, 0.1973981261, -0.0719465166, 0.1760507375, 0.2563774288, 0.0000013245, 0.0533588082, 0.0173214935, -0.1619480401, -0.0367092043, 0.2257406265, 0.0419724062, -0.0009755963, -0.0102377832, 0.1792344153, -0.0560634881, -0.0578179322, -0.1078573689, 0.1517426074, 0.0799178183, -0.0010002825, 0.3107212186, -0.0044006733, -0.0000027442, 0.1317272037, -0.0574679710, -0.2397051603, 0.0549989454, -0.0743031949, -0.0758782104, 0.1599690914, 0.2375399470, -0.2220937312, 0.0775566846, 0.1506469101, 0.1060583517, 0.1895352751, 0.0000037288, -0.0560762994, -0.1762921065, -0.3670790493, -0.3000158668, 0.3386703432, -0.0210496951, -0.0001681522, 0.3405310214, -0.0200482719, 0.1007439792, 0.3163328767, 0.0012739172, 0.1161471456, -0.0749278665, -0.0038489513, -0.2133965641, -0.0377632566, 0.0000107905, -0.0632627904, -0.0017047877, 0.0297275148, -0.0232677702, -0.0067841052, 0.0196229853, 0.0037650496, 0.1904001534, -0.0107185086, 0.1140331998, -0.0124792019, -0.1436337978, -0.0057839970, 0.0000103355, 0.1292939931, 0.2146641910, -0.3675862849, -0.0000035127, 0.0149401017, 0.0698876530, 0.1223401949, 0.3009429872, -0.0747281387, -0.0000115992, 0.0000201054, 0.3827916980, 0.0226798337, -0.4758487642, -0.0360626020, -0.1332581043, 0.0862901658, 0.0000079084, 0.0207011290, -0.2934057415, -0.0955453217, -0.1548185199, 0.1866560131, 0.0305012483, -0.2469684184, 0.1738266498, -0.0702311397, 0.0329254232, 0.1093331501, 0.0682182536, -0.3329761624, 0.0000084259, 0.0335626155, 0.1459381580, 0.2478485852, 0.0651149675, 0.1352383196, 0.2592360079, 0.1014698371, 0.1724586189, -0.0493197963, -0.5079752207, 0.1218804792, 0.3398692906, -0.0953291729, -0.2344446629, -0.0544974543, 0.2660737634, 0.2877854407, 0.0000172177, -0.1829569638, 0.2253590971, -0.3238562346, 0.2278357744, 0.1133444458, -0.1617489904, -0.1835405976, -0.4029155970, 0.0656500310, -0.3156539500, -0.1963689178, 0.0200919006, 0.1252355576, 0.0000045575, -0.2104827464, 0.0233649760, -0.1766171604, -0.2418125123, -0.1822897941, -0.2150065154, -0.0000253908, -0.2301705927, -0.1311833411, -0.1730192602, -0.0050294651, 0.0667367652, 0.1012148112, -0.1185377091, 0.0833942294, 0.3809303045, 0.1035105139, -0.0000057639, -0.2361695915, -0.1101367921, 0.1546214968, -0.1611598581, -0.0034513331, 0.1571322978, 0.0583604015, 0.0450993367, -0.0656967983, -0.2129368335, 0.1735850275, 0.0657763034, 0.1530117542, -0.0000059933, -0.1059198901, 0.0529288650, 0.0783546865, -0.2611395717, 0.1899439543, 0.4127497673, 0.0000176959, 0.3677057922, -0.1079780012, -0.1713776737, 0.3334210217, -0.0371553414, 0.0862379596, 0.1175909713, 0.2104399651, 0.0065910839, -0.0311599541, 0.0000176799, 0.0379264541, -0.1922876686, -0.0400873125, -0.1044209972, -0.1320799440, -0.5883247852, -0.0695036352, 0.3774977326, -0.5833401084, 0.1659325659, -0.0470355265, -0.0009150137, 0.2552098930, 0.0000023445, 0.1232450455, 0.2704235613, -0.6554191113, 0.3751127720, -0.0635729507, 0.0000926001, 0.0000004785, 0.2960275114, -0.6088840365, 0.4614299834, 0.3399243057, -0.0108753676, -0.1137968525, -0.7078575492, 0.0638832748, 0.0180324614, -0.5575073957, -0.0000136948, -0.0228237100, -0.1535155326, -0.1173534319, 0.1328291744, 0.3782680929, 0.0954716131, 0.3872838318, -0.2087529749, 0.3457121551, -0.0354574695, 0.3578422666, 0.0475695133, 0.0708128437, -0.0000084984, 0.0802603811, 0.2922839224, -0.0104890065, 0.2161362022, -0.1942807585, -0.4225817323, -0.0002261061, 0.0385259539, 0.2069464475, -0.1488269717, -0.0006316715, -0.2183697820, -0.1674269885, 0.1428733468, -0.1310490966, 0.1596226990, 0.0412091315, 0.0000035877, -0.3297010362, 0.1866728663, -0.1119192019, 0.1130854785, 0.2265456170, 0.0232108869, 0.0155784693, -0.0194343869, 0.3777560890, -0.2965521514, 0.1901152134, 0.1090491861, 0.0927200541, -0.0000208953, 0.1730679125, -0.1143532395, 0.3201027215, 0.1147590503, 0.0116539923, -0.0591969639, -0.0001768694, -0.1401442736, -0.0615933090, -0.0663108453, -0.2767069936, 0.0216970220, 0.3612334430, 0.1753226519, 0.2654846907, 0.2985101640, 0.2244597822, -0.0000204074, -0.0414725393, -0.1068606675, -0.5756235719, 0.0218940154, 0.2869846225, 0.0995560512, 0.0988508239, 0.2020581961, 0.0342017747, 0.1269626170, -0.0211915374, 0.0114421872, 0.2799677551, -0.0000203863, -0.5346677303, 0.1822823584, 0.2116062194, -0.6901575327, -0.2410958111, 0.3685428500, 0.0071837725, 0.2635608315, -0.0312383063, -0.0009418979, 0.1444822699, -0.0527965091, 0.3466016948, -0.1474359632, -0.1605967879, 0.0770673603, 0.2669882774, 0.0000081481, 0.2745720446, 0.1024229378, -0.7172352076, -0.0215576403, 0.0496619195, 0.2208992243, 0.0275531020, -0.0735545754, 0.0629846454, -0.1078850701, -0.3457940519, 0.1036715209, -0.0145746963, -0.0000205688, -0.7103866935, -0.1034156159, -0.1731345803, -0.7755908370, 0.1543397903, -0.0145829124, -0.0004665152, 0.2606544793, 0.3465594947, -0.0933917686, 0.2479144335, -0.0083493851, 0.1373703927, -0.0305691715, 0.1935527027, -0.2444259524, 0.0895792320, -0.0000141104, 0.3415624499, 0.2315165251};

#endif

#endif
